,0,1,2,3,4,5,6,7,8,9,10,11,12,13,14,15,16,17,18,19,20,21,22,23,24,25,26,27,28,29,30,31,32,33,34,35,36,37,38,39,40,41,42,43,44,45,46,47,48,49,50,51,52,53,54,55,56,57,58,59,60,61,62,63,64,65,66,67,68,69,70,71,72,73,74,75,76,77,78,79,80,81,82,83,84,85,86,87,88,89,90,91,92,93,94,95,96,97,98,99,100,101,102,103,104,105,106,107,108,109,110,111,112,113,114,115,116,117,118,119,120,121,122,123,124,125,126,127,128,129,130,131,132,133,134,135,136,137,138,139,140,141,142,143,144,145,146,147,148,149,150,151,152,153,154,155,156,157,158,159,160,161,162,163,164,165,166,167,168,169,170,171,172,173,174,175,176,177,178,179,180,181,182,183,184,185,186,187,188,189,190,191,192,193,194,195,196,197,198,199,200,201,202,203,204,205,206,207,208,209,210,211,212,213,214,215,216,217,218,219,220,221,222,223,224,225,226,227,228,229,230,231,232,233,234,235,236,237,238,239,240,241,242,243,244,245,246,247,248,249,250,251,252,253,254,255,256,257,258,259,260,261,262,263,264,265,266,267,268,269,270,271,272,273,274,275,276,277,278,279,280,281,282,283,284,285,286,287,288,289,290,291,292,293,294,295,296,297,298,299
DRUG_CATEGORY,-0.030438831,-0.065257505,-0.023993319,-0.030426713,0.03670899,0.047299024,0.010850537,0.04606331,0.03458718,0.055766307,-0.024507824,0.034264177,-0.061876,-0.008513224,-0.05352544,-0.031496275,-0.02539687,0.062409997,-0.03674376,-0.036742523,0.04529409,0.089067124,-0.05932048,0.014777125,-0.06158215,-0.054910902,-0.03573318,0.0318903,-0.021409838,0.016846068,-0.048642416,-0.056438707,0.043050557,0.056372337,0.008099799,-0.040118147,-0.026841149,-0.06086591,-0.07427614,-0.06554427,0.01176461,0.03246661,0.01875157,-0.016895251,0.07278056,-0.03530843,-0.064245015,-0.06946625,0.086565785,0.04873293,-0.04415851,0.01710036,-0.07498567,-0.059124514,0.06846853,0.03093029,0.04234507,0.035860784,-0.03755648,0.027447846,-0.036450207,0.07011158,0.028203905,-0.048191458,0.061616436,0.024842225,0.07403821,-0.012890429,0.017445983,0.05396234,0.05553135,-0.039387867,0.045562442,0.036462143,0.06478568,-0.029419947,-0.005655821,-0.044960584,-0.030088881,-0.055410303,0.07628617,-0.07049337,0.06430932,0.04784604,-0.012006448,-0.039029263,-0.08535902,0.04102894,0.01644149,0.069477394,-0.004408084,-0.0406638,0.07669843,0.006541102,0.03308751,-0.056720864,-0.0045967,-0.053775936,0.043379966,0.00095352804,-0.04708512,-0.044230048,-0.058844496,0.06753267,0.017139316,0.03456681,0.07539953,-0.037882153,0.017779898,-0.04751948,-0.07215963,0.030730668,0.07310742,0.050112627,0.0054898188,-0.06333232,-0.08503673,0.05808112,0.055603303,-0.009056396,0.020714803,0.078498274,-0.06270389,0.01500848,-0.051087074,-0.028644923,0.020980727,-0.030319655,0.029218273,0.045042656,0.04801034,0.048383307,0.040093336,0.05477236,0.06525929,0.050146434,-0.038001798,-0.008751124,0.008125431,0.022669267,0.018397378,0.07018512,0.06202116,-0.052379005,-0.02660955,0.061078787,0.049161024,-0.024550853,0.01302627,-0.0655819,-0.05220819,0.07567866,-0.03223833,0.028991116,-0.054274227,0.038961537,-0.036130983,-0.019063124,-0.0033348307,-0.062209982,0.020502651,-0.039662927,0.048247226,-0.047852617,0.05197805,-0.020047843,0.0601678,0.029157726,-0.05672629,-0.026705248,0.06697667,-0.05866396,0.07291483,0.0211915,-0.03842739,-0.019420488,-0.034622602,0.041886125,-0.016938398,-0.032913055,0.0048690345,0.054114535,0.03186733,0.056759555,-0.030417323,-0.017381456,0.012130812,-0.048804652,-0.035782527,-0.031387776,0.005614278,-0.030551603,0.03531302,-0.0367387,0.048573196,-0.0364477,0.029337851,0.03687656,0.036745492,0.065422684,-0.06511372,0.029636972,0.07767292,-0.050739948,-0.0729269,0.04063401,-0.05934335,-0.02320709,0.027741056,0.026949828,0.012278844,0.0005700429,-0.0005260374,0.063494615,0.05672301,0.067476206,0.0738912,0.05387239,0.053101715,-0.059249423,0.055876937,-0.07844903,-0.046903875,-0.061973635,0.061859846,-0.07286496,0.044967264,0.057603803,-0.060482945,-0.036032695,-0.069493786,-0.009749415,0.029931825,0.053810682,-0.025233956,0.007805256,-0.052519016,-0.04308194,0.015024995,-0.01591827,-0.05638435,0.06380765,-0.01825545,-0.059863072,0.014004124,-0.042829864,0.058339912,0.033337444,0.08053245,-0.03456717,-0.03839701,-0.03772813,0.048163787,0.03634602,0.027679324,0.06450543,-0.0028624954,0.07166257,0.053724274,0.03094357,-0.09491496,0.04067308,0.026854089,-0.0026043272,-0.089738324,0.09380002,-0.03205264,0.0851611,-0.024522372,-0.055968482,-0.05771836,-0.0042726113,-0.020899624,0.014673913,-0.018039139,0.035070308,0.042229395,-0.018437453,0.07354885,-0.027278788,-0.04219879,0.03591975,-0.015109484,-0.06485201,0.025266571,0.010556146,-0.07342484,0.025378006,0.060928274,-0.05852556,0.06773153,-0.023835912,0.012904463,0.06220692,-0.04146054,-0.06903495,-0.07483183,0.06482426,-0.067275904,0.047355846
PATHWAY_ENZYME,0.018418353,0.07926169,-0.048973057,-0.08970388,-0.08480872,0.080136076,-0.06129568,-0.07453399,-0.0490257,0.04407408,0.0806641,-0.014664681,-0.07557112,0.038633432,0.05080498,-0.0897158,0.057922445,0.036692057,0.028688077,-0.0067378515,-0.034360606,-0.018768305,-0.036458164,-0.06900731,0.035174526,-0.04374566,-0.053569466,-0.063211,0.079656936,0.04076411,-0.0659476,0.064695455,-0.07160455,-0.055750236,0.034729935,-0.077153325,0.06673682,-0.03761179,0.011140958,0.035250615,-0.08879709,-0.06484496,-0.040030036,-0.042955875,-0.07179333,-0.00575778,-0.042761233,0.03448979,-0.066329025,-0.06439515,0.07144989,-0.07360894,0.0600066,-0.059550565,-0.03041114,-0.026482765,-0.065559566,-0.082792826,-0.052180085,-0.013269096,-0.05322872,0.07456333,-0.08308957,-0.059647456,-0.018955877,-0.027545506,0.071019575,0.07741559,-0.0791215,-0.078248456,-0.037443914,-0.061350428,-0.08207864,-0.07511559,-0.044899203,-0.039818738,-0.08695689,0.053399235,-0.06472157,0.009327376,-0.053694,0.0852221,0.0213284,-0.07769101,-0.04776507,-0.063093,-0.062100828,-0.07491651,0.024736114,-0.035036985,-0.049696837,0.06898151,0.068329856,-0.026788957,0.039868996,0.063149735,0.08840442,-0.0873089,-0.059548385,-0.07660986,0.041981656,0.07745362,-0.036351938,-0.079946935,-0.08925853,0.07480584,0.0408062,-0.086771384,0.03499906,0.022804003,0.06461712,-0.058467448,0.062180154,0.08526455,-0.08695857,-0.01572524,0.07125077,0.07417274,-0.051000997,-0.103659466,-0.07475206,-0.07942497,-0.075489014,0.034765884,-0.030520733,-0.048654754,0.08168374,-0.08419801,-0.05008149,0.062398605,-0.050083958,-0.043062683,-0.06109085,0.044227455,-0.06140605,0.08893833,-0.024064917,0.021945506,0.085725866,0.05734165,0.013829223,0.03227964,0.038336013,0.028050348,0.07141591,-0.050471894,-0.07875624,-0.02422379,-0.086232655,0.076431446,0.06588784,0.0857275,-0.04998562,0.065255895,0.06796873,-0.062673084,-0.039014526,0.022835072,0.058332477,0.045758944,-0.06871138,-0.062903255,0.053137265,-0.0482896,-0.070075445,0.0722982,0.05977289,-0.043209653,0.07190325,-0.059616152,-0.038941126,0.09614668,0.022816613,0.030604191,0.03579159,0.046537362,-0.052151725,-0.051933937,-0.0474183,0.088627286,0.067472845,0.0105983615,-0.059574593,0.0707016,0.06171571,-0.047577135,-0.07262201,-0.070207454,-0.107151,0.07953484,-0.015983045,-0.06074549,-0.07303843,-0.050874192,-0.017562749,0.06505266,-0.045084536,0.028457403,-0.03400622,-0.042205274,0.04925619,-0.10518943,-0.013036019,0.022181058,-0.05294286,0.09246933,-0.08335645,-0.07945365,-0.07484673,0.07815088,0.07783536,-0.060903896,-0.037127364,-0.03240265,0.051750943,0.031773802,0.017917084,-0.016742805,-0.039667424,0.031702228,-0.048282683,-0.06447644,0.07417803,-0.09491075,-0.07661628,0.07900935,0.027635464,-0.07269039,-0.06472759,0.055933345,0.037206955,-0.07759875,-0.07165672,-0.032851957,-0.04075955,0.07982227,0.0380166,0.052444063,0.06465344,0.092038065,0.05128639,0.07723526,-0.065276414,-0.05341818,-0.06292263,-0.09000995,-0.10984416,0.069647886,0.060929626,0.05901757,0.053577304,0.08096857,0.06696654,-0.08834866,-0.046805967,0.0508665,0.014791449,0.048586786,-0.063762724,0.09099552,-0.029045379,-0.0514147,-0.05315673,0.07778416,-0.04522165,0.02120191,-0.07411907,-0.03168124,0.018250221,-0.09470746,0.045314968,-0.08981213,0.06331174,-0.03704723,0.03402756,-0.07345195,-0.08747641,-0.06608707,-0.057527132,-0.070711926,-0.06545522,-0.058018807,0.06787994,0.04486533,-0.050793227,0.07318554,0.064403094,0.013355805,-0.04840628,0.043216605,-0.019199152,0.035529595,0.028088413,0.033890273,0.07410209,-0.07030415,0.06805396,-0.060485948,-0.075233355,0.045127477
DRUG_TARGET,-0.056890097,0.0039863656,-0.05603423,0.041211776,-0.036319587,-0.021579733,-0.06484389,0.050069008,-0.088993415,-0.062123105,0.06437927,0.0761246,-0.019706614,0.06885109,-0.06691871,0.03583249,0.0030171215,-0.06464993,0.05741496,-0.07731822,0.057885174,0.010202061,-0.041016478,0.043030214,-0.07009669,0.033165533,-0.010081519,0.021812676,-0.05403289,0.015649782,0.083504386,0.02553589,-0.0048348433,0.06455622,0.0037670233,0.033945523,0.05947507,-0.009330098,-0.057489827,0.052902475,0.040193178,0.081379436,-0.03418601,-0.029148294,0.03131719,0.06388239,-0.014135481,-0.05519602,-0.046613555,-0.03036518,-0.014776786,0.0057689175,-0.048982184,-0.06626413,-0.028377512,-0.027405627,-0.051192798,0.0047476036,0.03833794,0.06860909,-0.056875926,0.006486364,0.0055841063,0.021289267,0.08401301,-0.011005195,-0.023917815,0.05194898,-0.026693,-0.054489512,-0.039514694,-0.03066081,-0.036734316,0.030024558,0.06133618,-0.027033228,-0.06853726,0.013793793,0.026966408,-0.016722834,0.073458694,0.043631267,-0.040374473,-0.042663384,0.037682,0.06552859,-0.088171944,0.03278317,-0.020327063,0.039411128,0.021383118,0.02126121,-0.02776816,0.006060754,-0.067959934,0.04649191,-0.00784617,-0.034388177,0.028728835,-0.0037188318,0.062414788,0.016571946,-0.012897064,0.03437585,-0.002778485,0.03782676,-0.05334564,-0.03563476,-0.021038502,-0.012900531,-0.014595723,0.049139354,0.05308013,0.051764075,-0.05292638,-0.0663985,-0.02853611,0.08382711,0.022841439,-0.065783285,0.0124980975,-0.042957626,0.031111853,0.07489678,0.012969948,-0.070304774,0.048730828,0.048252095,-0.0564172,0.077576704,-0.04896937,0.02209569,-0.04143599,-0.015220381,0.07098663,-0.0028278742,-0.06392245,0.07279008,0.04385726,-0.04275265,0.035363477,0.08037063,-0.046831526,0.027437722,-0.010156115,0.07715437,0.0481107,-0.06552113,0.06740789,0.058976397,0.053955622,-0.016129859,-0.08510963,0.0779477,0.019656373,-0.062260367,-0.07872402,-0.06121882,0.08496137,0.03133749,0.027490603,-0.0627127,0.089096636,0.020189667,0.058519896,-0.07403489,-0.015775131,0.063696675,0.037082557,-0.07666079,-0.04687818,-0.07337939,-0.011801722,0.02399343,-0.06913204,0.049904518,-0.08752271,-0.029921286,0.070348315,0.02320199,0.07295974,0.062094513,0.06488477,-0.036463447,-0.047622606,-0.064395644,-0.026944062,-0.053310152,0.011123454,-0.01990289,-0.04421518,-0.05097633,-0.048886325,-0.049156185,-0.050351746,-0.056658182,-0.015289266,-0.018061139,-0.044281557,-0.009014104,-0.015162353,0.05092003,-0.04186958,-0.04085025,-0.085553624,0.07285306,-0.06591342,-0.0639166,-0.06960497,0.049472596,0.029982883,0.026141707,-0.06475196,-0.043029048,0.078687906,0.06356173,-0.056192618,0.046828173,-0.06820027,0.015730096,0.05653499,0.023493811,0.045771956,-0.07761986,-0.05875653,0.048997745,-0.023130737,0.011629273,-0.084693484,0.053915344,-0.085847296,-0.047169898,0.029197207,0.05034866,-0.06437553,-0.016814869,-0.09953847,0.021353142,-0.014662517,0.080367096,0.034013122,0.0577923,0.032580584,-0.04678735,0.017346451,-0.07627422,0.06236156,0.06317731,0.006297085,0.06983631,-0.014605425,-0.013839818,-0.010741241,0.057151817,0.059660636,0.021721601,0.017602028,0.03704049,0.019814167,-0.07436842,-0.07911911,-0.05544499,0.01142264,0.03591528,-0.056112893,0.012224265,0.038469028,-0.006790164,0.059105553,-0.084118225,0.067009516,-0.043092247,-0.074604414,-0.01829474,-0.04769767,-0.061104942,0.073992506,0.013809507,0.0880564,-0.034976933,-0.022508232,0.0833431,-0.007702845,0.011762714,0.065196574,0.046328716,-0.05788288,-0.054874245,-0.048668195,-0.059853595,-0.0151602365,0.049571276,0.010011989,0.061864164,0.071693994,-0.07002408,0.054854743,0.056151055,-0.0816056,-0.017540406
DRUG_ATC_C5,-0.09204245,-0.005435884,0.02569202,0.026283158,0.023364991,0.050779887,0.0645365,0.006933395,-0.06264782,-0.029701395,0.018411431,0.06664037,-0.016478226,0.04266521,0.049395,0.011004868,0.04975594,-0.06506175,-0.008221452,0.031299047,0.082501836,0.08932405,0.026166933,0.04423703,0.025517501,0.013422705,-0.06843881,0.05200491,-0.07044469,-0.03300176,0.030533211,-0.085515395,-0.03616051,-0.06653064,-0.054211598,-0.07176689,0.034441847,-0.026259925,0.0121620875,-0.038952254,-0.042517025,0.042142022,-0.04031378,0.005113904,-0.013565235,0.045377195,-0.008712874,0.048589215,0.06287852,-0.0028957166,-0.034305505,-0.0017511139,-0.05821561,0.03863726,0.075355306,0.030583046,0.004418528,0.024741905,-0.04263591,-0.009287323,0.06245977,-0.023084583,0.0054505537,-0.06443617,-0.014348244,-0.065052435,-0.034917817,0.024177846,-0.011158099,0.0013233036,0.058611196,0.0003497096,-0.00014377093,-0.0068644024,0.096278876,-0.0065223714,-0.014313239,0.057810992,0.021237489,-0.02211809,0.060123507,0.0066395807,0.049266517,0.0049763112,-0.043732084,0.11157375,-0.06902524,-0.0015680696,-0.06394788,0.022121176,0.020936841,0.008054988,0.09609599,-0.0374077,-0.018870749,0.042642366,0.021253524,0.0028201407,-0.023826344,0.069684096,0.07770283,-0.005447072,-0.03435693,0.023594368,-0.029120922,0.06036834,0.0349343,-0.08470903,-0.03329939,-0.026593449,-0.051178213,-0.031142129,0.020788059,0.0092931,0.05567237,-0.0399293,-0.09413259,0.048364308,0.067831084,0.006734026,-0.07425529,0.030227838,-0.060244817,-0.002520956,-0.056845155,0.029769259,0.006503479,-0.024494203,-0.04470171,0.03484042,-0.054874875,-0.033850126,0.07407425,-0.005290539,-0.00076757884,0.07628975,0.032977942,0.032403342,-0.0054442203,-0.032840062,0.08767896,0.0036653415,0.042829126,0.004233414,0.035010893,-0.05622878,0.055249646,-0.002153466,-0.02219805,-0.0013520108,-0.028299203,0.014513204,0.05731279,0.01062593,0.041604433,-0.014971269,0.006411555,-0.02170358,-0.04976882,-0.08739777,0.020723987,0.047807835,0.07986998,-0.053091172,-0.023785546,-0.08490487,-0.019725684,0.053869747,-0.007872111,-0.01063531,0.07501447,-0.020798933,-0.029798089,-0.012400837,0.005017814,-0.05063168,0.0107573755,-0.0385651,-0.007689367,-0.043830022,0.0038195606,-0.013570118,-0.03695955,0.03331824,-7.026465e-05,-0.053794254,-0.011038373,-0.02097409,-0.04744958,0.029996052,0.005852123,0.005481049,0.057511583,0.028959127,-0.03025231,-0.020486291,-0.00079538976,0.052596282,0.009565122,-0.02914044,0.026335236,-0.028223166,0.0632774,0.0548796,-0.0046068113,-0.017601168,-0.050661817,-0.040923543,-0.037020482,0.067929946,-0.013508643,-0.024949986,-0.06034927,0.085091375,0.046825703,0.07052306,0.021872008,0.050867353,-0.04789512,-0.0077958726,-0.029427078,0.039570432,-0.053545993,-0.081848696,0.03989625,-0.0025224353,0.028180983,0.011552058,0.042342912,-0.072295904,-0.009671857,-0.042068828,0.02800652,-0.025887499,0.018084219,-0.03820526,-0.106460035,-0.03726923,-0.073782764,0.0032186625,0.02336836,-0.01557354,0.017354297,0.06940089,0.06860073,-0.02666093,0.054536678,0.030054064,0.015378043,0.027512515,0.03264738,-0.08588114,-0.001041213,-0.027001588,0.018232394,-0.039411265,0.07400869,-0.027472258,-0.030767517,-0.058879122,-0.03974246,-0.029136028,0.043071955,0.005717109,0.03876782,0.04222813,0.037795167,-0.0194094,-0.008737785,-0.011407887,-0.012907951,-0.017331952,-0.041767005,-0.0030113382,-0.0059200143,0.02990041,2.7015334e-05,0.018401017,0.035964787,-0.027000539,0.028087277,0.030615836,-0.055394128,-0.020701982,0.03953855,-0.06695607,-0.030901603,0.025224598,-0.045934036,-0.067642786,0.03301002,-0.05130812,0.022128088,0.06296117,-0.042133287,-0.07391089,-0.068624526,0.03351851,0.051246673,-0.043132856
DRUG_ATC_C2,-0.0531013,-0.0027914888,0.07476786,-0.020123208,0.002620546,-0.053167652,-0.03438157,0.031007364,0.015839294,-0.0533359,0.071970485,-0.009087702,-0.00480542,-0.008374887,0.059490483,-0.013344118,0.049777925,0.05863978,0.048276186,0.023131289,0.03460797,0.044668242,0.06916941,-0.0364711,0.02376372,-0.015610863,0.049888924,0.006573791,0.018189594,-0.030077111,0.053818885,-0.040778637,-0.035972882,-0.10772304,-0.021175371,-0.11987291,0.040744588,-0.08521141,0.049835317,-0.08353112,0.07990572,0.009725162,-0.07953719,-0.052087568,-0.027468288,0.021171188,-0.096410014,-0.021328788,0.0941542,-0.06750282,-0.08135124,-0.039018523,-0.02911772,0.06797924,0.099002644,-0.054785114,-0.033954803,-0.038916904,-0.013661628,0.0742661,0.06041732,0.054015286,0.076251276,0.053319406,0.01940975,-0.058952045,0.043038905,-0.04461401,-0.060988143,0.059515376,0.09269507,-0.060178228,0.016591333,0.04771812,0.021107152,-0.09678107,-0.108596824,-0.006213708,0.050978027,-0.038001403,0.09021222,0.050493356,0.038875517,0.020419305,-0.07320968,0.13358153,0.026427103,0.08943068,-0.045843877,-0.018446555,0.010083603,-0.035155624,-0.03014423,0.070868984,0.08099514,0.054423485,-0.028249826,-0.06073952,0.013281869,-0.0016081627,0.013401639,0.057592034,0.0049917186,-0.017862553,0.04181954,0.079312705,0.09061772,0.03282122,0.04459863,0.00095290696,0.070395134,0.041736435,0.060371492,0.109016,0.027034542,0.015796863,-0.1094683,0.024065815,-0.005383125,-0.0047685145,0.010230076,-0.050536416,-0.055371556,-0.012081269,-0.042253688,-0.11579515,0.02381389,0.0636324,-0.047060397,0.052286386,0.0013117585,0.06876357,-0.043834902,0.06026455,0.08486597,0.015387086,-0.109851085,0.04231602,0.051863164,0.07469721,-0.00020914263,0.10053458,0.09074888,-0.06003133,0.023851836,-0.046718366,-0.030516414,0.0543032,0.048627947,-0.0010015938,-0.099883296,0.04555799,-0.18838075,0.11803551,0.004566457,-0.049495954,-0.085061826,-0.020082409,-0.08001967,-0.042922616,-0.087973684,0.070288286,0.1232545,-0.14085475,-0.0105908625,-0.08104703,0.016694993,-0.029070167,0.035619766,-0.09561479,0.050945513,-0.098690376,0.07975723,0.07236425,-0.069318645,0.062474426,0.035938103,0.09123357,0.009377766,0.052456297,0.054480344,0.035510045,-0.07689179,-0.054534666,0.020352911,-0.088768475,0.04701349,-0.10385532,-0.083960444,-0.022687942,-0.07487591,0.08556816,0.081349775,-0.037284132,0.06419498,0.059943147,-0.048473023,0.08401483,-0.046060693,-0.04086958,-0.102307245,0.08034417,-0.019142544,-0.027498975,-0.019540086,-0.022549234,-0.11291076,0.016315995,0.020949733,-0.014197139,0.08359469,-0.03795326,-0.079718456,0.08915349,0.09396757,0.072061695,-0.08545747,0.06062042,-0.07858904,-0.011912962,0.048711322,-0.05904564,-0.09019562,-0.094463095,-0.0033314289,-0.0980169,0.049775723,0.1540625,-0.0018680551,-0.047112085,0.003189121,0.053389106,0.031776253,0.11958146,0.0419217,0.005124285,-0.11642594,0.057334647,-0.15346535,-0.0479453,-0.019290553,0.008175379,0.04601603,0.038301617,-0.062195335,-0.047967065,0.08998413,0.09331296,0.11087112,0.051294886,0.07256543,-0.093407676,0.045056544,-0.07080834,0.11787584,0.08886051,0.052718196,-0.0748015,0.057746645,0.037344243,0.032428354,0.09031103,0.0732177,0.048941858,-0.055562343,0.0075514214,0.014626482,-0.059221417,0.023830429,-0.075181924,0.03232202,-0.07228102,0.017500963,-0.009433035,0.07968543,-0.058003087,0.010315804,0.015790584,0.0418526,0.092069104,0.052049402,0.12295435,-0.044233155,-0.057908736,0.015555841,0.06910211,-0.005754776,0.022994304,-0.07373724,0.047993418,-0.0032390556,-0.07479675,-0.06344153,0.052906513,0.0016347993,-0.030644832,-0.05064782,0.08664816,-0.0744175,0.019712925
DRUG_PATHWAY,-0.12624185,-0.11106812,-0.07426301,0.03612581,-0.0004624498,0.0009779626,-0.011894939,0.10757412,-0.10909493,-0.11539634,-0.1031319,0.02476086,0.031896878,-0.033050526,-0.0075658336,0.0982067,-0.033908624,-0.04430146,-0.015332376,0.05404564,0.08405332,0.0944147,-0.07249951,0.034776174,-0.07305891,-0.058848225,-0.044513233,0.111883044,-0.10439391,-0.09585012,0.04455177,-0.020249877,-0.020230921,-0.01696837,-0.044746354,0.058728088,-0.06620848,-0.050246894,0.027529957,0.042750575,0.102207534,0.020009486,0.005042856,-0.09291344,0.036681313,-0.03548602,0.01581784,-0.041344106,0.13854082,0.09982045,-0.06861556,0.1745016,-0.032109264,-0.086889066,0.08482342,0.089031875,-0.07370558,0.08406873,0.03354437,-0.028467068,0.063228786,0.049763463,-0.07110747,0.06961957,-0.029538307,0.06907526,-0.1547657,0.079544775,0.11142489,-0.009546037,0.09188074,0.08121364,-0.05747697,0.0753432,0.10477143,-0.026120745,-0.06384442,-0.0028196415,0.0763338,-0.02704864,0.06711379,-0.06288882,0.06865878,0.06656556,0.07326507,0.055612154,-0.015788307,0.07988032,-0.060290236,0.0006557917,0.0674715,-0.0073754624,-0.036403555,-0.09389441,0.035449397,-0.018135723,-0.08955572,-0.037600197,-0.060586277,-0.00058436027,-0.08073321,0.065058514,0.06489431,0.06928117,0.008558936,0.0044904486,-0.10598977,-0.077977926,0.049687035,-0.021135753,-0.04582758,-0.018438889,0.030348966,-0.017673055,0.0955117,0.036706235,-0.051500704,0.011811277,0.03152907,0.053347137,-0.0047302092,0.025445126,-0.030391578,-0.028712502,0.044050228,-0.060673453,-0.04096282,0.11623462,0.056131758,-0.012186132,0.046642598,-0.048755642,0.006803142,-0.117819235,0.09525458,-0.061938874,0.051598635,-0.08418166,0.05329984,0.06522544,0.020530714,0.1028157,-0.008775137,-0.025356492,-0.04870498,-0.041498933,0.1133741,0.041195642,0.11056731,-0.07558975,0.004136915,-0.08047362,-0.04769007,0.05084919,-0.027928792,-0.027529312,-0.0920212,-0.07178956,-0.011259935,0.01604081,0.013418828,-0.06645884,0.016369347,-0.049954962,-0.0596974,-0.121297576,-0.0801909,0.098109886,-0.11695959,0.09969477,0.039963216,0.010840797,-0.02569826,0.04421923,0.014393733,-0.00074649294,-0.056777686,0.044995647,-0.013002983,-0.050096054,0.02937864,0.064986125,0.046113115,-0.14119634,0.05716761,-0.025792412,0.07786656,-0.04479781,0.12857018,-0.01365038,-0.02062798,-0.06718154,0.021525132,0.037147895,0.0065225707,-0.04854726,-0.02391652,-0.07596484,0.0028292309,0.086038984,-0.007889618,0.0499445,-0.01713646,0.07106634,-0.02123583,0.024216527,0.006724344,0.017912265,0.03855772,-0.090730265,0.025066482,0.034137495,-0.0082107065,-0.030244846,0.110458046,-0.003202447,-0.07052177,0.14243624,-0.012075194,0.016247299,-0.045293767,0.08269217,-0.085449986,0.020815104,-0.036677536,-0.07736403,0.023622438,0.0044186353,0.07173812,-0.04053955,-0.074571386,-0.07077142,-0.021153731,0.07333102,0.06030224,0.034298077,-0.093635775,-0.06774569,-0.06319521,0.066726394,0.010094593,-0.10806144,0.028905269,0.04597342,0.06623671,0.065008216,0.10120879,-0.04074828,-0.0060834205,-0.008330464,-0.03747739,-0.106045485,0.0039628106,0.020789027,0.0460938,-0.04994601,-0.019625433,-0.013378977,-0.03005231,-0.061842173,0.010605166,0.013895985,0.10695526,-0.10623961,-0.058208454,-0.046955388,0.056481153,-0.053487238,-0.0602832,0.049678143,0.047382753,0.1190203,0.0033417097,0.10718576,-0.047784068,0.037264798,-0.0005579743,-0.0275095,0.01288381,-0.034599498,0.03044588,0.13942564,-0.096013784,-0.0014351584,0.05046919,0.028140295,-0.045147315,-0.0049932133,0.07320733,0.0001580556,0.058049656,-0.08228044,-0.0969492,-0.009147758,0.009728977,-0.029332504,-0.07702541,0.024610672,0.045209784,0.053749286
DRUG_ATC_C3,-0.03844607,-0.058449212,0.022882627,-0.06001663,0.05350651,0.075028114,0.015357636,-0.052141476,-0.06599311,-0.08724223,0.08385144,-0.023066862,-0.043572254,0.026470743,-0.049706485,0.024065638,0.03379851,0.03278377,-0.057318836,0.0017693609,0.07568247,-0.016732419,-0.011266795,0.05969238,0.11949251,0.016336333,0.0012074222,0.07617313,0.04189475,-0.09137977,-0.014669126,-0.059769284,-0.027189435,-0.04175408,0.018365335,-0.0909895,-0.025390515,0.04489071,-0.017919553,-0.087447666,-0.041821364,0.087243386,-0.058812644,0.0006238424,0.06788744,-0.043766264,0.016958775,0.044223078,0.12755628,0.084593415,-0.019311793,0.03927219,-0.12824628,0.048825137,0.0016028082,0.033527292,-0.024702555,0.07079701,-0.002001856,0.08760521,0.02348289,0.08556794,-0.023908898,0.011446987,0.023957392,0.05833527,0.029104983,-0.027504839,-0.021648759,0.050833188,-0.010186494,-0.008226915,0.118879616,0.11556436,0.018793717,-0.082223825,-0.100519694,0.032173343,-0.068587735,0.003964528,0.097853385,-0.0025141044,-0.0065265065,0.044202738,0.01861197,0.058654353,0.029932959,0.023781724,0.0032287831,0.006507883,0.08412063,-0.0903719,0.05537804,-0.033909928,0.055322014,0.06100653,0.024055248,0.036889505,-0.031736575,-0.07147927,0.04897083,0.099835016,0.069637485,0.02239273,0.019230777,0.11059134,0.08211247,0.07409915,-0.057492852,0.060148716,0.0038883865,0.081051774,-0.011496505,0.050338283,-0.029917743,0.0378361,-0.10765045,-0.006342083,0.03883721,-0.056353863,0.0195699,-0.023953127,-0.08930887,-0.04200622,-0.09608864,0.02785384,-0.05602643,-0.05941867,-0.084834635,-0.0025741362,0.0040699807,-0.052286156,-0.08042637,-0.044552207,0.043402206,0.054636676,0.011159381,0.06357904,0.09660328,-0.022126121,-0.026358543,0.10072817,0.08239274,-0.053551815,-0.015516157,-0.014595326,0.01048303,0.015032545,0.08058073,-0.036486574,-0.06948681,0.08982985,0.017854022,0.028023593,0.00889606,-0.07213664,0.0005286148,-0.07587783,-0.010276826,-0.0765307,0.031595454,0.0109187,0.07432158,-0.056311257,-0.04142071,-0.0007796771,-0.064767316,-0.03438067,0.030141667,-0.030971548,-0.0126118995,-0.08428097,0.012721123,-0.03732098,-0.016247293,0.0009888057,0.08879785,0.07675192,0.051086362,0.011167366,0.06823835,-0.02343268,0.033852067,-0.040043455,-0.0317311,-0.01233842,0.04243106,-0.037456088,-0.06012288,0.018184496,-0.11844893,0.044120718,-0.0461962,-0.0762666,-0.022240324,0.000646564,0.04998882,-0.061771724,-0.012695609,0.047126506,-0.09286053,-0.049407873,0.11439873,0.070171185,-0.08263408,-0.028329408,-0.0068211034,0.020916607,0.06956359,0.065291815,-0.033673085,0.02440109,-0.11611905,0.06279746,0.11075682,-0.03941759,0.04821419,-0.064018235,-0.021368677,-0.020509236,-0.038151886,-0.06275468,-0.057238333,-0.08761879,0.031956665,-0.06770672,-0.02748484,0.086510055,0.0038800016,-0.060777754,-0.03099071,-0.0045154826,0.05228213,0.033353753,-0.020360064,-0.06629618,-0.122028366,-0.036655765,-0.09475345,-0.0019983114,-0.002147866,0.052772313,-0.029934788,0.011980835,-0.050513938,-0.08040423,0.079651535,0.08280033,-0.0076896516,-0.074726604,0.018004794,-0.094778225,0.06546304,0.03794849,0.07118013,-0.050980918,0.016496075,0.06544543,-0.08001347,-0.027584866,-0.03907624,0.09292476,-0.0150063755,0.050314326,-0.110067695,-0.10487762,0.052252192,0.04745862,0.08313039,-0.07487237,-0.055639263,0.032246184,-0.011472593,-0.04236194,-0.051741842,-0.073578306,0.076110214,-0.11220847,0.0586449,0.05610186,-0.069821835,-0.017488357,0.005739766,-0.043143306,-0.0071324985,-0.049308956,-0.055046692,0.08698979,0.025118658,0.05087975,-0.06614192,-0.038977034,-0.081422605,0.14011945,0.04561789,-0.07162786,0.017511686,0.07408429,0.04814542,-0.04222971
TYPE,0.009740109,-0.09924964,-0.057791747,-0.13160019,-0.097197354,0.12122798,-0.09362381,0.11708445,-0.013570087,-0.19250615,0.16310962,0.14016628,-0.040657125,0.075892545,-0.025121244,0.086426325,0.15418056,-0.043952193,0.11220443,0.09036083,0.12383125,0.20236602,0.085345685,0.041155998,-0.05524442,0.13635552,-0.11346676,0.0049011316,-0.2157282,-0.02944746,0.101674266,-0.09287757,-0.12502944,-0.06675612,0.093857884,0.11002516,-0.059125874,0.07602824,-0.029564932,-0.09789678,0.10355279,0.13946123,-0.15303582,-0.14196932,0.009137738,0.106552795,-0.1386147,-0.042749923,0.08283694,0.13950284,0.06362625,-0.052589975,-0.013731344,-0.12943964,0.054279946,0.07628309,-0.16475712,0.0442722,0.12791361,-0.07602939,0.013745224,-0.09956579,-0.062218484,-0.17918305,0.09762315,-0.13570304,-0.020739065,0.19624695,0.023936123,-0.12562087,-0.052197166,0.13088052,0.060859654,-0.015451056,0.11632012,-0.09011368,0.044316188,0.011779612,-0.11965231,-0.11283071,0.033369277,-0.018781658,0.07299269,0.035961602,-0.18300213,0.026156826,-0.13190451,0.06725663,0.0923396,0.15043038,0.08162484,0.0056665298,-0.07553704,0.024680493,-0.099536225,-0.13816261,-0.08105231,0.04861916,0.1047531,-0.007594347,-0.02316973,0.058165062,0.0841181,-0.055113036,-0.0868083,-0.09689482,0.053593997,0.024098458,-0.029597614,-0.15003826,-0.026799725,0.087288514,0.056744747,0.011914361,0.013569121,-0.10652987,-0.16649452,0.14144562,0.09222462,0.07101239,-0.011332662,0.049549513,0.074126706,-0.11446801,-0.13903506,0.072689235,-0.040528003,-0.102353305,-0.10243253,0.10880199,0.008189119,-0.039723027,0.017255617,-0.08122898,0.05275958,-0.06675767,0.10703446,-0.010653833,0.20583132,0.016451824,0.042579632,-0.05687623,0.098400556,-0.05565505,-0.036339425,0.03830656,-0.10463854,-0.16910377,0.11664213,0.066279136,-0.008298744,-0.03616607,-0.001429242,0.04288983,-0.07726008,0.07775419,-0.23854002,-0.062129248,0.16360058,-0.14129078,0.06302965,0.11169505,0.016748251,0.04804657,0.058679868,-0.03836565,0.09113906,0.014077246,-0.0262961,0.07102208,0.17432171,-0.042807367,-0.022511553,-0.11033063,-0.055565123,-0.06597762,0.0109110875,0.063934326,0.03388104,0.06374175,-0.051617164,-0.055459253,-0.10833108,-0.048305728,0.11622614,-0.106402,0.087781735,-0.15599233,-0.18168065,0.004627763,-0.16671288,-0.11464748,0.10556009,0.14643943,0.09428024,-0.02417158,-0.03092758,0.03931377,-0.11079457,-0.18486214,-0.18887493,-0.10885598,-0.018167987,-0.052007403,-0.14704154,0.18642843,-0.0027191844,0.07191401,-0.030986032,-0.06521525,-0.035225,0.041398544,-0.13910413,-0.04157309,0.039651845,-0.015303679,-0.07360803,0.03596721,-0.160564,-0.13998522,-0.04855905,0.10347787,-0.12764333,-0.15823084,-0.13812964,0.14175062,0.15253085,0.011081159,0.049296465,0.017023062,0.027746968,0.11945965,0.051365934,-0.08600749,0.08423757,0.06967602,-0.096228965,0.011253535,0.095846295,0.16367069,0.028591963,0.117283925,0.19850188,0.11818622,0.18283963,-0.11186956,0.12994461,-0.118742906,0.03638999,0.11600034,0.13635845,-0.12436302,-0.054445457,0.056935314,-0.026547782,-0.13101359,0.2056613,0.108898096,0.014954245,-0.06031142,0.021321552,0.15483384,0.11845674,-0.12036949,-0.04585716,0.07160118,0.002644103,0.002887466,-0.08718784,-0.03550106,0.15984987,-0.024154244,-0.1379311,-0.045301665,-0.047219694,0.1312701,0.110343546,-0.17780773,0.18292381,-0.14827828,-0.16679822,-0.09809914,-0.090138786,0.04364144,-0.07976903,-0.04271623,0.08564539,-0.10436803,-0.1291644,0.054426692,-0.14216188,-0.16294545,0.11642661,0.060349446,-0.13227235,-0.1750748,-0.08758714,0.06950683,-0.064941116,-0.10850418
PATHWAY_CATEGORY,0.0795667,0.03191938,-0.083969384,-0.08370227,-0.06629484,0.04133565,-0.07716493,-0.020265715,-0.09386037,-0.010104285,0.04911409,0.027313435,-0.14777766,0.007140662,-0.039688792,-0.05808579,0.03154054,0.073779434,0.0026048422,0.05570806,0.06961426,0.003215733,0.07007313,-0.021764064,0.006406789,-0.029642133,0.016352862,-0.09243096,0.06364836,-0.008568376,0.0367804,0.082873136,0.048877593,-0.10240069,-0.083979055,-0.17612192,0.016390096,-0.0036490494,-0.023507286,0.0832794,-0.010421847,-0.010106533,-0.01987907,0.124251775,-0.0032053774,0.053986207,0.151831,0.027114023,0.038761098,-0.0017294904,0.070768416,-0.20746015,0.010147801,-0.026375875,-0.12016416,-0.1223769,0.09213608,-0.049991336,-0.011971345,0.030545698,-0.082756065,0.101316266,-0.14424667,-0.07344068,0.024720095,-0.027766343,0.047031514,-0.028243639,-0.029561818,0.009388599,-0.0150815295,-0.11860969,0.027022766,0.08212665,-0.015199126,-0.048428986,-0.071646124,-0.037078977,-0.0037896668,-0.08257838,0.009018299,0.060999624,0.006607118,-0.036149204,-0.021359986,-0.010918655,0.039146755,0.045469444,0.006350374,-0.18354225,-0.056780152,0.09561739,0.079984754,-0.03226565,0.056061517,-0.05342764,-0.026451865,-0.09008268,-0.08259459,0.018955706,-0.015921617,-0.042759497,0.037424,-0.014810712,-0.0504809,-0.06012901,0.05650429,0.05138561,-0.0031968094,0.018851371,-0.10208574,0.031635072,-0.07791762,-0.08236788,-0.12983379,-0.025274307,0.03463426,-0.04089528,0.02981811,-0.11420884,0.015678545,-0.08146191,-0.0079633435,0.055334892,-0.07567697,0.0810066,0.14035876,-0.10037472,-0.022302879,-0.028116733,-0.073701456,-0.047461957,0.058228843,0.20168668,-0.032187108,0.07781947,-0.08533546,0.00059874734,0.005054389,-0.05356848,-0.053791385,-0.077988826,0.072994135,-0.08997538,0.044311523,0.0006429498,-0.017116185,0.013654785,-0.05872832,0.06522532,0.02448945,0.15091646,-0.045787025,-0.00024645877,0.08271937,0.02903412,0.07338982,-0.08815621,0.03592154,0.13758938,-0.14061822,0.078329675,-0.0880244,0.09688851,0.031228561,-0.03210374,0.0063311476,-0.039383736,-0.020200187,0.033623848,0.0022473298,0.1279431,0.05254237,0.043436375,0.08538519,-0.077903815,-0.09706748,-0.04526089,0.027474107,0.09330144,0.021547358,-0.07225389,-0.042461835,0.18084088,0.05937931,-0.04910316,0.04231535,-0.09331525,-0.110937685,0.011168859,0.053716883,-0.070115834,-0.06570822,-0.08901745,-0.016247373,0.033349376,0.048162628,0.055410534,0.09900839,-0.0409469,-0.056593888,-0.06542783,-0.015491541,0.03225845,0.01479045,0.061976045,-0.03644747,-0.12269516,-0.04671791,0.08711359,-0.018958243,-0.09303323,2.934457e-06,-0.08122804,0.06014644,-0.015945634,0.028599206,-0.02510695,-0.06262996,0.01461877,0.078671336,-0.029195791,0.11386517,0.030094916,0.08134546,0.010242989,-0.002974299,0.028312992,-0.026457164,-0.0045646466,-0.024923405,-0.024884587,0.009503752,0.0288393,0.022325382,0.032082472,0.13148178,0.06203984,0.01872554,0.053163737,-0.0018573867,0.014778593,-0.022612285,-0.03391951,-0.037104465,-0.099482484,-0.09788429,0.053411007,0.09447875,-0.058449715,0.020460302,0.15991995,-0.06211384,-0.07907981,-0.003425127,-0.029344724,0.10346874,-0.007924081,-0.0054311194,0.062139045,-0.053631537,-0.1647156,-0.0489317,0.13316175,-0.025594715,0.096240506,-0.006391456,0.007178062,0.009231112,0.04324862,0.015136054,-0.04373473,0.10049334,0.006571211,0.060236014,-0.10890605,-0.001814446,-0.057176076,-0.11557119,-0.06680648,-0.029395847,-0.1516991,0.056139436,0.08838478,0.041553106,-0.052794397,0.15461059,0.05385358,0.006301844,-0.043200072,-0.03010945,-0.035428457,0.07836194,0.00010179901,0.113239236,-0.12861666,0.15769678,-0.010176707,-0.06961644,-0.0032721856
DRUG_ATC_C4,-0.08242042,-0.07408751,-0.00097626174,-0.07507469,-0.03939046,-0.030587127,-0.029813465,-0.02814155,0.030785235,0.049268965,0.053449143,-0.037290514,0.01272772,-0.06019628,0.04716832,0.003327935,0.0018843837,-0.0142521225,-0.0022112771,-0.0036454517,0.03533219,0.1603724,0.0538445,0.05328514,0.044611707,-0.049543582,-0.09451901,-0.0067178523,-0.055541944,0.051263828,-0.016412277,-0.11274309,-0.051640157,0.0048917015,-0.06200278,-0.08304752,-0.0352956,-0.0828502,-0.061247032,-0.11127949,0.048214883,-0.031523313,0.035250977,-0.055432983,0.09957522,0.03561411,-0.05039709,-0.070580296,0.07543977,0.04711461,0.03927264,-0.03095758,-0.09737875,0.0344453,-0.026634235,-0.018735057,-0.00013970007,0.058880366,0.06571573,0.043348927,0.05838122,0.024044653,-0.014376902,-0.061757296,-0.028064571,-0.057775553,0.09581431,-0.035255052,-0.07005263,-0.013664037,-0.03510635,0.045143794,0.07169991,0.05986978,0.036814738,0.03503461,-0.04196431,0.04302906,0.022322534,-0.017491186,0.009378616,-0.043066088,0.03659336,-0.0074911457,-0.08651952,0.006304441,-0.0903327,0.052005958,0.09012016,0.060716897,0.06094683,-0.068875894,-0.060467385,-0.027099922,0.06975329,-0.028970707,0.07640671,-0.04974292,0.059093826,-0.04095843,0.047673285,-0.039370265,0.08133585,0.0056899944,-0.0918126,-0.0021169432,0.05603509,-0.038979277,0.035072017,0.032701664,-0.062408153,-0.03241569,0.06755807,0.053717718,0.010516509,0.04133211,0.028703643,0.06847559,-0.030957326,-0.092685506,-0.009463799,0.10283776,-0.05222963,-0.10698396,0.062653586,0.013220231,0.049022287,-0.028380338,-0.024608448,0.029636042,-0.042129043,-0.021776706,-0.13002595,-0.019390428,-0.010433732,0.031562664,0.05400783,-0.024033777,-0.008286697,0.03686034,0.034908127,0.09203777,-0.014388656,-0.08509607,-0.03348688,0.115141615,-0.0027868014,0.013088871,-0.06539832,-0.10157022,0.051234383,-0.050907355,-0.0027482554,-0.059825834,0.024444625,0.05512104,-0.00093682774,-0.0037507147,-0.024913235,-0.014355515,-0.019607944,0.022897318,-0.0070531457,-0.10847661,0.056081552,-0.06672278,-0.076116234,-0.054410852,0.019970946,-0.06877648,-0.02850491,-0.04293644,-0.06746528,-0.026011772,-0.005982517,0.03933703,-0.006959157,0.0546178,-0.068934925,0.061774418,-0.07918595,0.100399494,-0.078611895,-0.030530294,-0.027679883,-0.012015256,-0.076297075,-0.039211676,-0.057542544,0.069534436,-0.049427632,-0.026495876,0.059672177,-0.03367589,0.036705032,-0.015756384,0.04860021,0.022377234,0.041764043,0.06465923,0.023986975,-0.033983324,-0.007674098,0.08917897,0.04095774,0.05664659,0.00020346009,-0.031396385,0.049907323,0.10224038,-0.0026155638,0.07458375,-0.043500207,-0.0100577865,0.03615043,0.11364289,-0.049933627,-0.072449334,0.063692726,-0.053003717,0.091608025,0.016924245,0.0051848246,-0.04805954,-0.006334704,0.013772845,-0.063780025,-0.028958363,-0.052461803,-0.090147026,-0.0632141,0.048524782,0.02720548,0.01404286,-0.1028198,-0.02072153,-0.084505275,-0.03302732,-0.07500527,0.054776732,0.03969702,0.13705541,-0.046246756,-0.030799791,0.07656107,0.041497923,0.046230573,0.08241664,-0.0660016,-0.022972684,-0.058173306,-0.10106321,-0.062321052,0.057609435,0.07398422,0.042553592,0.09043352,-0.04163137,-0.012677606,0.017882252,-0.08425287,0.10142086,0.07494036,0.053428564,0.03602635,0.022310058,0.050034147,-0.06716127,0.0799585,-0.076351516,-0.057874728,-0.03604085,-0.1188692,0.036067527,0.038863987,-0.041477416,0.033045933,-0.05376008,-0.01669339,0.011698635,0.024515612,0.07206227,0.01726644,-0.059386257,0.06839787,0.061122093,0.010278751,-0.062128603,-0.05256614,0.026337437,-0.022080526,-0.039927054,-0.09080853,0.13456734,-0.08638953,-0.054134272,-0.12037364,0.09053849,0.005651863,-0.08623898
DRUG_TRANSPORTER,-0.06031929,0.007507258,-0.111712866,0.03520633,0.14971417,0.032101437,0.018459646,0.06310404,-0.06084271,-0.10745135,0.062188998,0.0689231,-0.12450246,0.095959865,-0.061362464,0.016322661,-0.1234496,-0.13822263,0.11757337,-0.046326414,0.028911147,0.058041062,-0.09235694,0.13700925,-0.06959599,-0.05101931,0.0032770843,0.09231204,0.054157168,-0.12375341,0.05039162,-0.056801107,0.021909492,-0.003405375,0.051944464,0.024667649,-0.06329019,0.015847396,-0.060636774,0.023479098,-0.07583287,-0.063501775,0.02798382,0.049777333,-0.0077710855,0.015831597,-0.10532074,-0.103400946,-0.051003486,0.04234356,-0.03243979,0.10119151,-0.11211158,-0.13789828,-0.05611128,-0.056948945,-0.038612437,-0.0720488,0.08302054,-0.051187992,-0.043509424,-0.05037497,0.031919926,0.044506636,-0.042305134,-0.05787142,0.05492985,-0.07597452,0.12345881,0.09048405,0.10436154,-0.12360193,0.052491896,0.06760605,-0.11300515,0.009662543,0.04341986,0.12177491,-0.05649767,-0.05359919,-0.041194595,0.046671044,-0.059224386,-0.057961497,-0.034510072,0.052718934,-0.094480805,0.1302864,0.096572116,-0.09901516,-0.037855394,0.0025130906,-0.07694751,-0.10027288,-0.06733467,0.10222872,-0.04750288,-0.08546036,0.13017744,0.027088756,-0.073507965,0.09002246,-0.12430493,0.07841932,-0.05816471,0.03589169,0.15388267,-0.16260041,-0.10957655,0.1354101,-0.10156064,-0.12052997,0.121662244,0.09755992,0.102368295,-0.08609502,0.041213047,0.13796537,-0.057628404,0.10739073,-0.098857425,0.13314374,0.018224323,-0.18842655,-0.011724523,-0.111426376,0.0748738,0.07323673,-0.069436006,0.089033216,0.073046364,-0.15182912,-0.12017868,-0.040381264,0.094199665,0.0034583418,-0.106975235,0.083299324,0.15760778,-0.096826375,0.21294336,0.057394803,-0.042495742,-0.13771309,-0.0592399,-0.08720613,0.16798057,-0.08291872,0.025530566,-0.098650016,0.035129722,-0.08185598,-0.11196367,0.08508184,-0.0100875525,-0.0072873333,-0.004182853,0.1071714,0.05999068,-0.08952403,0.09535081,-0.14362541,-0.061957385,0.06910163,-0.14344159,0.064377,0.15634805,-0.12425943,-0.07997178,0.002773522,0.03218729,-0.17077208,0.056376483,0.13324143,-0.033877198,0.083235286,0.019590264,-0.16147761,0.092066064,-0.06885998,0.03500463,0.1534826,-0.07915023,-0.061737824,-0.055430215,-0.07765443,-0.08400736,0.050359666,0.0014712958,-0.04788153,-0.13044515,-0.09365577,-0.046747264,0.052880857,-0.04694837,0.004299203,-0.02200575,0.16769686,0.0371761,0.085307114,0.014967153,-0.14854647,-0.08442296,0.07598303,-0.036221847,-0.038163345,-0.20775002,0.06429976,0.070099376,0.13656898,-0.077086166,0.013932418,-0.015493586,0.0100178635,-0.0181254,-0.020178547,-0.03229236,-0.026125222,0.09798905,0.10328792,-0.004445168,0.06264606,-0.055205017,-0.06332973,0.14408122,-0.039634857,-0.053395618,-0.02860061,-0.06215174,0.008000469,-0.14442018,-0.05338719,-0.080823384,0.08658186,-0.056875426,0.0888566,-0.09733137,-0.021408793,0.019545078,0.14767087,0.025407027,0.0043495987,0.007020836,-0.058807336,0.10194535,0.1738525,-0.07806273,0.07737971,0.12834235,0.03169656,0.02806872,0.1009893,-0.0914732,0.10597548,0.043195345,0.011154885,-0.04513219,-0.09524488,-0.08024889,-0.05020913,-0.05723198,0.015142605,-0.023463532,-0.10098875,-0.21545252,-0.06416244,0.08720594,0.02173234,0.07701177,0.025391152,0.064246625,-0.040937126,-0.08709245,0.049216904,0.046422876,-0.041124206,-0.027119212,0.036123432,-0.04096313,0.030680843,-0.047752112,0.026247503,-0.07441584,-0.09584434,0.08750477,0.08335291,0.044445585,0.04361018,-0.07235894,-0.012038062,0.06944117,0.09377293,0.12104521,0.029497707,-0.051817533,-0.054962967,0.024515277,0.1801615,-0.051769994,-0.040013988
DRUG_ENZYME,-0.053837236,0.056542866,0.017526735,-0.10202132,0.052098084,-0.01259626,-0.044311706,-0.081720285,-0.11102252,0.091592714,-0.011140687,0.07268171,0.04111294,0.07031548,-0.07647653,-0.010884888,0.11542353,0.090958394,-0.017404841,0.027656907,0.061459363,-0.010710272,-0.13956614,-0.0250729,-0.06447,0.02028978,-0.058058217,-0.064060226,-0.091985665,-0.091515265,-0.031129787,-0.015598554,-0.060017586,0.016962385,0.06162698,0.07945811,0.09724215,-0.022155046,-0.014378675,0.026545143,-0.06603614,0.062536836,0.043027427,-0.112519674,-0.057143036,0.06821826,-0.11236385,-0.071068145,-0.041953433,0.088391766,-0.012413047,0.07410414,-0.105023816,-0.02914756,0.07473498,0.020225668,0.08339456,-0.01740758,-0.018669905,-0.0069955597,0.11851728,0.041809615,0.0013654912,0.06574046,0.06814091,-0.007066863,0.107197374,-0.029042613,-0.08421526,0.041807894,-0.050296076,-0.10863031,0.053612057,-0.050269157,0.011953258,-0.043057367,0.03552995,0.08310426,-0.054064028,-0.011945173,-0.06313734,-0.12345624,-0.079053655,-0.097200245,0.007341779,0.022682054,-0.17095314,0.053029038,-0.030616501,-0.060037535,0.038095023,-0.063730046,0.078005776,-0.045226637,-0.07516021,-0.036220994,-0.019006962,-0.10092297,-0.017489798,-0.09749385,0.07355689,0.08022177,0.02121582,-0.0117973555,0.017400082,0.07212324,0.063855015,0.0437894,-0.060633738,0.024287691,0.04292122,0.04791571,0.0021590188,0.012404522,-0.041555945,0.07689752,-0.06460436,0.005353532,-0.11349582,0.007362462,-0.080946974,0.0011187167,-0.083288185,-0.0929811,0.038100053,-0.121388674,-0.08742166,0.034747396,0.024894312,0.0793414,0.0139839025,-0.090586446,-0.05804145,0.041421667,0.048708994,-0.050911725,0.049719267,0.017631585,0.07052136,-0.031185037,0.07687368,0.07176623,-0.0120703885,-0.07705159,-0.08562011,0.031571623,-0.070784,0.013036933,-0.0187833,-0.121327795,-0.05388585,0.017199513,0.022431625,-0.046950914,-0.037177213,-0.04981655,-0.015216019,0.03863304,0.08660525,0.055426527,-0.04954849,0.040051997,0.12021227,0.030566178,0.065379776,0.080359,0.08751566,0.09213355,0.027358454,0.03798528,0.08194436,0.041621685,-0.02559781,0.1600759,-0.03919073,-0.11039938,-0.13086459,-0.04318981,0.050788194,0.024335882,0.0057605677,0.056295857,0.056470767,-0.033468727,0.03280446,-0.05703931,0.07491464,-0.006682257,-0.0487912,0.053091574,0.025789069,-0.103737056,0.006095326,0.052025568,-0.07514183,-0.017204538,0.03225883,-0.050329473,-0.07171132,0.087662995,-0.018581526,0.016325573,-0.08092903,0.07292332,-0.09373264,0.089161254,-0.19527292,0.029986076,-0.10480748,-0.06385381,-0.07809032,0.070648976,-0.059264928,-0.008100512,-0.010782744,-0.007012764,0.103064865,0.07786921,-0.102224976,0.107399516,0.07613332,-0.09344419,-0.09825193,-0.10926891,-0.058421917,-0.061789323,-0.003347062,0.12695484,-0.10195381,0.03289671,0.07288983,0.0010676901,0.062151495,0.10213438,-0.109595254,0.04424554,-0.12521835,0.029452074,-0.022204934,0.08910233,-0.07790936,0.04608285,-0.025438502,-0.053108834,-0.042757362,-0.063402995,0.019204862,0.06374134,0.0058180396,0.056871325,-0.019520862,-0.124990374,0.09767884,0.07434008,-0.06090603,0.022107577,-0.006425811,0.07975074,-0.096545875,-0.066381045,0.003252044,-0.090148725,0.039166585,-0.057722993,-0.16163117,0.050468087,-0.08295106,0.13436617,0.08234945,-0.13195775,-0.010862277,-0.113651164,0.09048091,0.033177145,-0.05632654,0.023583217,0.02482672,-0.0901245,0.047594,0.045431584,-0.053340275,0.150507,0.036111157,-0.033664044,0.19299167,-0.081694245,-0.009940327,-0.022536457,0.028489426,0.03338886,0.08058105,0.036849774,-0.070543125,-0.010847699,0.051905457,0.02412848,-0.047777865,0.02124838,-0.03737528,-0.038352784
DRUG_ATC_C1,-0.1006769,0.05529105,-0.03809118,-0.039877214,-0.029765543,0.0052837976,-0.017662503,0.042253,-0.05303296,-0.08134699,0.075312644,-0.028121166,0.012377678,0.045598645,0.15380082,0.06923814,-0.10194757,0.053840842,0.0343094,-0.050815016,0.15076901,0.13831563,-0.020923292,-0.04988451,0.08717521,0.078271486,-0.037879415,-0.012232677,0.02855382,0.08168462,0.10281748,-0.10337322,0.014388544,-0.026745927,-0.019260703,-0.08300177,0.049311917,0.020509243,0.058154143,-0.015988428,-0.031823736,0.040082317,-0.019630352,0.024636291,0.0017286742,-0.06105902,0.01979107,-0.005653627,0.07603779,0.021178616,0.056305226,-0.096590154,0.035247516,-0.043338183,-0.026161307,0.121234685,-0.026709419,0.11620294,0.04837099,0.07979275,-0.0049328934,0.060243055,0.0069032535,-0.052942406,-0.0074725593,-0.060725357,0.029714998,-0.07061197,0.07686696,0.04674058,0.07830615,-0.00850456,0.109104216,-0.03513246,0.07930092,0.009040338,0.017853705,0.010608185,-0.032257974,0.047271047,0.04385415,-0.11919881,0.048762746,-0.009094127,-0.100863345,0.11842096,-0.0949961,0.007923287,0.009031275,0.073168136,0.0022101703,-0.06161915,0.040044717,0.06568242,-0.065503225,0.083213024,-0.024195613,-0.06606229,0.004454781,-0.028667483,0.0736045,-0.074914485,0.07500859,-0.0992222,-0.11231675,0.022611935,-0.053893104,0.042377774,-0.015826704,0.020444337,0.040375747,-0.085052714,0.04122079,0.05231269,0.07813503,-0.02099568,-0.02448115,0.019152716,0.021860594,0.0330802,-0.005476779,0.017819611,-0.0034780458,-0.057435393,-0.014432485,-0.09297446,0.05679388,0.002541095,-0.030271342,0.014769191,0.08119416,0.046752043,0.052541062,0.077738315,0.017687524,0.044598427,0.05976233,0.060350318,-0.025093567,0.049256213,-1.4575588e-05,0.043028627,0.016894015,-0.10298269,-0.07124289,-0.018618481,-0.026058761,-0.034330014,0.07642349,-0.055981897,-0.03767477,0.015206727,-0.14106493,-0.021585252,0.03800503,0.057695203,-0.09420634,0.07304523,0.015289405,-0.016705133,-0.04702564,-0.013764817,-0.01716566,-0.100614764,-0.109117635,-0.021920113,-0.0052034985,0.042740174,-0.0025254015,0.0048552193,0.049186118,0.022501435,-0.039681852,0.01896559,-0.048897415,-0.023907643,0.003922914,0.03323043,-0.037194103,-0.028093535,-0.0063823345,-0.040640295,-0.029205408,-0.06746834,-0.101593144,0.048674967,-0.011137757,-0.10058119,0.05547329,0.031500068,0.009011894,0.08798034,-9.526635e-05,-0.04632936,0.029041605,0.048556563,0.0071135876,0.096031606,-0.03863025,0.05175452,-0.08223094,0.015592275,0.004588264,0.019238405,0.011373784,0.07712133,0.06999541,0.010970287,0.003850738,0.12495697,-0.011331353,0.04348234,-0.051936552,-0.03269902,0.14015545,0.022156931,0.018345684,-0.011422577,0.047591016,0.06442495,-0.022234863,0.10413328,0.02563812,-0.056062117,0.022254545,-0.04287295,-0.0073344293,0.06698087,-0.010356201,-0.08176611,0.099325165,0.093884796,0.024607629,0.16455635,-0.055562638,-0.15651236,-0.08495615,-0.048752386,-0.009953343,0.082663566,-0.025887016,0.042757273,-0.053039186,0.031417374,-0.053195152,-0.005640438,0.03291936,-0.012931306,0.010925954,0.021122409,-0.074579805,-0.118579485,0.0750627,-0.03962512,0.10312883,-0.008030829,0.12468061,-0.09975648,0.011583992,-0.075935945,-0.1413267,-0.048979014,0.11407821,0.039882775,0.0014963425,-0.046386585,-0.011964584,0.0135005545,0.04085155,-0.017544664,0.023952343,-0.062455274,0.0047985474,-0.04484403,0.054629635,-0.11962974,0.0556848,0.05976629,-0.04456162,0.11733652,0.07338623,0.047474213,-0.025842909,-0.09283916,-0.02292614,-0.07680531,0.024847936,-0.07670856,-0.027330339,-0.08627545,-0.05076359,0.07069154,-0.0728303,0.07794372,0.020399814,-0.07504046,-0.070096895,0.03550111,-0.060914267,-0.039433345
DRUG_CARRIER,-0.0965017,-0.15437645,-0.07308225,-0.11313542,-0.046844527,-0.032452837,-0.031849448,0.14986263,-0.13912722,-0.07146851,-0.0037686864,0.08991162,0.0511979,0.114619285,0.08175252,0.08021061,0.0051184446,-0.18453039,-0.046015203,0.15395354,0.073998146,-0.010313575,-0.114504464,0.04355896,0.118661545,-0.12921244,-0.078527205,0.15152605,0.124405116,0.08727606,0.03585547,-0.025014434,0.056270998,0.09722896,0.094046906,0.028609138,0.15830493,-0.10853873,0.007933531,0.057882197,-0.10925359,-0.060242303,-0.017631643,-0.023184858,-0.040535983,0.16532978,0.113323376,0.0061563384,0.10899328,-0.055476356,-0.037570074,0.06958556,0.10327623,0.046707593,0.124854065,0.004922733,0.07654618,-0.07796186,-0.09720124,-0.05229894,0.08583246,0.19082208,0.09958338,-0.12055875,-0.01797887,0.061358638,0.09581935,0.0013205495,-0.09193012,0.010057659,-0.07948858,0.0300226,-0.017775621,0.02877306,-0.1556595,-0.086809434,-0.08502668,0.041654386,-0.044916313,-0.2004754,-0.037806887,0.06261296,-0.11920046,-0.15620345,0.037447732,-0.001213403,0.1070508,-0.003730859,0.1615405,-0.12875143,-0.022397831,0.041813686,0.05484697,0.08354583,-0.13237369,0.033874616,-0.09429306,-0.036068525,-0.041415285,0.01413551,-0.067207806,-0.094960265,-0.12263278,0.027357582,0.07059374,0.17345446,0.08682629,0.15714754,-0.09406046,-0.06311794,0.016892249,0.15331492,-0.020531558,0.063159205,0.02060353,0.05902116,-0.0060624485,0.10909588,-0.05626866,0.1088835,-0.12363294,0.11979749,0.052890528,-0.03613375,-0.05187985,0.031610504,-0.004461491,0.016710605,0.047342498,0.13839532,-0.107610404,-0.07763121,-0.0866058,-0.048110373,0.09734648,0.024488172,-0.026142731,0.007904114,-0.12465867,-0.09862974,0.10629074,0.08785702,-0.04076897,-0.017128868,0.012137024,0.073853835,-0.1300647,-0.055507228,0.0007581307,-0.05347176,0.1537327,0.10744831,-0.19956571,0.052162908,-0.10005598,0.04606479,-0.09299314,0.050424032,-0.064018235,-0.1395407,-0.051020455,-0.08545877,0.1093173,0.106259964,-0.10076118,-0.12077344,-0.05235479,-0.12937167,0.072475694,-0.11234403,0.06052237,-0.015244584,0.08975261,0.12927517,-0.14464024,0.1158179,0.06347278,0.10509791,0.06558764,-0.059113853,-0.10960171,0.070177294,0.1377945,0.058340628,0.10051036,-0.093955904,0.015293384,-0.13454127,-0.016171891,0.19417475,-0.10699407,-0.027990872,-0.14450441,-0.13257189,0.049779106,-0.033874948,0.03138775,-0.0026605437,-0.18526457,0.0888618,-0.038955677,0.056239597,-0.12564099,-0.19585413,0.05785798,0.057812862,0.017308505,-0.053568624,-0.10720054,0.20210654,-0.08458828,0.14056689,0.07581478,-0.07707815,0.06323125,0.07208567,0.04752707,-0.009315466,0.10987597,0.112612896,0.026497463,0.123058006,0.004164642,0.05944364,-0.066316225,-0.062128376,-0.08523678,-0.014533066,-0.03940262,-0.041295208,0.13269599,-0.1634614,-0.11985361,0.15688206,-0.052225642,0.044540837,-0.11338652,0.09971602,0.07797872,0.14570878,0.018784977,0.15613376,-0.098712966,-0.016772574,0.12756664,0.14890842,0.13664003,-0.083142646,-0.10543949,0.11000935,0.13694888,-0.05492023,-0.06779586,0.08800705,0.0871012,-0.010995039,0.08327292,-0.014204168,-0.004508724,-0.079644896,-0.13561301,0.047651976,-0.02044622,0.0034800344,-0.120827556,-0.105154395,0.04888218,0.046720788,-0.000942662,0.023208564,0.06955451,0.0629646,-0.05502202,0.02758537,0.010095077,0.15236232,0.14167581,-0.0052832724,0.123189025,0.02250434,0.02212091,0.047316052,0.08057026,-0.14057337,-0.05441482,0.17298472,-0.13266484,0.119413756,-0.089919925,-0.028372193,-0.08277587,-0.13905774,0.17537595,-0.093389206,0.01346845,-0.026663875,0.059665687,0.18856972,-0.10018462,-0.20237492
