,0,1,2,3,4,5,6,7,8,9,10,11,12,13,14,15,16,17,18,19,20,21,22,23,24,25,26,27,28,29,30,31,32,33,34,35,36,37,38,39,40,41,42,43,44,45,46,47,48,49,50,51,52,53,54,55,56,57,58,59,60,61,62,63,64,65,66,67,68,69,70,71,72,73,74,75,76,77,78,79,80,81,82,83,84,85,86,87,88,89,90,91,92,93,94,95,96,97,98,99,100,101,102,103,104,105,106,107,108,109,110,111,112,113,114,115,116,117,118,119,120,121,122,123,124,125,126,127,128,129,130,131,132,133,134,135,136,137,138,139,140,141,142,143,144,145,146,147,148,149,150,151,152,153,154,155,156,157,158,159,160,161,162,163,164,165,166,167,168,169,170,171,172,173,174,175,176,177,178,179,180,181,182,183,184,185,186,187,188,189,190,191,192,193,194,195,196,197,198,199,200,201,202,203,204,205,206,207,208,209,210,211,212,213,214,215,216,217,218,219,220,221,222,223,224,225,226,227,228,229,230,231,232,233,234,235,236,237,238,239,240,241,242,243,244,245,246,247,248,249,250,251,252,253,254,255,256,257,258,259,260,261,262,263,264,265,266,267,268,269,270,271,272,273,274,275,276,277,278,279,280,281,282,283,284,285,286,287,288,289,290,291,292,293,294,295,296,297,298,299,300,301,302,303,304,305,306,307,308,309,310,311,312,313,314,315,316,317,318,319,320,321,322,323,324,325,326,327,328,329,330,331,332,333,334,335,336,337,338,339,340,341,342,343,344,345,346,347,348,349,350,351,352,353,354,355,356,357,358,359,360,361,362,363,364,365,366,367,368,369,370,371,372,373,374,375,376,377,378,379,380,381,382,383,384,385,386,387,388,389,390,391,392,393,394,395,396,397,398,399
DRUG_CATEGORY,-1.0403352,-1.2933589,-1.0846384,-1.1649728,-0.8893052,-1.135201,-1.1513164,-1.0368847,-0.9221965,0.13164638,-1.0174165,1.3128927,-1.481913,-1.0905417,-1.5564357,-0.8748006,-1.2110248,1.376266,-1.416473,-0.93839103,1.0712172,-0.94043076,-0.99585205,-1.1610967,-1.013657,-1.256573,-1.2715584,-0.5853275,-1.1709365,-1.0757611,-1.1883353,-1.1125057,1.0829506,-1.0017477,-1.002525,-1.0771117,-1.1313283,-1.00074,-1.6935704,-1.5484205,1.0904354,-1.325666,-1.3505586,-0.865576,-1.7896538,-0.9090162,-1.4862841,1.087151,-1.1882944,-1.1020555,-1.1466695,1.3935784,-1.1200463,-1.2819418,-1.220102,-1.251912,-0.9817159,-1.0067575,-1.2353843,-0.9743993,-1.2249366,-1.3135835,-0.9248069,-1.0351182,-1.3065512,-1.1465036,-1.2002116,-1.3850162,-1.2894787,-0.9812868,-1.0308428,0.11740565,-0.4466053,-1.6652981,-1.058119,-1.759641,0.3524211,-1.1974767,-1.8170244,-1.1287652,-1.6375145,-0.8742555,-1.4472944,-1.4488422,-1.0612105,-1.4560751,-0.9458841,1.3822178,-1.1985434,1.409969,-1.4858594,-1.2085321,-1.3511627,-1.463965,-1.1589766,-1.1170485,-0.89873075,-0.8245468,-1.095685,-1.1266651,-0.8036964,0.7042875,-0.870746,-1.2680302,-1.0366867,-1.6583987,-1.7747158,-0.83167493,-1.1753151,-1.1552484,-1.1350309,-1.2220936,-1.271472,-0.9793799,-1.1524037,-1.1832442,-1.1032399,-1.2401551,-0.92927927,-1.1535062,-1.5230746,-1.3400346,-0.99282736,-0.9999745,-1.1360204,-1.2154527,-0.6871786,-1.4373565,1.348866,-0.6671498,-1.2374908,1.0172007,-0.8187074,-1.7946036,-0.978651,-0.755589,-0.9203722,0.7168476,-0.07303731,-0.941204,1.1138308,-1.1914501,1.1107857,-1.1861402,-1.1015143,0.52744466,-1.219053,1.2206105,-0.9787497,-1.0939908,1.0779812,0.36800033,-1.4170047,-0.9575945,-1.5745856,-1.4272114,-1.1317583,-1.2138112,-1.1651802,1.2850889,-1.2800394,0.5598063,-1.318634,-1.1427174,-0.96188104,-1.4078667,1.0440922,-1.1665121,0.6939305,1.0994195,1.2370107,-1.061428,-0.7076201,-1.3494762,-1.0928196,-1.1082563,-1.0593455,-1.0918101,-1.2745014,-1.3237253,-1.1066445,-1.3624647,-1.0989916,-1.2266608,-1.5589828,-1.0932478,-1.5487823,1.1603004,1.5504775,-1.1444161,-1.5258912,-1.2259315,-0.7909571,-0.9234369,-0.14078695,1.1871808,-1.1716127,-1.0202647,-1.0373931,-1.3317612,-0.8162891,1.36776,-0.69245434,1.0479853,1.0187031,-0.67352223,-0.8781167,-0.5980645,-1.0547857,1.257243,-0.44905713,-1.4326667,-1.0475726,-0.87857234,1.0892607,0.091642566,0.78666526,-1.3942252,-1.3377738,-0.7190808,-1.0543352,0.2573828,0.40688375,0.6883814,-0.56047964,0.9555678,-0.18892118,-0.32203773,0.4043752,0.444067,-1.15081,-0.9203923,1.2126551,-0.4128734,0.28435302,-0.23838449,-0.7070586,1.41589,1.4874489,-1.4675801,0.52591014,0.7042674,-0.8266544,-1.0304174,1.0596828,-1.0917481,-1.5376955,1.012192,0.9122573,0.89489275,-0.29682294,-0.32520676,0.29450285,-1.4570571,0.75443566,0.10594316,-0.85010016,0.55659205,0.564414,0.36398414,1.4419525,-1.28126,0.5552617,0.3211697,-0.73400646,0.30722407,-0.9440947,-0.7013982,1.0703024,1.2263104,0.6231016,1.0171187,1.1929952,0.7079028,0.034144927,0.040788338,-0.55684304,-0.68118757,-1.2896259,-0.35270673,-1.3633202,-0.93980336,-1.0390738,0.99827033,1.0812464,1.224492,0.6115255,-1.404803,-1.2278155,1.2935442,-1.2363143,-0.7333692,1.0480919,-1.3013864,-0.264917,0.85179156,0.6435801,-0.7016006,-0.79961586,-0.45199722,-0.9826341,-1.0978956,-0.5911107,-0.92123115,0.044175733,-1.2181144,0.59623414,-0.74703646,-1.7871809,0.501098,0.29679528,0.22765495,-1.1607664,0.54575783,0.8569353,-0.8724388,-0.5134807,0.61149335,-0.19942631,0.68513364,-1.15711,1.2865816,0.45694983,0.9035432,-0.34744078,0.68928194,-0.2317634,1.0150689,1.1369746,0.9942536,1.0287629,1.4802648,-0.565729,0.99547815,-0.7808592,0.349284,-0.93427527,1.0699561,-0.2586407,0.32127625,1.044278,-0.7740909,-0.01183434,0.3261313,0.2911544,1.264559,-0.9377655,0.7643492,0.579949,-0.20608802,0.74655706,0.27199817,1.4765556,1.1130809,1.4526412,0.7845443,0.6505205,0.3003054,1.00963,-1.3168396,0.8938637,0.23830569,-0.42316326,0.50287694,-0.37001517,1.3236115,1.021928,0.6184298,0.7186394,-0.778148,-1.191704,-0.43651584,-0.98504025,-0.92492115,-0.87472373,0.05440516,-0.85794747,-0.05351288,0.09252152,-0.95319396,-0.3714989,0.3375947,0.47528955,-0.6265997,-1.5011747,1.1201946,-1.2209048,-1.2608697,-1.5591768,0.8405966,1.073251,0.5551361,-0.5058165,0.90947866,0.30281356,-1.174559,0.4397893,0.53723854,-0.7249256,1.0501229
PATHWAY_ENZYME,-0.86845285,0.52524614,-0.86933035,0.5078916,0.6185286,-0.84059715,-0.78528917,-0.79204917,0.5273654,0.72762114,-0.706126,-0.61164695,0.69914937,-0.7475343,0.6689574,-0.8156307,0.62669164,-0.5187053,0.6277579,-0.7497291,0.6999373,-0.7333195,-0.8331216,-0.85252255,-0.82107943,0.65773845,0.6217126,-0.60237575,-0.91607076,-0.84871083,0.63533497,-0.7845904,-0.4855142,-0.7717317,-0.81832397,-0.8661105,-0.8993156,0.7228876,0.67762905,0.5847766,0.58402264,-0.77377284,-0.7641581,-0.6481158,0.603267,0.5995862,0.5324419,0.5768723,0.56293726,-0.85847104,-0.8894876,0.67171365,-0.85217035,0.7087103,-0.84988695,-0.91173685,0.53662986,-0.7447817,-0.75310427,-0.7972238,0.6776723,0.63284343,-0.77174366,-0.8266894,-0.84917766,-0.85587424,0.51616657,-0.8304461,-0.82213134,0.6284757,-0.8483128,0.64554536,0.6366412,0.672031,-0.8519755,0.55589104,-0.63854945,-0.7521484,0.69809574,-0.8441881,0.65585387,0.54641294,-0.9116799,0.6617634,0.56781936,-0.8100453,-0.8044724,0.75641227,0.6427726,0.6657703,-0.8336559,-0.8864385,0.6326615,0.58227205,-0.8571084,-0.7625838,-0.7552635,-0.77248174,-0.85961616,-0.8175067,0.5991775,-0.7040438,0.5894416,-0.856425,-0.8201529,0.4898336,0.8157088,-0.65546066,-0.7481348,-0.8320263,-0.715343,-0.86507326,-0.6965027,-0.7900427,0.60919505,-0.88264465,-0.8475012,-0.75506496,-0.78545594,-0.8543767,0.7730334,0.689213,-0.8299823,-0.805577,0.625546,-0.8794536,0.73880714,-0.8751073,0.65963006,0.8089074,-0.93793064,0.6608767,0.6880291,0.6796084,-0.77833265,-0.7699289,0.5853094,0.67829996,0.6938369,-0.81676924,0.589136,-0.83962375,0.7458471,-0.92317164,-0.89174855,0.6712547,0.5881523,-0.5690481,-0.78859156,-0.78980845,0.68395036,0.6500128,0.47787747,-0.7290042,0.48775646,0.64265704,-0.8940688,-0.71182346,0.63767254,0.6858866,-0.8255881,0.73378515,0.5872728,-0.86631787,-0.7509781,0.60364795,0.6640366,-0.8561071,0.69715846,0.715207,0.6632061,-0.741454,0.5287031,-0.8308807,-0.84581375,-0.84394217,0.68761635,-0.74983436,0.6155673,-0.9147319,-0.84977293,0.6006556,-0.87524,-0.95690644,0.6506407,0.59408855,0.6325449,0.69052094,0.7275334,-0.82266766,0.5651044,-0.85419047,0.48982716,0.5091466,0.74707,0.6986672,-0.7250886,-0.8804278,-0.64276046,0.6494246,-0.31243342,0.569753,-0.32303625,0.5908856,0.71707106,0.42152765,0.42191997,0.41299647,-0.63457173,0.7765276,0.29645488,-0.65521574,-0.64611024,-0.5140478,0.82395905,-0.4230142,-0.6530302,-0.22227883,-0.7215769,-0.06066382,-0.6084841,-0.096819304,-0.30547544,0.37038606,0.15618168,0.6590601,-0.7278734,0.41427013,-0.18236184,-0.11942237,-0.6724165,-0.27309704,-0.64067805,0.25380594,-0.39306757,0.21974725,0.18314621,0.74062425,-0.6431463,-0.6203782,-0.66161263,-0.45570746,0.49563453,0.57285506,-0.62485874,-0.68602306,0.65484303,0.6077576,-0.6266002,0.39282086,0.32547197,0.67178714,-0.2850327,0.7434943,-0.24373908,-0.47361645,0.63899887,-0.18699747,-0.5503228,-0.39667633,-0.71934664,0.7475651,-0.058409393,-0.21479054,0.36307287,-0.32607463,-0.6484928,0.55302054,0.37074804,0.68734324,-0.37347293,-0.6922885,-0.7082443,-0.7384901,0.26558393,0.70631576,0.6398773,0.51812613,0.6894329,0.44979554,-0.82575905,-0.6611439,-0.67140657,0.78235596,0.6125077,-0.59002686,-0.2591858,-0.80343634,-0.6506827,-0.66568434,0.518603,0.0339857,0.7963962,-0.646574,0.36836705,0.379946,-0.13138269,-0.35546443,-0.010209706,0.28256652,-0.60414934,0.73994917,-0.6692295,0.64082265,-0.46335483,0.69448537,0.7565524,0.25848,-0.77737045,-0.32635966,-0.49648458,0.1460947,0.60053253,-0.13258268,0.6985286,0.57114404,0.2059901,-0.46934277,-0.25674146,0.22689353,0.8633812,-0.78020144,-0.5795078,0.49188638,0.70312065,0.39027882,-0.7455893,-0.53480476,0.6859303,0.7489772,0.11922676,-0.75387156,0.6985537,-0.6892941,-0.37542656,-0.35344443,0.63890755,-0.6744321,-0.7347599,-0.38908422,0.6813701,0.318234,-0.7455506,-0.19874473,-0.3375797,-0.7797425,-0.6502349,0.71311253,-0.13192058,0.36295518,-0.65096843,-0.7310379,0.6175011,-0.560858,0.6069062,0.703803,0.38159183,-0.5704661,0.73089826,-0.6646338,0.42866158,0.7571461,-0.57392126,-0.16345689,0.22994532,0.72771466,0.70877385,0.21467958,-0.70639217,-0.81563765,0.6200031,0.09410116,-0.6213874,0.70851475,0.4375303,-0.43975282,0.6964537,-0.17723079,-0.7579002,0.34565136,0.3303673,0.63902265,-0.26806754,0.34670937,-0.6481503,0.5777255,0.79063714,-0.61818737,-0.70998436,-0.15382972,-0.5991471,-0.5538149,-0.56877744,-0.64914054,0.7734514,0.68058485,-0.51982254,0.34909123,-0.36703962,0.71144366
DRUG_TARGET,-1.1517817,-1.2446235,-1.267851,-1.4528943,-0.99636376,-1.5508806,-1.2390546,-1.1477873,-1.2262619,0.17851575,-1.159782,1.6842706,-1.5386823,-1.4185356,-1.9758891,-1.0509834,-1.5219452,0.60084116,-1.6816893,-1.0919597,-1.2300478,-1.1775539,-1.1536684,-1.2722244,-1.2849841,-1.1785827,-1.8013287,-1.4317018,-1.4295884,-1.0970252,-0.92778754,-1.3133993,-1.6503298,-1.4138112,-1.2552276,-1.1085818,-1.4340544,-1.0011996,-1.7849259,-1.78595,-1.4019735,-1.2970667,-1.518051,-1.6067146,-1.977128,-1.0712248,-1.703433,-1.04506,-1.11926,-1.2152859,-1.1777545,-0.6588753,-1.2055284,-1.1826143,-1.2134545,-1.434964,-1.295797,-0.98270744,-1.4436235,-1.3408728,-1.4386004,-1.2417283,-0.9538351,-1.3013868,-1.4604317,-1.4789363,0.2109864,-1.7663603,-1.2585664,-1.1575221,-1.322288,-1.0559596,-1.5566348,-1.3366556,-1.300301,-1.9116322,-0.8481211,-1.0619113,-1.9948088,-1.1434464,-1.8397446,-1.4780812,-1.6468818,-1.863011,-0.3344487,-1.6057372,-1.2058878,-1.2819431,-1.1372607,-1.3675674,-1.5687903,-1.1200725,-1.6626961,-1.6214278,-1.3552139,-1.0641671,-1.0220344,-0.85379416,-1.1327854,-1.2022668,-1.2984182,-1.6818775,-0.93603396,-1.5925982,-1.2780907,-2.01468,-1.7973806,-1.3562768,-1.1861125,-1.5866328,-1.6102679,-1.245459,-1.44215,-1.183109,-1.3750405,-1.5250772,-1.1071775,-1.4548548,-1.1883442,-1.224441,-1.9719331,0.053584468,-1.4625181,-1.1381778,-0.73100924,-1.3787773,1.9457575,-1.6133636,-1.2675749,-0.58870924,-1.5260347,-1.489473,-1.1087154,-2.021167,-1.0972458,-1.104352,-1.3292736,-1.3707082,0.5946562,-1.3731122,-1.3697762,-1.4118245,-1.1195097,-1.2613795,-1.2680537,1.207522,-1.7678021,-1.5369226,-1.1350611,-1.3096806,-1.3719059,1.9144388,-1.809992,-1.5539777,-1.7624726,-1.4069915,-1.2928715,-1.2058269,-1.9789279,-1.2225689,-1.3324736,-0.89523965,-1.917785,-1.1426575,-1.1974738,-1.6305939,-1.3003244,-1.53329,1.5379254,1.1712515,-1.2947382,-1.4318806,-1.0120276,-1.7326639,-1.2342825,-1.1255786,-1.4974846,-1.0807316,-1.7503086,-1.2825307,-1.2144755,-1.4007087,-1.0628506,-1.5004894,-1.7156314,-1.3786962,-1.7506561,-1.3765272,-1.3733072,-1.2148819,-0.9255619,-1.4165441,-1.36631,-1.4889258,0.42420578,-1.5426395,-1.4947406,-1.3205279,-1.2201067,-1.5758835,-0.03566887,0.18970402,-0.42336375,-0.1490182,-1.2407781,0.045998733,-0.8900566,0.1562257,-1.4887519,-1.1625979,-0.47179988,0.27836284,1.1639779,-0.68788785,1.2059088,0.77028054,0.4193517,0.63951623,-1.7761126,0.014604571,1.1305602,0.14136785,0.1321474,0.6337706,0.48854905,0.38779876,-0.3889329,-1.2396724,-0.21524575,0.47667947,1.3067429,0.19297585,1.3469869,0.5199823,0.13745736,0.030852089,0.124183826,-1.631333,1.4868737,0.8691708,-1.3158538,0.52865684,0.94699967,0.20460428,-1.4658248,0.8548931,-1.1489987,-1.2237495,-0.75860757,-0.34769186,-0.13430688,0.28926182,0.2541325,1.0238553,0.3096212,0.25855672,0.017083239,-0.20766383,0.3483762,0.134066,0.4987759,-0.03998773,0.31014168,-0.39831856,-1.2525256,-0.36348492,0.95717394,-0.8970986,0.53148335,-1.2767699,-0.21327512,1.4096615,-0.41162357,1.5596704,-0.5403586,0.39370376,-1.7774891,-0.58183664,-1.5091227,0.04994019,-0.7391431,1.1110514,-0.37690952,1.4218725,-0.69152874,1.2500927,0.24389786,0.94958586,0.9113163,-0.86267143,-0.13970625,-0.013293507,-0.7843267,1.3852518,-0.21665323,-0.37313026,-0.018030139,0.25812575,0.16574426,-0.5839273,0.7426749,1.4147048,-0.9057613,-0.09575302,0.83672667,-0.23532018,-0.9075627,0.045352194,1.2234621,0.8356067,0.33819658,-0.048205923,-1.035328,0.09076708,-1.6329288,0.1040678,-0.05920461,0.7578996,-0.7821755,0.774962,0.90711766,-1.7749119,-0.099540874,-0.041075468,1.4946935,-0.50541204,-1.6507267,-0.3505874,-1.1978282,-1.1861665,-0.684551,-1.7303936,0.7298904,-1.3164214,0.10162791,-0.018321663,-1.1840281,1.4514828,-1.287408,-0.30486125,-0.19411352,-1.3648015,1.4060146,-0.736991,-0.9804695,-0.87132597,-0.9972903,-1.38229,-0.0997663,-0.27590296,1.2473339,0.06998181,0.98056686,-0.14623168,0.63726884,1.4252821,-0.32189205,1.2419814,-0.4190108,-0.7403276,0.60060257,-1.0182151,-1.2812417,0.28345186,0.4137952,0.9386849,-0.70671433,0.7218584,1.01307,-0.7474013,-0.9992418,-0.057953525,0.7646284,-0.5607195,0.22224529,1.002425,0.1346344,0.8806602,-0.83815956,-0.037989117,-0.91791964,-1.4190514,-0.07929905,0.11740013,-1.5642453,-0.4992018,0.6642498,1.5256237,-1.1557573,-0.19587292,0.9817659,0.28453907,0.64274013,-0.19684814,-1.5257376,0.9474318,0.8730994,-0.51642746,0.35947934,0.9354159
DRUG_ATC_C5,-1.3283676,-1.8079426,-1.2131325,-1.7423539,-1.5700407,-1.2660593,-1.2503747,-0.81055593,-1.2532074,-1.5761726,-1.5251083,-0.90537983,-1.7427298,-1.6738256,-1.3772814,-1.1082226,-1.8107232,-1.7516563,-2.0396905,-1.1747924,-1.2549368,-1.127463,-1.1009403,-1.4909341,-1.3366387,-1.7679131,-1.5610489,-1.5728067,-1.1436996,-1.100629,-1.5490153,-1.285333,-1.6714561,-1.11119,-1.1864048,-1.0745683,-1.2076432,-1.8108491,-2.0267587,-2.0201755,-1.675089,-1.1958423,-1.7683136,-1.5490898,-2.1021662,-1.5001678,-1.9505973,-1.5272942,-1.5854743,-1.0033816,-1.0691316,-1.2441299,-0.97026485,-0.7395324,-1.2251459,-1.13432,-1.8556346,-1.04956,-1.2404604,-1.2268616,-1.9257063,-1.8036077,-1.0410192,-1.2266906,-1.419413,-1.412774,-1.3918954,-1.617063,-1.4796553,-1.8858469,-1.2592705,-1.7945046,-1.5522772,-1.9108227,-0.94858664,-1.8620862,-0.5283772,-1.1928748,-1.9957663,-1.2687434,-1.523279,-1.5244123,-1.6315622,-1.8563629,-1.2798092,-0.8836114,-1.2094055,-1.7704664,-1.6486795,-1.7913328,-1.5858718,-1.112824,-1.8874009,-1.5938245,-1.2406131,-1.2097149,-1.0588835,-1.272155,-1.1636055,-1.2614757,-1.6708863,-1.9742476,-0.73401576,-1.1562152,-1.3414384,-1.9623061,-2.1366706,-1.5635595,-1.7882732,-1.1846379,-1.7488613,-1.3047504,-1.3875695,-0.93779147,-1.8850231,-1.10215,-0.88363504,-1.2794881,-1.2521065,-0.94233346,-1.4860973,-2.018664,-1.132443,-1.167837,-1.4528507,-1.1427286,-1.8970153,-1.0805173,-0.3193766,1.5389439,-1.4014823,-1.8353227,-1.4361612,-1.924684,-1.1165931,-1.2272928,-1.8198324,-1.7706511,-1.7609466,-1.074309,-1.2143874,-1.5335203,-1.0292494,-1.2473935,-1.0911837,-1.7173667,-1.8670866,-1.7751722,-1.0534286,-1.225953,-1.4054917,1.8560799,-1.973415,-1.6264731,-1.9244034,-1.3112235,-1.1234128,-1.7241133,-1.5037585,-1.6854849,-1.3991585,-1.3477416,-1.5928597,-1.0759816,-1.28827,-1.6590598,-1.5033236,-1.0807604,-1.7890577,-1.8075539,-1.7051582,-1.340013,-1.5321921,-1.0992308,-1.1590626,-1.2207366,-1.4515278,-1.2753475,-1.0611732,-1.1244301,-1.1751415,-1.8752484,-1.1740452,-1.1923125,-2.189953,-1.7650625,-1.6173306,-1.8025885,-1.4845929,-1.1603934,-1.8859836,-1.2375839,-1.2823017,-1.1652863,-1.3130709,-1.8619066,-1.5619813,-1.303187,-1.3147395,-1.9144309,-0.4635651,-0.3569447,-0.75885516,0.40067747,0.43890992,1.4241269,-0.95797575,1.100489,0.57833505,-1.6232585,0.28398943,1.6170064,0.7289294,-0.77583253,1.6738327,0.54483783,-0.53066224,0.63152695,0.44770795,-0.3336189,0.57794255,1.0120996,0.72668964,-0.71006554,-0.27600658,0.7565418,-1.4799455,1.416315,1.264672,-1.2493808,-0.8252257,-0.88687056,-1.7684596,0.852442,0.5209549,1.1005752,0.69780296,1.1969974,1.5388551,-1.6857255,-0.8317407,-1.486262,0.93470454,1.5028194,0.5685298,0.2472378,1.0535121,0.93064106,-0.7649061,-0.759213,0.24924673,1.3932279,0.3636823,-0.7434695,0.09022572,1.0252553,-0.9188585,-0.7201897,-1.5251906,0.34558284,-1.4474168,0.58938783,0.2501805,0.9370615,0.23298359,-0.5950913,-1.0890367,-0.41557074,1.501412,-0.5094991,-0.17274685,-1.6633083,0.93322384,-1.3396434,-1.0090933,-1.6765145,1.7676352,0.91398805,1.505954,0.3597146,-1.6256485,-0.1489659,-1.391189,-1.1685882,-0.2884284,1.4507014,0.6860049,-0.54226965,-1.1337643,-0.26177832,0.40363976,1.1571125,0.10838398,-0.9811431,-0.42816344,-0.32041514,0.53329825,0.24337865,-0.061941594,0.15825139,0.32301083,-0.13833016,-0.74163103,0.32872137,0.26038054,0.16317615,0.5385422,-0.591364,1.589205,1.1824474,-0.7057485,-0.07376226,1.1419221,-1.0682328,0.6408134,1.4931844,1.1741459,-1.4579422,-0.5017386,1.1967338,1.4032319,-0.1675889,-0.2738832,-0.98459214,-1.6446248,1.2315509,0.2475634,-1.5122555,1.5580611,-0.11841971,1.4173044,1.2153118,1.4822305,-1.9444948,-0.7788295,-0.46319985,1.3173283,0.80122864,-0.7503921,-0.978762,0.67536825,0.7334469,1.5365,0.39826128,0.90500283,-1.4484037,0.54016215,0.5872479,0.12200552,0.3650254,1.169064,0.7161782,1.3687967,0.058002934,0.707995,-0.7710554,1.3529047,-0.91150427,0.8761116,-1.3498816,-0.7095715,-1.3645915,-1.6132674,-1.3092694,0.8892888,1.3842356,-1.2580185,-0.46220276,-1.1326792,-1.0396314,-0.37835407,-1.2027545,0.13354318,-1.0708367,0.48370525,-0.40216547,-0.15255538,-0.93975645,-1.1837349,-1.2410954,-0.95095307,1.0569991,0.17725928,-0.98937774,0.25515836,-0.30095652,1.6627775,-0.085242525,-1.5279164,0.20229644,-1.0856692,0.63792497,0.967481,-1.4878864,0.8984771,0.051345196,-1.4221119,0.65229404,-0.8798322,0.6393416
DRUG_ATC_C2,-1.1063094,-0.9925816,-1.164036,-1.0831685,-1.0679556,-1.3218275,-0.9435127,-0.86824036,-1.013577,1.1913744,-1.1602843,-1.2296761,-1.1637534,-1.1835289,0.9739471,-0.90343374,-1.2223521,-1.0220292,-0.95634323,-1.0099607,-0.042046674,-1.1326693,-1.0469639,-1.2028854,-1.0470262,-1.0539362,0.7110364,-1.0977576,-1.2272838,-0.9317386,-0.92190325,-1.1330138,-1.279098,-1.102378,-1.0318373,-1.0592908,-1.1574593,-1.408217,-1.4361836,-1.4450076,0.59211093,-1.2930883,-1.5470089,-1.367259,-1.499311,-0.6093326,0.9180992,-0.3009064,-1.0509262,-1.3127772,-1.0935788,0.62978965,-1.0275227,-0.37963805,-1.3453988,-1.4559908,-1.3672584,-1.0065283,-1.0761304,-1.21711,0.15803997,1.2175084,-0.85343087,-1.0212089,-1.2075619,-1.3715007,-0.86606133,-1.0199362,-1.3696657,1.1053473,-1.0488582,0.93118125,-1.3743842,-0.7091283,-1.0187898,-1.1295696,-1.0684699,-1.2266965,-1.3274996,-1.1095297,-0.716057,-1.0499933,-1.5403742,-0.66375047,-0.2964242,-1.3984063,-0.92979455,-0.97113013,1.0145355,0.3223443,-1.4587451,-1.1981225,-1.1457627,0.39180288,-1.2081267,-1.0191737,-0.7965457,-1.0252249,-1.1364604,-1.1507096,0.8684043,-1.2948276,-0.37213376,-1.6626168,-1.0271964,-1.4301362,-1.2627811,-1.0193833,-1.2785207,-1.2041193,-1.317544,-1.2928561,-1.1407391,-0.94304794,1.0397537,-1.2618647,-1.0718982,-1.3026212,-1.1287305,-1.2020798,0.45851472,-0.40113246,-1.4724985,-1.1615644,1.0648729,-1.2529078,0.67193913,-1.5353503,-0.19458386,-0.90797204,-1.3679566,1.0434165,-0.65833944,-0.3022183,-1.001172,-1.1707063,-0.9884467,0.35711843,-0.6849915,-1.1406578,-1.1872326,-1.4233565,-0.8664424,-1.1548641,-1.1717521,-1.3079611,-1.2714981,-0.7838041,-0.95301664,-1.1671325,0.26343718,-0.5607363,0.15137678,-1.3027883,-1.2275345,-1.268559,-1.2784669,-1.4649174,0.5745493,0.11345263,-1.3076817,0.29632947,-0.59317565,-1.0085713,-1.0182582,-1.5238377,-1.0937327,-1.2735021,-1.4161972,0.52514595,-1.1763322,-1.0879463,-0.8425781,-1.7186942,-0.95705765,-1.3046438,0.76782334,-1.1008141,1.3875912,-1.2950602,-1.2586533,0.52095354,-1.0723487,-1.2858764,-1.673581,-0.89047766,-0.0064654886,1.2025816,1.1493772,-1.2360032,0.14598393,-1.2221719,-1.1518657,-1.072345,0.93899345,-1.2333246,-1.5316652,-1.0933335,-1.1476814,-0.12099262,-0.20598815,0.5382162,-0.26443744,-0.009719189,-0.3164597,-0.46203944,-0.72592515,0.24430759,0.37124872,-1.1036254,-1.1400839,-1.027425,-0.5677304,-1.1455586,-0.09630119,-0.16511047,-0.16753636,-1.283631,-0.9276599,-0.32916424,1.1682811,0.31921953,0.24002543,0.6037765,-0.0800475,0.5512982,-0.76702756,-0.84329796,0.38375357,0.051068865,1.1442779,-0.67321986,1.4333361,-0.29387233,0.08123833,0.03577789,-0.8014405,-0.69890493,0.16016957,-1.3177416,0.96086895,-0.19499825,-1.0513874,-0.92395437,-0.821832,-0.7250691,-0.35781598,1.1180178,-0.50244313,0.6047724,-0.21099223,-0.9452708,0.5366664,0.71042264,-0.65649045,-0.8006468,-0.026393939,0.2228154,0.620346,-0.20701179,-1.2475295,0.55610174,0.5202621,0.45723978,-0.7085974,1.1214339,1.2205458,0.06409615,1.2798686,-1.0348109,0.14421502,0.72475374,-0.68244237,-1.443558,-0.19637713,0.5006861,-1.1087466,-0.29525423,-1.247963,0.32887378,-1.0901985,-0.8172852,-0.40796858,-1.0819606,-0.5518306,-0.55328876,0.58716947,0.7195933,0.27225155,-0.8668029,-1.1614501,-0.44218245,-1.3818681,0.944725,-0.7246278,0.5958139,0.48522067,-0.582729,-0.5754567,-0.47230792,0.5305652,-1.0890263,0.98778987,0.7208358,0.5013695,-0.07169147,0.92995167,-0.6095249,-1.0275546,0.07804983,1.017531,-0.15329462,0.4676498,0.33312857,1.0735936,1.0070988,-0.47989175,-0.5173499,-0.7115814,0.6451933,0.52292407,-0.9013459,-0.34126237,0.3954052,-0.20041883,0.6104257,-1.1552674,-0.1013235,0.68356735,-0.11531444,0.17960161,0.5366782,-0.6336554,-1.2545773,-0.45460224,-0.16489498,-0.85710603,0.9289112,0.19279782,-0.20512825,-0.47307566,-0.23575446,0.67958486,-0.48639908,0.70976645,0.72735703,-0.9002792,0.9966275,0.682852,-0.2837954,1.129948,1.0189829,0.900444,0.28215623,1.1522977,0.9768108,0.95289797,0.65759003,1.3246053,-1.507388,0.6930699,0.6664655,0.4092687,0.027243549,-0.1972396,-0.22946267,-1.2784674,0.78204685,-0.7808621,-0.6430109,-0.94638777,0.14136286,0.82357025,0.38610238,0.38782492,-0.45008615,-0.32156414,0.64073324,0.62813634,0.1201599,-0.24961296,-1.3725278,0.07533408,0.0052995346,-0.2765291,-0.99467266,0.08941232,1.2595102,0.4991389,0.5075694,-0.40203747,0.44159383,0.38333628,-0.836832,-0.18180104,-0.7800221,0.89949596,0.3680264,-0.51289976,-0.82872665
DRUG_PATHWAY,-1.1701455,-1.0009671,-1.0375599,-0.94271356,0.92891,-1.0236632,-1.0515014,-0.9261753,-0.644482,-1.2202318,-0.9453685,-1.1024475,-1.1071684,-0.88192046,1.1866493,-0.9552081,0.5572221,-1.0188237,-0.34928188,-0.8692626,-0.78921807,-1.0132631,-0.8004003,-1.0247447,-0.85139054,-0.79657525,-1.3339903,-0.22707778,-0.89014995,-1.0942688,-0.32984012,-0.60512424,-1.2232728,-1.0519279,-0.8442416,-1.1665189,-1.1124129,-1.0847721,-1.1311074,-1.3818449,0.9114233,-1.033672,-1.1479423,-0.64480823,0.53826267,-0.48667714,-1.2167895,-1.0807872,0.7783115,-0.9300622,-0.9390737,-0.41707736,-0.9784346,1.1824012,-1.1480088,-1.1272124,0.25460193,-1.0486156,-0.46983734,-0.7672818,1.0400748,-0.6743525,-0.87762785,-1.0374826,-0.61702275,-1.0522124,-1.202634,0.94485927,-1.2606003,0.6464895,-1.0649146,0.8482616,-1.0945778,-1.1434263,-1.0109723,-1.2583624,-1.2155426,-1.0625695,-1.1114066,-0.94788694,1.236458,-0.80096585,-0.9886845,0.8387354,0.020150008,-1.3515874,-0.99337554,0.5563431,0.8608119,-0.89454377,-0.5215138,-1.1807683,-1.058267,-1.3408164,-1.0547632,-1.0444562,-0.90967923,-0.96791726,-1.0387125,-1.1006624,-1.0423603,0.30395547,1.0912532,-0.9053733,-0.5739209,1.1253753,-1.3399472,-0.8748953,-0.6465569,-1.2162309,-0.79821056,-1.0972466,-0.7013607,-1.0092525,-1.308572,-0.017879512,-1.0771823,-0.3912148,-1.0561717,-1.0951123,1.0295546,0.77086204,-1.0395914,-0.7784974,1.2525047,-1.1887089,1.3048595,-0.7417311,-0.88201654,1.1012297,-1.0954902,0.7735847,0.95125765,0.5095864,-1.0073124,-0.6170111,-0.13175456,-1.1915795,1.2833382,-1.1758745,-0.32526284,0.37193775,-1.4197655,-0.98134285,-1.0336697,0.7816742,-1.0878327,-0.9154307,-0.9014864,-0.36886317,-1.175976,-1.000454,0.67701626,-0.46414816,0.84735185,1.125462,-0.97397363,-0.90809524,0.7603274,0.35272673,-1.201907,-1.3958583,0.23675032,-1.1572834,-1.0294405,0.967437,-1.189571,-1.0257996,1.0269568,0.80043995,-1.0716693,-1.0594636,-0.97313714,1.1573912,-1.0163684,-1.0996857,-0.48133683,-1.109244,-1.3973818,-0.87045926,-1.0496724,0.9173638,-1.0389758,-1.0018282,0.8846874,-1.2949708,1.2773656,-0.1796602,-0.28339145,-1.0918905,1.0117155,-0.82569534,-0.7986771,-1.194634,-0.96876144,-0.38537166,0.3857096,-1.2400743,-0.45714146,-1.3229426,-0.025857253,-0.88493776,0.75199103,-0.945995,0.18976825,-0.8350284,-0.8352646,-0.016978981,-0.66646343,-1.0438888,-0.81955755,-0.30985826,0.6549541,0.39046505,1.3667324,0.09840922,1.190563,-0.5153229,-1.3960766,-0.09845432,-1.2454844,0.9516215,0.25612637,0.5907194,-0.51249915,1.1696947,0.64264464,0.96349704,0.9267645,0.5506259,-0.3862241,-0.5713001,-0.9305893,-0.7137275,0.3886967,-0.10344104,-0.7035751,-1.1444008,1.0487481,-0.016206177,0.677552,-0.3025962,-1.1636182,-0.9639595,-1.2791622,-0.91222936,0.7546718,-0.93678015,0.11728576,0.58434623,0.06809264,-0.730655,0.3629132,0.9869933,-0.1850502,-0.20457402,-0.8894265,0.38958165,0.16760434,0.31026813,-0.96878815,1.1813369,0.44898403,0.5535106,-0.4453547,0.50287825,-0.4822476,0.7340248,0.42954516,-0.63701075,0.46298808,0.978995,0.6685066,1.130149,-0.3805056,1.1259013,-0.37291664,0.64453506,1.2870659,0.349215,-0.10692088,-0.9262406,0.7383771,1.4407492,0.7421657,-0.0038970788,0.67985004,-0.9576703,0.5047901,1.1826987,0.75974303,-0.056458317,1.2688451,1.1146431,0.1583517,0.44509616,0.063262075,-0.8720284,-0.6296981,-0.41551787,0.46200398,1.1309801,-1.1256121,0.45740706,-0.6356499,-0.7008256,-1.1320913,-0.76388115,-0.9273202,0.6706498,0.50129735,0.3759329,-0.06787217,0.2942044,-0.44352806,-0.30793458,-0.064679645,-0.84857565,-0.5627798,-0.19635525,1.3983269,-1.2684473,-0.64346844,0.751035,0.7410588,-0.38573068,0.97007364,-0.90550566,0.6252053,1.0419775,-0.09733741,1.0049218,1.3665228,-1.2504681,0.26393574,-0.09943403,0.102472045,0.4843347,0.98329306,0.19898847,1.1367912,1.2941726,0.7211875,0.21309656,1.1248599,1.0943714,0.2945908,1.2085947,0.8123331,-0.21199761,-0.32860023,1.1724365,0.72182924,-0.63582337,-0.76316357,1.134565,-0.0058003888,0.124579266,1.2552412,0.5931107,0.7513376,0.99158984,-1.3022467,0.31830072,-0.41399354,0.9015958,-0.8772613,-0.5856643,1.3110367,1.3490404,1.0450112,-0.6344719,0.70705634,-0.4856481,0.12256209,-0.6549286,-1.1876465,0.4313264,-0.39040178,0.7103769,-0.20595905,-0.7887988,0.08124034,-0.6690919,-0.8957379,-0.21873084,1.3962237,-1.2351888,-1.370917,0.7122682,0.9767825,-0.5386519,-0.7789965,-0.12733103,-1.4522412,1.2785769,-0.99152607,0.54964787,-1.0382851,0.33033988
DRUG_ATC_C3,-1.2307652,-1.2923182,-1.2373041,-1.2137254,-1.313171,-1.3487464,-1.2175231,-1.0779303,-0.7963178,-0.3402376,-1.3412402,-1.1857262,-1.0458466,-1.3299059,-1.7075019,-1.0195714,-1.2027133,-1.4273239,-1.4763141,-1.0436773,-0.9552953,-1.0904827,-1.1246763,-1.2523152,-1.1597849,-1.2594767,-0.99271095,-1.549999,-1.1591599,-1.051029,-1.135461,-1.119129,-1.8268188,-1.1260486,-1.2279514,-1.0882313,-1.3265245,-1.2893904,-1.8094387,-1.6245486,-0.76019704,-1.2685658,-1.6975799,-1.4997014,-1.6926637,-1.0987426,-1.2577605,-1.1889273,-1.2541038,-1.1912135,-1.0917282,-1.5640416,-1.1831007,-0.40828222,-1.3955348,-1.2818619,-1.4813145,-1.0566665,-1.3980997,-1.2036762,-1.5372666,-1.41717,-1.0545353,-1.1798185,-1.351561,-1.3896161,-1.4101474,-1.3426073,-1.568282,-1.4738177,-1.1284595,-1.312095,-1.3518053,-1.566513,-1.1174252,-1.5219828,-1.6651616,-1.1824726,-1.6990395,-1.201215,-1.7543554,-1.2915907,-1.6544266,-1.7184464,-0.62359333,-1.4142604,-1.0324888,-1.3463479,-1.237222,0.52299863,-1.4946866,-1.1190052,-1.4479482,-1.5366019,-1.4603294,-1.0872252,-1.0086628,-1.0282537,-1.140484,-1.1726416,-0.9856801,-1.3221519,-0.85763603,-1.396013,-1.1522995,-1.5867071,-1.6854246,-1.2756368,-1.6216733,-1.3075387,-1.3515176,-1.3078957,-1.1737362,-0.94452465,-1.5782417,-1.3022548,-0.98677725,-1.2742593,-1.1753265,-1.2652427,-0.8931982,-1.2758034,-1.3662202,-1.3061473,-1.0639902,-1.203087,-0.39363995,-1.5950013,-0.46832332,-0.36466065,-1.4191736,-1.2175394,-0.5320651,-1.5673983,-1.1240808,-1.0411221,-1.2918024,-0.99013734,-0.9064331,-1.2004141,-1.0744759,-1.2916899,-0.7608385,-1.2310622,-1.141645,-1.0409966,-1.5348793,-1.3228376,-0.95212233,-1.2505809,-1.1175137,-0.5325558,-1.388693,-1.2810837,-1.5894816,-1.2616829,-1.1690195,-1.5586895,-1.2581556,-1.5533795,-1.2699778,0.1166015,-0.7660911,-1.2173239,-1.1111122,-1.370319,-1.321349,-1.3443146,-1.5784853,-1.1944567,-1.2335804,-1.3049048,-1.2493296,-1.6594381,-1.1521397,-1.3564078,-0.3479774,-1.1440064,-1.7644278,-1.401123,-1.2693098,-1.1446208,-1.252202,-1.3066972,-1.6781439,-1.1840525,-1.4555664,-1.499886,1.6656141,-1.1821878,-1.2492939,-1.4706458,-1.0413425,-1.0759512,0.34759548,-1.506154,-1.5677172,-1.2062607,-1.2311878,-1.3846458,-0.23336452,-0.29241914,-0.48670736,0.06586628,0.28134435,0.46725166,-0.30775613,0.10078871,0.14054528,-1.5308561,-0.38894936,1.2477529,-0.49336326,-0.7282873,0.8207196,0.079523385,-0.6101327,-0.8782495,0.27331716,-0.104157254,1.1265199,0.2233077,0.52447194,0.4028419,-0.012295994,0.9832862,-1.0415797,0.06714533,0.44177076,0.124192916,0.05338964,-0.30223456,0.26585594,0.16824307,0.04764555,0.5237026,0.07048357,0.91709876,0.45496404,-0.91690314,0.97750556,-0.9906831,-0.09289246,0.16905688,0.79877967,0.6920593,0.47454172,-0.32101527,-0.3224084,0.2361266,-0.3022494,0.83970237,0.46413937,1.1480078,0.22123498,0.6896071,-0.075411044,0.12862456,-1.0479516,-0.2768357,-0.55757105,-0.64349425,-0.038157832,0.36533704,0.55718666,0.06975012,0.91986835,0.30930337,0.79921985,-0.2546137,0.09801433,0.11834674,-0.5822574,-1.328043,0.5606765,-0.15119737,-0.48131362,0.8313245,0.6631857,-0.121667325,-0.473923,0.64838237,-0.3713252,0.38965166,-0.30753547,-0.44553193,0.38477194,0.4221189,-0.31149384,-0.99464536,-1.0227923,0.69887674,0.99848354,0.79262376,0.27563494,0.38166103,0.17769107,-0.11045087,0.028538123,0.028246405,-0.62590164,-0.17177491,0.52923566,1.0027046,0.41846862,-0.9407289,1.3388512,-0.04188729,-0.012701629,0.21853645,-0.27885225,0.29885402,0.80318284,-0.5568494,0.22572339,0.79229337,0.22400928,-0.4734519,-0.77052426,0.6617226,-0.4914948,-0.35756075,-0.26326412,-0.09796546,-1.2173768,0.8046601,1.203662,-0.63711,-0.91641504,-0.19224502,0.46409568,0.5962266,1.2478793,-0.7951886,-0.6217653,-0.20728956,-1.1616476,-0.45160556,0.088432774,0.09906986,0.13646278,0.2528509,0.9445043,-0.8857618,0.86612844,-1.077131,-0.5672888,-0.7711215,0.5163174,-0.06826107,1.1527923,-0.21935466,1.0988693,-0.35281655,0.041634995,-1.1687003,0.7602913,0.46713,1.2850997,-0.6347137,0.28241196,-0.9487573,0.59703815,-0.6389371,0.19940908,-1.5110366,0.8868287,0.9034647,-0.048524406,-0.3567584,-1.1265075,-0.064647496,-0.25635996,-0.69704205,0.058850575,-0.2560671,0.5703242,-0.3624205,-0.9619019,0.12632549,0.47136745,-1.4453477,-0.1580015,0.32634753,0.45102352,-0.8441991,1.135227,-0.68375176,0.2893735,-0.027164761,0.65613794,0.36099428,0.809556,-0.84541994,0.7012374,-0.43776056,-0.2235241,0.42724293,0.2453741,0.0045511895
TYPE,-1.0346507,-0.51018953,-1.4234841,0.4992228,-0.71047544,-0.80554545,-0.5794927,-1.2623866,-0.26011443,0.9192539,-0.5530846,-0.6711326,0.725977,0.24385364,-1.1756399,-0.34682953,-0.6295562,-0.6118314,0.5914704,-1.2152786,-0.25224984,-0.44212154,-1.3729508,-0.6780003,-0.97581834,0.0153596755,-1.114865,0.591404,-1.4631726,-0.84870493,0.49568594,-1.2425084,-0.93597734,-1.3243183,-0.8553446,-1.4083579,-1.4283092,0.9187588,-0.42728627,-0.32173225,-0.7650977,-0.10394079,-1.1935205,0.39735165,0.5954983,0.33947495,-0.3787445,-0.079503685,-0.28062332,-1.350766,-1.472337,0.44648054,-1.3562723,0.45865902,-0.89543283,-1.4024214,0.33747908,-0.78394675,-1.190512,-0.37791678,0.6578414,-0.4731082,-0.6364877,-1.4444268,-0.8487217,-1.0055435,-0.9575373,-1.1935984,-1.2951967,-0.585054,-1.0734386,0.93931323,0.6841931,-0.52753335,-0.9525321,-0.685945,-0.27444783,-0.11759636,-0.46850044,-0.8036837,-0.7035639,0.052785654,-1.2555437,-1.0344034,-0.832693,-1.1982524,-0.6289416,-0.75446326,-0.49247822,-0.68528974,-0.7597477,-1.4116559,-0.7203122,-1.2138335,-1.4490931,-0.7303533,-0.6248444,0.031492118,-1.3550173,-0.73699737,-0.48776898,-1.1502551,-1.1159476,-1.4835615,-1.2019231,-0.7065061,0.46231788,0.39317825,0.74639314,-1.4315015,-1.0729942,-1.2105938,0.63205034,-1.348076,-0.51926404,-1.1981751,-1.3273894,-0.03923634,-0.33599308,-1.1652967,-0.7751603,-0.14803536,-1.236703,-1.2120292,-0.8883424,-1.4615211,-1.0238489,-1.3514094,0.19935587,-0.6906586,-1.460091,-0.111237235,-0.33463034,-0.041839942,-1.3276106,-0.026063144,-0.72638494,0.8144434,-0.9824966,-1.2747668,0.5664283,-0.8900705,-0.41040102,-1.4549717,-0.8609753,0.13013245,0.3224129,-0.684226,-1.3672585,-0.77077603,-0.15343417,-0.0020613754,-0.44615632,-0.8725813,-0.38831306,-0.88427997,-1.4362354,-1.0519406,-0.7886484,-0.570135,-0.3982655,-0.82191116,-0.16856693,-1.4714974,-0.7027075,-0.90619934,-0.0394852,-1.4796416,0.40074408,-1.046409,0.5568907,-0.92023784,0.64883,-1.2529902,-1.2987453,-1.3674395,-0.8748755,-0.2508207,-0.7923808,-1.4202309,-1.2203753,-0.3134741,-0.9904927,-1.4941336,0.16258918,-0.5149317,-0.13870813,-0.64374155,0.16382736,-1.4104004,-0.53260833,-1.2817255,0.63965917,-0.54656595,0.8803356,0.45355463,-0.19935684,-1.2399126,-0.47394064,-0.79282916,-1.0990243,-0.17269899,-0.48845777,0.7121207,-0.364608,-0.93483156,-0.6269627,-0.8785277,0.37713197,-0.27727336,0.9279407,-0.5854722,-0.557152,-0.21487087,-0.09552543,-0.3217305,0.5995398,-0.5808251,-0.82466495,-0.7318313,0.7088717,-0.20366776,0.3002481,0.6369175,-0.95015645,-0.82386243,0.77109945,0.0018959219,-0.017347176,-0.4954388,0.71479195,-0.8789717,-0.3407459,-0.32397267,0.7371485,0.06327915,-0.54885304,-0.8765092,-0.772435,0.5095315,-0.7400933,0.24187335,0.90255237,-0.3329648,0.6933184,0.2741202,-0.010421925,0.5664155,-0.46887448,0.7227015,0.05538272,0.7593122,-0.9616088,-0.08926079,1.0778035,-0.7845713,-0.43996656,0.9720646,-0.77409065,0.8923357,0.3316952,0.23611288,0.94909,0.011778683,0.22586566,-0.49193713,-0.8212456,-0.63154507,-0.438266,-0.5829667,0.9994456,-1.0536461,0.031081619,-0.38991627,0.081771605,0.23163185,-0.53744406,-0.12045892,0.051016882,0.5955671,-0.15335526,-0.7073296,1.0122541,0.099104114,0.5615658,-0.023238938,0.9564501,0.82245135,-0.37717548,-0.626329,0.054611288,-0.61014724,0.17171751,0.095922634,-0.07485467,0.15186626,0.814967,-0.88979536,-0.16416623,0.7148593,-0.5871812,0.83578974,0.79409003,-0.25264597,-0.5679208,0.033125337,0.5687956,-0.54675996,-0.57895845,0.2057749,-1.0379819,-0.89370275,0.33550775,0.87618047,0.32709125,-0.46110517,-0.1743199,-0.119206786,0.35394832,0.77733326,0.16085047,0.596463,0.9266044,0.0060059116,0.78380036,-0.012592483,0.84538037,-0.38164982,0.579029,-0.26719025,-0.0013877132,0.005820833,0.83021957,0.09306824,-0.81395316,0.08917131,-0.24438697,-0.8166099,0.33007234,0.06924754,0.53604174,0.71365654,-1.2000904,0.5206644,-1.104079,-1.0370617,0.52943796,0.31139663,1.0405403,0.93821394,0.8742207,-0.032175627,0.027676888,0.98574954,-0.43081594,0.80835557,0.55509454,-0.91989565,0.13291551,-0.41899556,-0.40578783,0.6826494,-0.5058093,0.6324744,-0.6470368,-0.015965478,0.8465975,0.002825614,1.0424454,-0.74764454,0.31610492,0.20179687,-0.34630197,0.04481862,-0.8471829,0.009235248,0.8171817,-0.60442615,-0.078933544,0.22520664,-0.74971056,0.46943942,-0.8225619,-0.13969952,-0.3124064,-0.12647332,0.20821616,0.24321032,-0.090624474,0.5179331,-0.8350762,-0.016125837,-0.73486996,-0.20639114,-1.1934233,-0.5188973,-0.87664056,0.47376606,0.90444976,-0.3661225
PATHWAY_CATEGORY,-1.1124512,-0.56452477,-1.0643017,-0.09686916,-0.17563681,-0.64859396,-0.28748894,-0.9143249,-1.1235607,0.2387919,-0.99797344,0.043591555,0.5614525,-0.8965613,0.4596422,-0.09153561,0.6888379,-0.5528895,0.4597617,-0.8223784,0.40695137,-1.1729935,-0.50500137,-0.7230548,-0.7378295,-0.4014416,-0.34904215,0.59673786,-1.2046959,-0.40833452,-0.33062488,-0.554201,-0.4514126,-0.40017262,-1.0629184,-0.18190508,-1.2739317,-0.62853295,0.6776385,0.50926846,0.93019885,-0.91584367,-0.986648,0.68109244,-0.66863227,-0.5129784,0.6403326,0.03854203,0.5726496,-1.0943872,-1.0660424,0.110350154,-0.37372455,0.56479746,-0.7261827,-1.0566064,0.40530488,-0.8233203,-0.81814206,-0.39488095,-0.4195437,-0.42893478,-1.0471362,-1.0711813,-0.41878855,-0.7764548,0.24725653,0.70167357,-0.46293148,0.54467547,-0.88086516,0.13454422,0.1778546,-0.3380873,-1.1201469,-0.4138587,0.052584287,-0.7648287,0.7189877,-0.44140103,-0.03816382,-0.36860412,-0.75146854,0.6560047,0.41553,-0.2113226,-1.0003307,-0.376322,-0.09195187,0.8039592,-0.9100689,-1.1139202,-0.70695686,0.93683285,-0.67065704,-0.99288774,-0.90858686,-0.97661763,-0.73110086,-1.0168654,-0.524349,0.42398328,-0.5835873,-0.94865185,-0.96388525,-0.85943156,0.5077713,-0.77317804,0.55185413,-1.1415492,0.0099665625,-1.1441901,0.71932566,-0.31672332,-0.26578265,-0.45210883,-0.0673362,-0.93138784,-0.88168967,-1.1649634,-0.205498,-0.25354257,-0.1906681,-0.90678805,0.7004178,-1.0990045,-0.5370471,-0.9114604,-0.8105999,0.3090083,-0.31810293,0.83581907,0.15569378,-0.21643774,-0.4181717,0.33325806,-0.0786367,-0.64340097,-0.23000757,-0.1302078,-0.78480905,-0.6243524,-0.3212598,-1.1781015,-1.0741882,0.2668511,-0.2884962,0.8253597,-0.58459216,-0.348314,0.66912794,-0.60610837,-0.60029435,-0.50915587,-0.21249965,0.5309826,-1.1163484,0.31244007,0.46368095,-0.66482025,-1.0848038,0.46548563,0.6324545,-0.92523944,-1.0086977,0.48916176,-0.0503764,-1.0867695,-0.5603147,0.022148076,-0.48031622,-1.0569336,0.5348133,-1.0659244,-0.60573554,-0.9055922,0.02821945,-0.82089514,-0.11345089,-1.0938874,-1.1653408,-0.5453947,-1.060354,-1.174225,-0.091455005,0.21894038,0.63365555,0.11929664,-0.05486416,-1.163022,0.63490146,-0.87159437,0.5505249,0.24472056,-0.13573033,-0.17829093,-0.6596751,-1.1650146,0.12459386,-0.5882171,-0.6119104,-0.5896797,0.057571407,0.77016664,0.09036263,0.46360317,-0.13049935,0.18629757,1.1133959,-1.1147022,0.3831175,-0.3389031,-0.0017400082,0.08667723,0.52236974,-0.8273132,0.19665214,-1.070057,0.41001624,0.8769786,-0.71316326,-0.37170142,-0.966723,0.5555994,0.8606626,0.6394277,-0.68751097,-0.26329705,0.11220683,-0.85877144,-0.34587613,-0.91959304,-0.65920264,0.7853873,-0.86292064,0.95051,0.7874125,1.0113851,1.1052818,0.13087508,0.7512418,-0.53276783,0.4573672,0.7893546,0.8407525,-0.10589739,1.0162089,-0.9600022,-0.11497987,-0.39790753,0.9444622,-0.64939094,-0.67844206,-0.039305676,0.12962702,-1.0435132,0.61157024,-0.9830614,0.50315624,-0.8682646,-0.007467289,0.11589119,-0.63079286,-0.05866661,0.8279715,-0.48511243,1.043837,0.4247,-0.31038466,-0.099629715,-0.17970613,-0.09568764,-0.4603358,-0.48881754,-0.00881984,-0.41826415,-0.6121787,-0.38977143,0.7394786,0.95480937,-0.50464654,-0.14438301,-0.84359205,0.57126236,0.3186862,0.51657134,0.5364004,0.23617074,0.52459866,-0.63720936,0.8599765,0.9251732,-0.49832365,0.032567453,1.0552809,0.7591942,-0.7975825,0.3853887,-0.9307737,0.38518983,0.44913605,0.032899354,-0.7664397,1.0320483,-0.97328675,0.03492358,0.14400709,-0.07743603,-0.46207935,0.06871763,-0.038132,0.8125223,0.11456533,-0.87499475,-0.2143551,0.7522781,0.8801585,-0.72595686,-0.28666684,0.41381174,0.4737254,0.48214155,-0.9886704,-0.738618,0.8726387,-0.2685691,0.37906206,-1.0346723,0.40069154,-0.6375219,0.942791,0.7003159,-1.0629622,0.643717,-0.86142206,-0.8460166,0.72398984,-0.90741193,-0.06253338,-0.85999477,-0.74536425,0.84745365,-0.0012626753,0.80335844,-0.8393676,0.6030757,-0.20416872,-0.5507518,-0.7955629,0.9367144,-0.59083337,0.8859314,-0.17715806,-0.38506004,0.4202725,-0.052956305,0.1767486,-0.29294038,-0.6220735,0.31876606,-0.23603694,-0.67736775,-0.44816473,-1.0176417,0.74599296,-0.9100557,-0.7114553,-1.006956,0.38849705,-0.04710995,-0.336883,-0.07401763,0.84445935,-0.37742957,0.3821869,-1.095701,-0.6456647,0.2080716,-0.7393466,0.95553076,-0.13930844,-0.8492796,-0.058329634,-0.1263104,0.021410435,0.54788274,0.94581,-0.6470553,0.61915576,-0.6512931,0.47897893,-1.0440115,0.7705196,-0.49063712,0.15825418,0.8118696,0.04883603,-0.7085762,0.091403395,0.4139573
DRUG_ATC_C4,-1.2483499,-1.4943565,-1.2814984,-1.3803025,-1.5330931,-1.2543213,-1.3779352,-1.0287726,-1.161805,-1.3107489,-1.4264299,-1.0313312,-1.5136385,-1.465495,-1.4702585,-0.9940002,-1.4909929,-1.6045054,-1.5061816,-1.03303,-1.0680438,-1.1095052,-1.2112657,-1.3055123,-1.1920538,-1.531257,-1.503817,-1.4053583,-1.2858505,-1.1776336,-1.2916431,-1.1767797,-1.7993925,-1.120009,-1.2412083,-1.2232593,-1.3377388,-1.6143646,-1.8724055,-1.8218206,-1.2158351,-1.3861072,-1.6861719,-1.6068932,-1.5437592,-1.1925873,-1.742617,-1.3825521,-1.3862753,-1.295306,-1.1223855,-1.2997615,-1.1734759,-1.3834447,-1.3870775,-1.3728371,-1.5561993,-0.8315615,-1.5144032,-1.2536716,-1.6071144,-1.5904378,-1.0633712,-1.2476718,-1.4074363,-1.5265155,-1.6839174,-1.5185891,-1.5075018,-1.5759733,-1.1306195,-1.4990591,-1.4869994,-1.9421314,-1.3229853,-1.8365926,-1.5162905,-1.2663741,-1.8167121,-1.3641999,-1.8866271,-1.418886,-1.6251857,-1.8087046,-0.9122743,-1.5280809,-1.1436113,-1.1692514,-1.3662562,-1.6113559,-1.7056339,-1.243883,-1.661417,-1.6708224,-1.2599285,-1.2476264,-0.951005,-1.0809064,-1.1580861,-1.1972268,-1.223529,-1.8617024,-1.1953927,-1.575994,-1.2473758,-1.8024188,-1.7144842,-1.3606238,-1.6124997,-1.4581858,-1.4050345,-1.3561581,-1.3240021,-0.9596583,-1.5006952,-1.4009106,-1.0364419,-1.2646399,-1.143702,-1.2740573,-1.5131354,-1.6639545,-1.2216641,-1.270759,-1.2431834,-1.2703384,-1.5861137,-1.483075,-0.67355275,-0.032283716,-1.477957,-1.3264139,-1.0462611,-1.5554411,-1.1205077,-1.1133695,-1.5708671,-1.1212002,-1.4776983,-1.2417657,-0.9426493,-1.4620343,-1.1227945,-1.1950203,-1.2284163,-1.0461658,-1.5442305,-1.3249909,-1.0495595,-1.3351487,-0.9738889,1.178669,-1.6113434,-1.5356029,-1.7086151,-1.6301979,-1.2081382,-1.5912486,-1.4607868,-1.2249837,-1.3066075,0.13330252,-1.555765,-1.0907146,-1.1095941,-1.8982009,-1.2101903,-1.3975306,-1.5032318,-1.518591,-1.4422839,-1.1848977,-1.3773515,-1.7881055,-1.1077173,-1.2611372,-0.9894747,-1.2433265,-1.6079527,-1.4468421,-1.3190649,-1.6574241,-1.1697769,-1.2680402,-1.832689,-1.5865388,-1.7624637,-1.488765,-1.601548,-1.0984235,-1.5559182,-1.3557496,-1.1868689,-1.2968831,-1.0517912,-1.5629228,-1.4648272,-1.2764422,-1.1853843,-1.7613555,-0.4876778,-0.16295595,-0.8804986,0.38590863,0.11475054,0.9620591,-0.02398524,0.7402913,0.4940358,-1.1635343,0.27547967,1.4878635,-0.52992797,0.0072640153,1.3733771,0.36128134,-0.6030582,0.12922114,-1.221266,-0.20493057,0.8586047,0.99806297,0.49643105,-0.83191836,-0.059544105,0.23263106,-0.19767769,0.88085926,1.045736,-0.92328084,-0.3044188,-0.70335865,-0.75151086,0.54178256,0.6720909,0.7827974,0.46442512,0.4407904,1.5136555,-0.894207,0.1567879,-1.2984251,1.3390764,1.3506497,1.4700526,0.1129919,0.65255576,0.27424636,-0.535298,-0.35967848,0.13068767,1.4612378,-0.14410059,-0.48039657,-0.59331846,0.76510173,-0.33038238,-0.80190057,-1.2522198,0.29812986,-1.0484855,0.6894681,0.33143082,0.9780184,0.07532194,-0.7615842,-0.3726154,0.23282285,0.8548084,-0.6729015,-0.12087369,-0.73228556,-0.83289635,-0.9430259,0.20459616,-0.7581887,1.274821,0.8711839,1.4104985,-0.1318768,-0.6365543,0.30712926,-0.7804074,-0.117407896,-0.28439128,1.1946461,0.5867634,1.0646032,0.36668304,-0.7573445,-0.03444194,0.8505695,0.7281814,-0.57515585,0.033675466,0.3747497,0.3421906,0.14201602,0.6183412,0.82763904,0.7970647,-0.36018175,0.50840235,0.65823853,0.15395771,-0.37437588,0.8751822,0.02279962,1.3029423,1.1243308,-0.83078235,0.23516527,0.7497045,-0.7140857,-1.054479,0.8284646,0.579698,-1.2730466,-0.73178446,0.60501534,-0.6611662,0.08244241,-0.58143467,-0.24923678,-1.3535061,1.1165648,0.02270388,-1.0382462,-0.04541375,-0.58624023,1.1095762,0.8548056,0.860624,-1.488995,-0.7271987,-0.53756756,-0.32022074,0.8945521,-0.20304018,-0.58669096,0.04990649,0.15556176,-0.38329074,-0.7580861,0.56023705,-1.470843,-0.22823474,0.9018453,0.045653913,0.051559273,1.3571185,-0.0071763564,1.2557722,-0.3776018,-0.6547715,1.1252322,0.76684326,-0.6419474,0.9064098,-1.5333501,-0.6669633,-1.1927996,-0.68258876,-0.7664541,0.31417385,0.13470331,0.085638,-0.78485394,-0.8567246,0.31382096,-1.0796602,-1.337476,0.19895343,-0.7694321,0.40735137,-0.6175658,-0.9258055,-0.56491494,-1.0254933,-0.25296202,0.38547248,0.8688623,-0.26178777,-0.69430846,-0.76027554,-0.21427414,1.1175414,-0.71342933,-0.78383344,-0.74064565,-0.3966643,0.008170109,0.41546738,-0.7657013,0.1272004,-0.5945898,-1.6038938,0.48137465,0.1125405,0.8373002
DRUG_TRANSPORTER,-1.0952401,-0.8336249,-1.079692,-0.5591885,-0.0748344,-1.5222416,-1.1960149,-0.9311982,-1.2770666,-0.37405407,-0.7851093,0.34893256,0.09442451,-1.3387696,-0.61323416,-1.0336288,-0.8726986,0.36522123,-0.2619285,-0.81288284,-1.0145022,-0.949874,-1.0650034,-1.157282,-1.4490355,1.0039538,-0.50646186,-0.52771133,-1.0507026,-1.0665743,-0.8589907,-1.2687149,-0.028876225,-1.0855367,-1.0502772,-1.0135533,-0.99852896,-0.11090527,0.8337255,-0.8261767,0.20106745,-1.0429102,-1.4629672,-0.8122522,-1.0584049,0.81472135,-0.4161716,-0.5660651,-0.9217282,-1.3952793,-1.1225692,0.7832558,-0.8633333,0.52368236,-1.0876577,-1.121196,-0.35112134,-0.98907775,-1.4091913,-1.1319113,-1.3630527,-0.5345887,-0.8801231,-1.1407504,-1.009106,-1.0873656,0.48526454,-0.44741297,-0.88746524,0.7142253,-0.857756,0.69875574,0.794845,-0.04642644,-1.2776537,-1.7439319,-0.79257387,-1.1697866,-0.5569407,-1.1741415,-1.0070922,-0.7214393,-1.0217072,0.62674206,1.0154321,-0.7598853,-0.9861146,-0.78774375,0.25921693,-0.018348297,-1.1784279,-1.1700149,0.6061271,-0.26192945,-1.1723733,-0.89881897,-0.9061513,-1.2378157,-1.0812342,-1.1883988,0.8111629,0.17046247,-0.4897522,-1.3528796,-0.8000469,-1.7700906,-0.25400585,-1.002354,-0.9378872,-1.069502,-1.7587202,-1.3440667,-0.80275834,-1.0325198,-0.096475996,-1.3539919,-1.2670624,-1.2854757,-0.8705782,-1.1961664,-0.3548455,0.83967406,-1.5123912,-1.3750712,0.41759062,-1.3286605,0.85913324,-1.3751881,-1.3015906,0.18566586,-1.4145387,-0.5812142,0.47998095,-0.5596352,-1.0022267,-1.040182,0.009762887,1.4930367,1.0419439,-1.29273,-1.2148712,-1.2836599,-0.14680342,-1.2370917,-1.0914166,-0.7012346,-0.72186273,-1.054808,-1.028387,-1.125472,-1.0230578,0.99812365,-1.1251601,-1.1738497,-0.67450833,-0.8163359,-0.99276197,-1.200558,-1.2403816,0.85283285,-1.0196371,-0.5457716,-0.5664637,-1.1719946,-1.1024029,-0.4874481,1.4738424,-1.2415668,1.071937,1.0848603,0.5139119,-0.97249216,0.48762137,-0.8786056,-1.029898,-0.99976385,-0.21963276,-1.1124278,-0.62333006,-1.2547847,-0.95026606,-0.6181092,-0.85247004,-1.4164176,-0.30331758,-1.059403,-0.74296886,-0.37631842,0.1168865,-1.1246248,-0.6135994,-1.1251116,-1.2015078,-1.2109038,0.44163725,-0.7781575,-1.0323092,-1.259339,-0.5212994,0.41784307,-0.29157415,-0.7700793,-0.28836894,1.1974899,0.05358866,-0.285788,-0.639001,-0.1770038,0.7603438,-1.3821661,-0.7377929,0.17337483,1.008375,-0.60225433,0.21586564,0.18685381,-0.61270356,-0.7473125,-0.87079734,-0.73031795,0.81800604,0.591024,0.10339407,0.55461985,0.18122038,0.9117152,-1.0085841,-1.2134649,0.9112761,0.20965579,0.94251347,0.04363962,1.0163003,-0.20086814,0.87716377,-0.97380763,-0.84251255,0.77035505,0.21319166,0.42534402,-0.9146001,0.074681915,-0.30247724,0.747799,0.40498096,0.2797941,-0.3476519,-0.43888965,-0.1127442,-0.26075548,-0.78257805,-0.28003365,0.046392485,-1.3382412,-0.7791129,0.4969789,-0.47363424,0.45217234,-0.24553972,0.23568584,0.6827886,-0.864407,0.32133704,0.5999909,-0.39088815,-0.09168511,-0.8073209,-0.94128126,0.25598574,-0.51410407,0.65584534,0.90443987,0.8373665,0.7591027,-0.41563615,-0.4526878,-1.2263362,-0.09377302,-0.16539064,-0.76738465,0.6289321,1.2367134,0.3806319,1.2942102,1.0997711,-0.35775384,0.29821017,-0.6329095,1.5081993,-0.49887317,-0.17589097,-0.52587235,-0.55969864,0.16221231,0.22797899,0.12296096,0.13446933,0.0715867,-0.027028631,-0.78082305,-0.057701334,0.8239055,-0.5855948,0.6106599,0.97562695,-0.64712536,0.55473226,-0.7344549,-0.37648007,0.66111046,-0.6308886,0.5045182,0.27115527,0.06076565,-1.0650837,-0.21844864,-0.15982136,-0.5985551,-0.10291106,-0.045714494,0.24141201,-0.04667241,-0.64189285,0.08114242,0.94301915,0.65879035,-0.008856057,-0.34611762,0.7533941,-1.1106033,-0.056271184,0.6001549,0.1467301,-0.81213474,0.49537233,0.3807214,-1.0921841,0.9319006,-1.4081407,-0.35289133,0.2397724,-0.870798,-0.70554394,-1.0630538,0.22836031,1.267684,0.54468834,0.28828266,0.75690216,0.053604733,0.7107631,-1.3168178,0.2522369,0.20767409,0.47870326,-0.9466986,0.07884901,0.47657266,0.10985982,1.2529978,0.057569675,-1.2218019,-1.059462,0.24479757,-1.123592,-0.91297835,0.30453566,1.0187212,0.546471,0.088270836,-0.17650713,-0.37768617,-0.58521307,0.4623777,-0.40154296,0.2970414,-0.49649292,1.0041049,0.50178754,-0.78655076,-0.8481667,0.5174829,-0.0069991914,-0.13132441,-1.2650412,1.1363621,0.2458217,1.0389651,-0.84387046,1.3207206,0.70003307,0.43762404,0.40680084,-1.103334,-0.42562175,-0.993856,1.1455648,-0.669633,-0.6384374,0.564422
DRUG_ENZYME,-1.0127459,-0.9690982,-0.98945326,-1.1826726,0.70949817,-1.178128,-1.0549062,-1.0731875,1.4199773,-1.1911505,-0.7158731,-0.40647575,0.7683784,-1.1500684,-0.7085785,-1.026698,-0.7622219,0.5241243,-0.28469795,-1.1129018,-1.3052828,-0.7766353,-0.9044994,-1.2787248,-0.8062115,-1.0961878,-1.2258208,-0.5256203,-1.0153363,-0.8206408,-0.119829565,-0.7552296,0.41434786,-0.927946,-1.0935152,-0.89876795,-1.2890681,0.5198589,-0.61210006,-0.7996909,0.8490093,-1.0035391,-0.9650129,-0.8852665,-0.6319278,-0.2876821,-1.3189968,-1.055834,-1.0121529,-1.0271754,-0.9452079,-1.0665929,-0.94735605,1.3964214,-1.0736482,-1.0370181,-1.1823553,-0.69992006,-0.9797992,-0.9517857,-0.047243126,-0.79372346,-0.8473998,-1.0184947,-0.92685276,-0.93815875,-0.30391705,-0.8837252,-1.0068833,0.08172257,-1.0476526,-0.6484283,1.0992442,0.7506968,-1.0725509,-0.7471171,-1.0148735,-1.1844047,-0.81007105,-1.1309335,-0.16666164,-1.3916388,-1.1117306,-1.1604397,0.4638917,-0.62024,-0.872701,-0.9321853,-0.90534055,-0.8075165,-1.3205655,-0.96364343,-0.5005636,-0.74249005,-1.1935393,-1.0024153,-0.9945165,-0.73558193,-1.0734437,-0.79023975,-0.58257425,0.41681626,0.97056043,-1.3835822,-0.87250644,-1.5304751,-0.52550304,-0.81276894,0.6008375,-0.8389915,-0.73922884,-1.0803187,-0.60323626,-1.008433,0.8092876,-1.1655545,-0.8496221,-0.92789286,-0.9142614,-1.1572615,0.1148257,0.5032478,-1.2881914,-1.06961,-0.46419358,-1.0709558,-1.0769892,-1.3262565,-0.4551342,0.41337094,-1.0812713,-0.9415201,0.07611571,-1.0451885,-0.82672614,-1.1096438,0.94994825,0.6004411,1.3641803,-1.1641828,-0.9838598,-1.073383,0.38824663,-1.002547,-0.94397426,0.8662201,-1.261603,-0.772092,-0.8593646,-0.9944392,-1.5170475,1.3992192,-1.2626964,-1.416117,-0.24296057,-0.8578907,-0.987598,-0.93900204,-1.047844,-0.6028872,-1.1301799,-1.4110204,-1.2155539,-0.90701574,-0.8528566,-0.533154,-0.42742634,-0.83907527,0.81985223,0.9076189,-0.26131803,-1.1431843,1.0858645,-1.5378692,-1.0798893,-1.2851098,-0.060763653,-1.0583831,-1.2703142,-1.0763215,-1.2087939,-1.1316113,-1.0761228,-1.2014997,0.0024427245,-1.2477789,-1.2117133,-0.76018834,0.4587707,-1.1815052,0.6437278,-1.2715881,1.2754906,-1.3906652,1.5825375,-0.2791221,-0.38919613,-0.84683686,-1.2067592,-1.142591,-0.6128674,0.44459233,-1.122232,1.1755244,-0.28577644,-0.3722347,-0.45661375,-0.8979167,-1.0644189,-0.7665803,-0.3029912,0.8368263,0.99203825,-0.45332474,-0.83273023,0.27313006,-0.19576456,0.42075893,0.68741214,-0.41291136,0.82207245,0.57390714,0.18468511,1.1737915,-0.41658753,0.91789377,-0.5747114,-0.60509145,0.7056608,0.66931194,-0.76257205,-0.41256765,1.1822518,-0.6164031,0.85940874,-0.5484886,0.14935748,-1.0440831,0.2564179,0.8008167,-1.0245639,0.6160674,-0.13922691,0.46694222,0.40642944,0.8124147,-0.47114503,-0.01877883,0.57012904,-0.004790391,-0.59330267,0.5397097,0.21207467,-1.0172862,-0.8183095,1.0649428,-1.3052763,0.76929265,0.6266511,1.1347382,0.5371579,0.80452967,0.6223593,0.28725895,-0.39345214,0.4134888,-1.4360977,-0.703568,0.78586584,-1.3761169,0.49748543,-0.45372233,-1.2901963,0.8057797,0.012404827,0.14248256,-1.2804892,-0.43705884,0.029369885,-1.0456372,0.5979706,0.7420964,1.1041071,0.49943057,1.1998751,1.1269741,0.8028579,0.08640685,-0.008926741,-0.760313,0.114790104,-0.7175707,-0.5892745,0.5651448,-0.90641993,0.66789514,0.66405857,-0.7306047,-0.4243058,-0.85077584,0.56700575,1.3522507,0.07347142,-1.0518968,0.6885316,-1.3003532,0.963265,-0.7626244,-0.6294558,0.788763,0.47015122,0.013632167,-0.5413553,0.5989213,-1.3194853,-0.66782117,-0.35132536,0.9319345,-0.41476837,0.69454306,-0.63265353,-1.1466291,0.8132206,0.31906474,0.73199546,-0.17762113,0.9017187,0.19979793,-0.70982885,-0.7697151,0.32740843,0.2653474,1.4410721,-1.1228741,-0.04860985,0.48005834,-1.2217317,-0.48079127,-0.74355185,0.88116753,0.21603307,-0.7084672,0.82350826,-1.0852495,0.55858946,0.3647134,0.13980997,-1.149797,0.46137533,-0.17033918,-0.6513417,-1.7128862,0.5921568,0.8306202,-0.3153463,-0.39461282,0.77024984,0.80674255,-0.83160895,1.0972486,0.32449415,-1.2536091,-1.3592267,0.3999568,-0.50628996,0.4445225,0.22515076,0.66590333,1.1911585,1.3236587,-0.08838876,-1.0545725,0.12509128,-1.2514007,-0.9983593,0.59920424,-1.0144334,0.889093,1.033299,0.024341052,-1.0978513,1.448228,0.092295945,-0.7659664,0.8127356,-0.083907954,0.44381008,0.1727689,-0.589371,0.5037549,0.27344176,0.71561587,0.79383296,1.0151174,1.2902918,-0.3596296,0.80492634,-0.20213945,-0.8745738,0.9351704
DRUG_ATC_C1,-1.1274009,0.51013523,-1.0239033,-0.1764618,-0.35124034,-1.2656467,-0.88274837,-1.1038806,-1.1127769,1.2695944,-1.0883101,0.75884485,0.005506978,-1.1230544,1.0822065,-0.81071526,-0.67235905,1.3235341,0.48139066,-0.9297105,0.41763806,-0.89983743,-0.99716926,-0.8149713,-1.011432,0.50419223,-0.12562172,-0.011775589,-1.0035719,-1.1240841,0.3630368,-1.1518704,1.4309207,-0.8188689,-1.0615722,-0.9753146,-1.0212016,-0.09031391,0.38307017,-1.33735,0.826641,-1.3103013,-1.2821561,-0.42565367,-0.9510919,-0.49816617,-0.5912517,-0.74824435,-0.74072707,-1.157423,-1.0505434,-0.5099696,-1.1773475,-0.103191264,-1.2624123,-1.1331025,-1.3044199,-1.0943578,-1.5146002,-1.1279216,1.065859,-1.1050857,-1.0675201,-0.9483243,-1.0782651,-1.0580152,1.188345,-0.00085829105,-0.67837334,0.47749844,-0.9928707,-0.8325111,-0.7610585,0.16644485,-1.1097394,-0.71921134,0.62847227,-0.74328476,-1.475273,-1.082435,-1.1716316,0.905197,-1.4737196,-0.9706514,0.57030725,-0.8989905,-0.84937084,0.43530938,0.23954326,-0.7120852,-1.0332391,-1.0650727,0.8730794,0.33190593,-1.3798615,-0.6197016,-0.6880118,-0.71181846,-1.1475005,-1.2874049,-0.74429995,1.3476279,-0.25248843,-1.513315,-0.7788303,-0.5947321,-1.496806,-1.0314512,0.45730272,-0.82003975,-0.99728334,-0.94210356,-0.5238753,-0.90398556,-1.0389483,-1.3577516,-1.0608764,-0.73884624,-1.0381652,-0.9054939,-0.87554646,-0.22457847,-1.0836173,-1.0051563,0.04948926,-1.1880947,0.87279433,-1.214701,0.4807058,0.2064136,-1.2716433,0.38017637,0.6592842,0.29248935,-0.73401314,-0.77475595,-1.2554479,1.0291635,-0.5414314,-0.9478753,-0.6990832,-1.0151361,0.82962734,-1.0154089,-0.94772106,-0.017125864,-1.4536304,0.22962359,-1.0113378,-0.73865163,0.6920024,0.4439255,-0.18773858,-1.2404667,-1.2129977,0.51372755,-1.0527726,-0.9866695,0.42632562,0.2075431,-1.0473584,0.56873727,0.094121985,-0.85475475,-0.897086,-1.2262609,-0.3541962,-1.1787596,0.90636605,-0.11817506,1.099611,-1.1006782,0.086035825,0.022875657,-0.7634411,-1.0594524,0.6489641,-0.8449428,0.90292764,-1.2515986,-1.3261979,0.91150683,-1.12964,-1.0466803,-0.91958225,-0.721349,-0.12733196,0.8872577,0.40354615,-1.115692,-0.6004049,-0.88922346,1.0607531,0.08704917,1.1050223,0.9704056,0.51285547,-1.1762291,-0.78939354,-0.17832154,0.082501516,0.49700668,0.09258512,0.5775882,0.5682244,-0.15388751,-0.68977475,-0.2805339,1.2757194,-0.22682194,-0.98932105,-1.3745446,-0.4749135,-0.99302953,-0.39808616,0.28615794,0.4866216,-1.1854618,-0.15422261,-0.77379847,-0.36093858,0.8924778,0.4366441,0.578294,-0.87990665,-0.51692826,-0.5063452,-0.64128333,0.5790128,0.33472338,-0.48405576,-1.0954915,0.70291305,-0.7835603,0.88973194,-0.5768365,-0.9762561,-0.86629057,0.78343785,-0.44425702,0.42255992,-0.26206434,-1.2222687,-0.7498768,0.5871672,-0.08530069,-0.59653413,1.1549398,-0.40389124,1.2634962,-0.47855043,-0.36085618,0.7810713,-0.08686225,-0.33810928,0.11995269,-0.7656051,0.4499326,-0.6348037,0.16548333,0.49028847,0.38878983,0.67952305,0.68260187,-1.1004143,0.9195683,-0.70903546,-0.1556558,1.3425237,-0.8234227,0.6679669,-0.47350064,1.2540298,-0.63177955,0.03768823,0.3246118,-1.0089598,-0.52854794,-1.1737826,-0.23532307,0.11386599,-0.59273964,-0.35848022,0.18487032,0.24459699,-0.3283968,0.64583576,-0.64434606,-0.3169261,-0.38475317,-1.1423422,-0.52289957,1.0653566,0.24764395,-0.6000887,0.5734059,0.6013782,-0.89462143,-0.68759,-0.4618513,-0.41802293,-0.4442996,0.75000685,0.33190137,0.87069863,-0.38178378,-0.72238016,-0.54483414,-0.9164084,0.6953265,1.2244897,0.6515381,0.24040124,0.6348319,0.38062397,-1.2708939,-0.37212136,-0.44894513,-0.93173265,0.84790295,0.17158815,-0.38353458,0.88338,1.0292422,1.0262669,0.4001059,-0.09855742,0.5486835,0.90764517,0.22586022,0.2690305,-0.44036812,0.32692146,-0.97013706,-0.32312375,-0.20686413,0.724405,-0.9562203,0.49014422,0.5958332,1.0781035,-0.48533276,0.4014474,-1.0142342,0.6238588,0.34128234,-0.13300884,1.1529237,0.8086026,-0.09681369,-0.99594903,-0.65462196,1.052039,0.58062476,0.69205624,0.80984616,1.1293428,0.83229405,0.29772633,1.251516,0.8004845,0.61208546,-0.14696404,0.46030474,-0.57147413,1.1132922,0.87599427,0.68032753,-0.64055824,0.8831717,-1.0911717,-0.58497155,-0.5749304,1.1060449,-0.8537915,0.34089223,0.19844209,0.46491653,0.8511404,-0.80375636,-1.0141252,0.99305207,0.26487294,-0.5356872,0.6648941,-0.7204844,0.5639965,-1.0684927,-0.64788914,0.6849501,-0.63775617,0.43274972,-0.17369826,-0.8472344,-0.68058574,-0.08184428,1.0878539,0.48591903,-0.92179316,0.8451327
DRUG_CARRIER,-1.4764048,-0.97841144,-1.1440798,0.39639348,0.03526998,-1.1189533,-0.9826617,-0.96138775,-1.0393316,-0.68556714,-0.67473435,-0.36383253,-0.32262602,-1.2871376,-1.1375669,-0.83272964,-0.015920747,0.35076234,0.07565862,-1.0078814,-1.0699105,-0.7579636,-0.9629963,-0.9983647,-1.1287539,-0.07234779,-0.38864848,0.33755156,-1.2180037,-1.1080999,-0.79697216,-1.0479212,-0.027610669,-0.833063,-0.9514713,-1.1693668,-1.0945493,0.68119407,-0.55090845,-0.23661557,-0.79731095,-0.988346,-1.1919607,-0.69409126,0.93530774,0.42010066,-0.0006314345,-0.9564352,-0.29001302,-1.0976037,-0.98275447,-0.73181456,-1.059021,-0.7814681,-0.8417635,-0.7568653,-0.74505377,-0.8898799,-1.0108209,-1.0932133,0.65941405,0.26528314,-0.82237124,-0.7362613,-1.0982823,-1.0647134,0.11853203,-0.316793,-0.7185503,0.47029108,-1.0164995,-0.5715123,0.42766306,-0.16130392,-1.0849437,-1.0523888,0.33433253,-1.1888971,-0.75582695,-0.8352668,-0.9191196,-0.5472733,-0.8027691,-0.43254608,0.008044975,-0.78232986,-0.997635,-0.6539553,-0.49653167,0.073399715,-0.75631773,-0.9682973,-0.12687556,0.19488853,-0.8705529,-0.726708,-1.2427907,-0.91178787,-0.9866054,-1.083636,-0.840168,-0.2707621,-0.09333543,-1.0419062,-0.8014254,-0.39888713,-0.42602134,-0.8397967,-0.6135305,-0.9248019,-0.81134224,-1.3225328,-0.69313353,-1.1247171,1.0614166,-0.6592844,-1.1770074,-0.78571546,-0.76805234,-1.0101686,-0.88794094,0.18898976,-1.1704423,-1.157962,-0.3931519,-1.0451878,-0.288083,-1.2498496,0.3400647,0.8897787,-1.0289587,-0.8903588,0.477693,-0.68588156,-1.1295155,-0.5499492,-0.45132303,0.041493785,1.0345911,-1.1398857,0.32864588,-0.8770833,0.56350076,-0.978095,-0.8722022,0.5135307,-0.99113035,-0.49699596,-0.9003459,-0.6586862,0.32039127,-0.6180914,-0.8275588,-0.49102628,-0.7572421,-0.4646951,-0.885511,-0.70594287,-0.21027583,-0.3369131,-0.7158751,0.039711677,0.13135786,-0.9950568,-1.1731216,0.3686107,-0.077036574,-0.87388504,0.26735392,-0.45874923,0.44266236,-1.0275815,-0.34555033,-0.943488,-0.80723834,-1.0120459,-0.4081378,-0.81359005,0.6411273,-1.0541153,-1.0954477,-0.71833247,-0.834738,-1.0251724,-0.57068926,0.42484847,0.23229982,0.3095775,0.44691727,-0.9723025,-0.038965713,-0.8488865,-0.46895096,-1.0227327,0.63955265,-0.10213216,-0.7021566,-1.2790757,-0.47362682,-0.60211843,0.5967272,0.41746,0.022397542,0.3822121,0.75209844,-0.39765504,-0.48283127,-0.12863176,-1.0121554,0.4369524,-0.7096229,-0.6034558,0.12847894,-0.031905416,0.35953596,0.39496455,-0.6712689,-0.5227896,0.66132325,-0.3810701,1.03228,0.5391769,0.8428165,-0.39116544,-0.35687584,-0.8142786,-0.5093744,-0.8493807,0.53050745,0.6417369,1.0691773,-0.040400196,-0.392032,-0.7326071,0.691359,-0.29348117,-0.6290766,-0.17992689,0.56757146,-0.24400333,0.506775,0.80236477,-0.103319176,-0.5478318,-0.14802961,-0.68195945,-0.07952281,0.31567976,-0.50826627,-0.16063893,-0.44142634,0.5623403,0.21915913,0.7676109,0.771518,0.7017738,-0.34878376,0.30083188,0.78056854,-0.51826406,-0.7259753,0.21895954,0.40959874,0.5605787,-1.0757811,0.73026437,0.53493834,-0.7907767,0.6562038,-0.6261489,-0.010920882,0.634308,-0.38118872,-0.28209278,-0.070601925,0.9233474,-1.0002494,-0.22817001,-0.21913476,-0.44059476,0.09265887,0.7004233,0.53182805,0.5584714,0.23496413,0.44554302,0.7652453,-0.40560016,0.48731905,-0.58855355,0.33699772,-0.47849357,0.11994369,0.1739803,-0.7142322,-0.13682418,0.18544278,0.15630138,-0.043812964,-0.80041844,0.6259604,-0.40611127,0.20935412,0.040721454,0.758962,-0.33583334,0.2030237,-0.42496124,0.2932555,0.6477295,0.44649178,-0.08167027,-0.36871305,0.18529779,-1.3671817,-0.34922746,-0.27894855,1.0879195,-0.81410503,-0.2549106,0.5769273,-1.027743,0.68922144,-0.25458714,0.27504298,-0.009171848,0.21630397,-0.28799695,0.007471483,-0.6863705,0.8380616,-0.42798665,0.7346058,0.35311046,-0.20954168,0.4907624,-0.9434804,-0.7510942,0.14805998,0.14004155,-0.8112485,-0.4779591,-0.08591479,-0.8097752,0.2673452,0.31597114,0.30919227,-0.42485982,0.4197834,-0.21474747,0.6936932,-0.05419634,0.14488679,0.3107797,0.28944975,0.9321268,-0.15067245,0.5987835,1.0301152,0.77137244,-0.28489572,0.6590518,0.78331435,0.29864523,-1.289063,-0.49109662,-0.7562053,0.8484822,0.24319233,-0.33760312,-0.4668345,-0.29051197,-0.43900365,-0.4369836,-0.23104654,0.6343733,-0.45583197,1.0353442,-0.24035548,-0.52952653,-0.71051335,-0.4271649,0.16239369,-0.2936151,-0.58745176,-0.15363106,-0.64990795,-0.25463486,-0.66329527,0.42016634,-0.48230407,0.28755638,-0.5411618,-0.82549554,-0.2959919,0.48224247,0.61652315,-1.0993184,-0.46228504,-0.26739213
