,0,1,2,3,4,5,6,7,8,9,10,11,12,13,14,15,16,17,18,19,20,21,22,23,24,25,26,27,28,29,30,31,32,33,34,35,36,37,38,39,40,41,42,43,44,45,46,47,48,49,50,51,52,53,54,55,56,57,58,59,60,61,62,63,64,65,66,67,68,69,70,71,72,73,74,75,76,77,78,79,80,81,82,83,84,85,86,87,88,89,90,91,92,93,94,95,96,97,98,99,100,101,102,103,104,105,106,107,108,109,110,111,112,113,114,115,116,117,118,119,120,121,122,123,124,125,126,127,128,129,130,131,132,133,134,135,136,137,138,139,140,141,142,143,144,145,146,147,148,149,150,151,152,153,154,155,156,157,158,159,160,161,162,163,164,165,166,167,168,169,170,171,172,173,174,175,176,177,178,179,180,181,182,183,184,185,186,187,188,189,190,191,192,193,194,195,196,197,198,199,200,201,202,203,204,205,206,207,208,209,210,211,212,213,214,215,216,217,218,219,220,221,222,223,224,225,226,227,228,229,230,231,232,233,234,235,236,237,238,239,240,241,242,243,244,245,246,247,248,249,250,251,252,253,254,255,256,257,258,259,260,261,262,263,264,265,266,267,268,269,270,271,272,273,274,275,276,277,278,279,280,281,282,283,284,285,286,287,288,289,290,291,292,293,294,295,296,297,298,299
DRUG_CATEGORY,-0.038031314,-0.07454666,-0.04698748,-0.04026859,0.05346358,0.06338185,-0.0044020284,0.0497874,0.035567198,0.05597343,-0.011936915,0.06037746,-0.06625846,0.010911363,-0.065562144,-0.03438725,-0.03157913,0.08093736,-0.05179646,-0.058727924,0.04370506,0.11744862,-0.055590693,0.022523567,-0.07598542,-0.06732706,-0.06396616,0.042569436,-0.028815532,0.026423426,-0.057496235,-0.057224847,0.045591235,0.0676974,0.021088954,-0.065353386,-0.02950076,-0.08193163,-0.06478874,-0.07170088,0.0035740824,0.03854292,0.017807448,-0.030999321,0.09233079,-0.04406034,-0.07967511,-0.07361039,0.08574901,0.06895936,-0.052683007,0.030679649,-0.07813681,-0.08618017,0.067202404,0.042161334,0.0150372,0.03822655,-0.040129885,0.03000382,-0.051352948,0.09555083,0.026712153,-0.043849003,0.097529896,0.025863346,0.0679228,-0.017862,0.021081487,0.064934544,0.06405764,-0.051705945,0.048341047,0.037797716,0.06998605,-0.045668777,-0.0063438583,-0.03452009,-0.047817975,-0.06954478,0.073035344,-0.07267715,0.063396685,0.056271512,0.0007269762,-0.058001813,-0.10524103,0.03273228,0.026583858,0.08095998,-0.021091612,-0.048608236,0.09392058,0.011093584,0.054942295,-0.050766125,0.01442878,-0.0689198,0.06421313,-0.0146299,-0.05873509,-0.05238121,-0.06381154,0.082806885,0.033097077,0.04611066,0.07719515,-0.051664613,0.024598075,-0.07156534,-0.08574157,0.030094618,0.0922984,0.063170016,0.0043004416,-0.06717328,-0.07693845,0.0701239,0.05579419,0.0062215803,0.034004983,0.084455214,-0.05707615,0.012384183,-0.07666993,-0.039031785,0.029156527,-0.03755721,0.053221952,0.065060616,0.049351882,0.040940385,0.05761993,0.06623196,0.083701134,0.044353243,-0.044695742,0.0021675916,0.012253864,0.026788987,0.016212925,0.08111375,0.07477315,-0.060395114,-0.043045785,0.060913168,0.049539745,-0.017247245,-0.0023147252,-0.07852158,-0.07514405,0.08800195,-0.03908035,0.0418658,-0.05888814,0.029945329,-0.037061885,-0.023749894,-0.020220967,-0.07507351,0.030870037,-0.06104449,0.05396097,-0.056646828,0.07656319,-0.045521714,0.044964004,0.039625615,-0.0788183,-0.05428713,0.08340631,-0.08921467,0.08344359,0.022231529,-0.049299557,-0.02405017,-0.06503089,0.05386318,0.0017268665,-0.03669758,-0.001648417,0.07024322,0.028566537,0.06440914,-0.049128745,-0.02431251,0.020732334,-0.05989121,-0.04221839,-0.032348644,-0.012462912,-0.030064581,0.026819728,-0.046103723,0.06490359,-0.0410278,0.03311894,0.06673998,0.025058221,0.08819218,-0.092745006,0.027097534,0.08775248,-0.065433115,-0.08213087,0.04486358,-0.06731603,-0.022293895,0.015923109,0.030153438,0.013523463,0.021072289,-0.013367496,0.07457143,0.06784249,0.08921191,0.07973826,0.07212062,0.055761717,-0.068461336,0.07295757,-0.0792747,-0.064081326,-0.06871701,0.08463519,-0.06832592,0.056958307,0.06605322,-0.07622278,-0.0449329,-0.085957885,-0.020475341,0.034805637,0.057230152,-0.018688409,0.0028789686,-0.068091325,-0.054728083,0.016415283,-0.016890109,-0.06923593,0.072408244,-0.018252363,-0.08359974,0.037736315,-0.052994024,0.07289733,0.03968188,0.10080838,-0.045684304,-0.050523058,-0.05467675,0.073976874,0.030990524,0.022460915,0.0834806,-0.013377134,0.089146145,0.05106996,0.039062772,-0.095794834,0.06649988,0.03062053,0.004890141,-0.10271365,0.089633286,-0.047647223,0.084819354,-0.017114319,-0.067399755,-0.066547535,-0.02622855,-0.01178646,0.0016848415,-0.026843902,0.033670027,0.06161131,-0.02799696,0.076343246,-0.03958956,-0.060179364,0.04210522,-0.03280205,-0.07648336,0.029595086,0.025872124,-0.07659494,0.03120091,0.045975134,-0.08154509,0.07041066,-0.021742761,-0.012921825,0.06872532,-0.044586483,-0.07333071,-0.082017064,0.0915909,-0.074303694,0.064805955
PATHWAY_ENZYME,0.01694076,0.085571416,-0.037763048,-0.080566846,-0.0885005,0.07861351,-0.064641476,-0.08469659,-0.04778881,0.06857647,0.072935075,-0.016939213,-0.10122821,0.04684335,0.050332565,-0.09801847,0.046686366,0.032325312,0.017177723,0.011539516,-0.034859408,-0.0033016102,-0.0443342,-0.067995556,0.019352127,-0.04316423,-0.06513505,-0.07740662,0.08602726,0.03359633,-0.05323611,0.058174938,-0.06873251,-0.083785586,0.025974723,-0.061735798,0.053949025,-0.01617172,0.01083256,0.023817556,-0.10077128,-0.040015034,-0.037849195,-0.029298533,-0.054642648,-0.002955272,-0.03334033,0.019832838,-0.041736897,-0.060095098,0.08916284,-0.07498293,0.07487396,-0.05929976,-0.017400855,-0.012156214,-0.09224026,-0.08440138,-0.042765554,-0.037189916,-0.043501183,0.0681499,-0.081301585,-0.08245484,-0.03433633,-0.04208784,0.08124144,0.06949046,-0.064827174,-0.09677309,-0.04600464,-0.07631533,-0.08729043,-0.04131149,-0.037082948,-0.032161795,-0.106227815,0.04329385,-0.053215913,0.021548523,-0.07496958,0.07412577,0.030522842,-0.093715146,-0.04665719,-0.05581161,-0.05162337,-0.09813479,0.041831292,-0.03975863,-0.047246717,0.055125933,0.06049613,-0.037692867,0.03811697,0.06244733,0.09132981,-0.07730777,-0.0614844,-0.064512126,0.038739603,0.06603092,-0.040600393,-0.073611006,-0.07246055,0.08260593,0.034952838,-0.089248836,0.02736208,0.007312774,0.07777583,-0.100522906,0.045399882,0.11440957,-0.08753856,0.0065493537,0.06677268,0.09405263,-0.04323521,-0.108182915,-0.09140277,-0.08212321,-0.08028863,0.064145476,-0.03168482,-0.04845312,0.06378139,-0.090145275,-0.0759045,0.068032175,-0.04308609,-0.04680207,-0.058270965,0.044651367,-0.056085717,0.09881413,-0.0071726,0.0045674983,0.085485615,0.051998362,0.009287728,0.03063515,0.009994284,0.013021561,0.07138153,-0.03463813,-0.08934727,-0.025199277,-0.07733637,0.09426543,0.067743406,0.078880265,-0.05561973,0.05603584,0.06452446,-0.071550116,-0.03408286,-0.004498396,0.04981455,0.068022355,-0.09497843,-0.05512198,0.055739716,-0.03068316,-0.06858515,0.099169254,0.07659485,-0.032503016,0.0808874,-0.060595453,-0.03833014,0.08094109,0.009163869,0.026175883,0.034011412,0.04662685,-0.057131518,-0.041547645,-0.04724485,0.09758782,0.09317032,0.015871385,-0.064145215,0.07966545,0.067463376,-0.042688258,-0.07157581,-0.056703363,-0.08800365,0.085661955,-0.0020253398,-0.06931176,-0.06700433,-0.028566677,-0.018276474,0.05249776,-0.038697455,0.02684766,-0.029993368,-0.03843919,0.037342213,-0.079405054,-0.022789074,0.011951648,-0.048882816,0.07664156,-0.08948896,-0.08853065,-0.07290836,0.09092851,0.085709184,-0.046425458,-0.026524793,-0.03476462,0.030460434,0.029990753,-0.00608886,0.0037404082,-0.03415545,0.023269255,-0.025266513,-0.07834659,0.06535446,-0.07744197,-0.077435926,0.07994711,0.026430411,-0.04514266,-0.07258769,0.049740776,0.034912594,-0.07419492,-0.06974374,-0.030722266,-0.05463636,0.0660944,0.028897837,0.07210964,0.075387694,0.0760448,0.058343835,0.07463039,-0.07207645,-0.054246094,-0.07173671,-0.077196434,-0.09518489,0.07605786,0.05026374,0.079191744,0.050937604,0.060383897,0.056442834,-0.07707978,-0.035933662,0.04123532,0.00956809,0.026046205,-0.06454635,0.06216945,-0.028001992,-0.04609302,-0.045712758,0.0789512,-0.037168376,0.017525844,-0.079841726,-0.011899518,0.013620674,-0.09309542,0.042293906,-0.08138844,0.039600994,-0.021125171,0.047025368,-0.06806154,-0.065712005,-0.06781458,-0.05363771,-0.07359901,-0.07114237,-0.043075934,0.07357093,0.048778757,-0.038190644,0.07759786,0.057699323,0.021073112,-0.040101837,0.056131236,-0.012214382,0.053128853,0.021136208,0.03760313,0.055302374,-0.05174158,0.05553718,-0.06679416,-0.08758756,0.053830717
DRUG_TARGET,-0.031610314,-0.0012730864,-0.092195325,0.0360756,-0.038637195,-0.0101091005,-0.06777383,0.05142753,-0.07585671,-0.073978245,0.09023637,0.094093695,-0.026436487,0.10302912,-0.06852501,0.014115256,-0.020511601,-0.03749499,0.03675832,-0.048012536,0.07007495,0.033802517,-0.07751329,0.06302359,-0.07777951,0.03069561,-0.038149748,0.017936347,-0.07433633,0.016490828,0.07036999,0.027694069,0.0028872145,0.06740383,0.009371037,0.036467526,0.07473416,-0.010473914,-0.04397618,0.040021002,0.03737618,0.08471907,-0.02909479,-0.0064394125,0.029420119,0.063006915,-0.024494158,-0.06646305,-0.05357925,-0.038883366,-0.01278792,0.023997225,-0.04979514,-0.07425937,-0.05226639,-0.02960278,-0.048668128,0.002913687,0.039925832,0.06554348,-0.0602766,-0.006855332,0.010674428,0.028431822,0.08186086,-0.01650784,-0.017707024,0.04172459,-0.015543649,-0.052220684,-0.051461324,-0.048600785,-0.07153041,0.025712818,0.060974438,-0.039100323,-0.06801474,-0.007166244,0.012729437,-0.00096140837,0.060611505,0.037670948,-0.021839352,-0.057701074,0.035492223,0.055124704,-0.07029074,0.026581703,-0.024691178,0.037153017,0.02825101,0.01540086,-0.038394947,-0.003257606,-0.039181355,0.056602586,0.021317821,-0.04969608,0.03241042,-0.03307989,0.07783934,0.019239414,-0.0042685485,0.042595673,0.011578202,0.022218939,-0.041309536,-0.023703622,-0.01988695,-0.013828751,-0.020431135,0.05087834,0.05826233,0.059579622,-0.05928712,-0.049158126,-0.03217529,0.08924815,0.023690982,-0.07257854,0.0051224995,-0.04574201,0.018229762,0.082877755,0.0041413987,-0.09237145,0.062922545,0.04532466,-0.035970785,0.06672,-0.053781223,-0.0009119096,-0.024164524,-0.02644371,0.06499243,-0.019963035,-0.06397694,0.07890517,0.048622414,-0.060631063,0.024226448,0.09501391,-0.038246047,0.02230177,-0.019995436,0.062225495,0.052727357,-0.06546041,0.060890507,0.033648137,0.050319985,0.008147291,-0.07830403,0.09120736,0.04026317,-0.05553243,-0.077347524,-0.080455065,0.09443623,0.032789033,0.028836858,-0.0696949,0.08881479,0.016114652,0.055449665,-0.077986754,-0.016206153,0.0774249,0.04748233,-0.0799937,-0.037850592,-0.056262262,-0.01867306,0.010322249,-0.08038624,0.027887236,-0.087071925,-0.0159645,0.060202133,0.010934762,0.057461098,0.0450715,0.07562681,-0.03866743,-0.04467196,-0.08203054,-0.025375893,-0.074198,0.01804927,0.0039236597,-0.037465457,-0.060200006,-0.030417772,-0.04753275,-0.04887983,-0.04775631,-0.032521863,-0.008186985,-0.043688238,-0.0063167852,-0.011316944,0.044894952,-0.03545548,-0.054697126,-0.08648304,0.10281236,-0.07482494,-0.058969602,-0.07129668,0.07002159,0.045988835,0.038817182,-0.07588066,-0.05064804,0.06494422,0.061299134,-0.061020005,0.044173054,-0.05873882,0.023004169,0.07477404,0.009493046,0.03188897,-0.099263966,-0.07295485,0.053029608,-0.016462084,0.014737577,-0.08982919,0.07278716,-0.07552325,-0.070040785,0.020419247,0.08162124,-0.061954375,-0.03448655,-0.07750356,0.026054773,-0.019470239,0.10398434,0.05664108,0.059051696,0.063082434,-0.06328251,0.007554065,-0.08339298,0.06990855,0.09093513,0.004890447,0.07386868,-0.01791007,-0.02106442,-0.0136045255,0.07637356,0.06311688,0.014719393,-0.0074391225,0.063608766,0.03030176,-0.07770466,-0.0710269,-0.041751966,0.003521276,0.039284013,-0.033145476,0.015059625,0.017609999,-0.0082115475,0.09391192,-0.09563542,0.08460766,-0.061833885,-0.066214114,-0.034122057,-0.07848492,-0.0627688,0.06448889,-0.0012782387,0.08694871,-0.042880412,-0.036413703,0.10593181,-0.0057827923,0.008239165,0.081241645,0.05671792,-0.07342638,-0.032260627,-0.06876463,-0.07670698,-0.0056599802,0.048938002,0.028657783,0.051431645,0.0646273,-0.07435392,0.048797082,0.043099847,-0.08019067,-0.036697026
DRUG_ATC_C5,-0.12794246,-0.025377622,0.026282577,0.031229848,0.054217402,0.034313172,0.06398239,0.033926018,-0.11860065,0.0011444985,0.020925479,0.09414681,-0.020343617,0.06515475,0.031303804,-0.01607319,0.06302538,-0.03248257,-0.04624376,0.047349237,0.099438496,0.09059344,-0.007938011,0.06784786,0.035950918,-0.013533247,-0.07395793,0.06723271,-0.08869336,0.004577837,0.03802538,-0.087891616,-0.027478773,-0.06446992,-0.046504267,-0.09517481,0.059581768,-0.068043925,-0.01741768,-0.034781963,-0.079459846,0.04444537,-0.05855132,0.031310625,-0.0287366,0.02727385,-0.023166057,0.010530929,0.089462005,-0.0073919175,-0.024070442,0.0048480737,-0.088668264,0.07504819,0.05347892,0.069683984,0.024771208,0.06439614,-0.041384734,0.019990062,0.043901484,-0.0016638896,0.0018054486,-0.059184395,-0.0013216194,-0.075495355,-0.03913324,0.016521916,-0.033654943,0.016375445,0.05497872,-0.03236162,0.0152528025,-0.0044282507,0.10278907,-0.04659637,-0.02164714,0.04423656,0.027181605,-0.029313624,0.05759903,-0.025240777,0.09929589,-0.006623327,-0.051849537,0.08963157,-0.067401655,-0.025336267,-0.043168183,0.050205067,0.011836674,0.011893373,0.07285944,-0.03507688,-0.03155342,0.024550065,0.062932864,-0.027075501,0.0012941341,0.06002656,0.07940024,-0.009058291,-0.05501337,0.0510642,0.015576203,0.085343644,0.03818228,-0.07372902,-0.033905767,-0.055875096,-0.07184415,-0.05495688,0.03109588,0.032671597,0.041899204,-0.055897247,-0.09877127,0.05711597,0.1328293,0.015078169,-0.082155585,0.03969334,-0.0742894,-0.031534262,-0.1354991,0.050004415,-0.025428426,-0.043656487,-0.07071795,0.07565518,-0.057046622,-0.055749707,0.09393313,0.008053187,-0.0123105,0.056189187,0.10354569,0.048883222,0.009192251,-0.039805908,0.071039334,0.030590085,0.07147268,-0.042089064,0.03073705,-0.04819186,0.08580071,0.035312995,-0.024531284,0.00070138153,-0.042506393,0.008198074,0.02827038,0.00676075,0.051383093,-0.018340668,-0.0013531478,-0.052381143,-0.036421154,-0.087419264,0.021683421,0.03925044,0.0808585,-0.05147824,-0.032332975,-0.05447437,-0.047933847,0.051072568,0.014186756,-0.038014695,0.071356565,-0.018187987,-0.03409835,-0.0014804902,0.015960246,-0.052360598,0.024004111,-0.02941504,0.012912055,-0.08777339,0.021424333,-0.012164214,-0.044639077,0.04728038,0.0094245225,-0.04751417,0.0033294805,-0.016820993,-0.04518697,0.04607996,0.008194013,0.022570288,0.08534439,0.033064865,-0.04187277,-0.01362611,0.016182385,0.05486619,-0.021721644,-0.01939687,-0.030547285,-0.016037712,0.07439263,0.1023454,-0.028426295,0.009495124,-0.08612443,-0.114790834,-0.028520081,0.06332472,-0.028023733,-0.056386515,-0.08308888,0.07859486,0.05927581,0.09949875,0.028479671,0.09270901,-0.037406735,-0.042106792,-0.021401731,-0.00079921976,-0.040531456,-0.0825138,0.04142009,0.0045038853,0.043778054,0.04021492,0.0131897,-0.05084323,-0.024272637,-0.067073636,0.034386244,-0.00194613,0.03780264,-0.063761,-0.10789342,-0.046056315,-0.09523604,0.012800644,0.05450117,-0.003075232,-0.0045596156,0.050120857,0.078544594,-0.034153208,0.06902752,0.024297224,0.024660887,0.005192223,0.046878446,-0.098101765,-0.02288631,-0.044236585,0.01125034,-0.06652163,0.07940721,-0.017298402,-0.0325724,-0.047038913,-0.09032124,-0.034598626,0.025794348,0.048178084,0.057491895,0.06589534,0.009900288,-0.032594435,0.021835072,-0.0348654,-0.005041408,-0.05231539,-0.05447339,0.0028545507,0.018990261,0.053859275,0.001335051,-0.018550957,0.022147782,-0.07132255,0.04202723,0.061979562,-0.042526152,-0.040219553,0.07284951,-0.065160885,-0.039730795,0.05666039,-0.049928546,-0.06397079,0.065413214,-0.07711261,0.033401676,0.088561326,-0.08013646,-0.08731699,-0.054858178,0.0685137,0.060352605,0.0033788385
DRUG_ATC_C2,-0.018490046,-0.011576109,0.06635163,-0.008257574,-0.017268432,-0.061938252,-0.035252675,0.069673955,-0.000882391,-0.044904128,0.115355216,0.024061887,0.011979034,-0.033752386,0.052090943,-0.03910176,0.031662397,0.07470413,0.033798315,0.016545411,0.08373537,0.055280693,0.04065478,-0.0031628788,0.02331301,-0.04941433,0.06574148,0.07828592,0.009478852,-0.07536475,0.060627993,-0.06684512,0.03315531,-0.08868224,-0.023258926,-0.18865909,0.04024683,-0.105431624,0.045744076,-0.15714282,0.08253495,0.01633162,-0.063640304,-0.09556299,-0.07548073,-0.014663499,-0.10323598,-0.011308069,0.15383904,-0.0720387,-0.07627161,-0.04572618,-0.019580783,0.11731299,0.15456581,-0.045112014,-0.062697075,-0.017937684,0.0008540434,0.07727379,0.03127807,0.07286409,0.055956677,0.07745656,0.013815195,-0.053019837,0.028564217,-0.05919935,-0.11132441,0.03987766,0.13708302,-0.08397491,0.025930896,0.07358307,0.09372561,-0.1006794,-0.12976117,-0.0049605453,0.040220734,-0.060336962,0.14418966,0.029980801,0.045656186,0.04335235,-0.108682714,0.11479391,0.0190204,0.07036012,-0.07131231,-0.0061855325,0.031399712,-0.034195807,-0.024793072,0.054455042,0.09413107,0.05594957,-0.020551192,-0.05944993,0.017461289,0.012833259,-0.02622332,0.016976215,-0.02295524,-0.03882892,0.08130179,0.10644539,0.13527896,0.076452605,0.04606168,-0.019677145,0.06130555,0.029022269,0.07019414,0.121112734,0.07892578,-0.028667888,-0.14286135,0.043886803,0.0117937485,0.00558906,0.030905414,-0.04269345,-0.074428424,-0.023400795,-0.081376575,-0.12696871,0.01544059,0.047475547,-0.07794456,0.05676241,0.044924255,0.07669141,-0.038401417,0.08123612,0.094542734,0.019887878,-0.064084195,0.054067865,0.06221812,0.059644975,0.030198036,0.07328034,0.12243008,-0.057431117,0.030255152,-0.08568334,-0.030872513,0.09605814,0.058607455,-0.026478287,-0.08151442,0.05386377,-0.14442647,0.10650896,0.0041865073,-0.07312813,-0.1009347,0.008221774,-0.045524478,-0.061621603,-0.07617911,0.04370424,0.16754551,-0.13068625,-0.0058603175,-0.09250486,-0.009564287,-0.02459186,0.04646069,-0.09288008,0.020354673,-0.1428492,0.05812858,0.034030538,-0.10479509,0.10919459,0.04641633,0.07732331,0.05909929,0.026507169,0.04638504,0.03193183,-0.10192579,-0.033963405,0.0045760255,-0.06252823,0.072707765,-0.07981343,-0.0623055,-0.0537742,-0.060863815,0.08370064,0.09442152,-0.006491743,0.022849534,0.084412426,-0.005658807,0.12974514,-0.0032430375,0.06574063,-0.064598106,0.10155548,0.028748723,-0.027549056,-0.059200432,0.023748202,-0.117174335,0.023618922,0.0040505505,-0.03003515,0.052119277,-0.06516884,-0.06869031,0.1330389,0.092463925,0.0994883,-0.070788965,0.06714945,-0.07727638,-0.048376296,0.046198905,-0.06643978,-0.08264347,-0.13027436,0.0032232408,-0.16460039,0.05953315,0.10151545,-0.010364107,-0.06743571,0.0017222855,0.027475914,0.036540262,0.15187943,0.037534464,-0.024473328,-0.14932753,0.03581404,-0.13975035,-0.06446735,-0.02429671,0.057720713,0.046441413,0.08967331,-0.018891608,-0.053701736,0.11682904,0.1752166,0.16226223,0.065303035,0.07691632,-0.12708262,0.044933997,-0.070440196,0.12053713,0.061130207,0.05261329,-0.07837438,0.03360998,0.047748134,0.003884197,0.079653494,0.09350245,0.10499533,-0.10918499,0.0060732975,-0.020228546,-0.049935278,0.035884235,-0.13231619,0.026800644,-0.11748603,0.0029883021,-0.01623007,0.068690196,-0.07202056,-0.011468187,-0.015294425,0.012176988,0.08254078,0.081205636,0.13920677,-0.12929769,-0.08289177,0.03915244,0.08417728,-0.020342551,0.01875111,-0.070924394,0.040583283,-0.019532386,-0.06230129,-0.106483005,0.04484317,-0.004002284,-0.061150193,-0.058856998,0.10734716,-0.070123725,-0.0115285115
DRUG_PATHWAY,-0.09240503,-0.14805873,-0.054171856,0.05278831,0.028420791,0.015839236,-0.022966206,0.11923211,-0.12123684,-0.17716227,-0.10430395,0.027342543,0.022378357,-0.01694717,-0.012309699,0.15827975,-0.014868655,-0.081232876,-0.04729527,0.05752802,0.10048157,0.08230637,-0.058860872,0.063400835,-0.063480996,-0.09657786,-0.035952065,0.1178093,-0.11905261,-0.09255909,0.09046059,-0.017714053,0.011710593,0.0007636489,-0.06376543,0.029883403,-0.07847109,-0.080361515,0.03514937,0.013042921,0.11805699,0.03887572,-0.013137623,-0.09146444,0.06868829,-0.04521502,0.025794756,-0.075355776,0.1326846,0.117455944,-0.07119526,0.17873845,-0.07978476,-0.078807116,0.074757114,0.097397074,-0.066531636,0.08881666,0.028588718,0.019903447,0.081590086,0.052290726,-0.041089408,0.11138238,-0.024233503,0.06828064,-0.16439043,0.08211784,0.104340345,-0.031732913,0.08302224,0.10716833,-0.056924358,0.1319407,0.11663601,-0.053787995,-0.07062117,-0.016489485,0.095583394,-0.028823568,0.1352714,-0.121406704,0.04272907,0.11882945,0.07303724,0.087921284,0.02063049,0.13158172,-0.0705559,0.014138155,0.07416133,-0.048024833,-0.04195284,-0.052539032,0.04350698,-0.04342778,-0.07058147,-0.017542858,-0.03419399,0.04087087,-0.1254236,0.046271943,0.073786914,0.11057909,0.03251396,-0.011019796,-0.09805289,-0.102862515,0.08106831,-0.02309085,-0.08047807,-0.029424405,0.017360212,-0.039868638,0.1135536,0.061973717,-0.071914,-0.0073121614,0.04399375,0.063986845,-0.02881441,0.037125945,-0.02250526,-0.052426565,0.06015287,-0.069802046,-0.023648677,0.14703774,0.06972269,-0.01787736,0.06506562,-0.064281285,0.030355785,-0.1032083,0.14695407,-0.087561995,0.067657314,-0.0625498,0.050024398,0.01948713,-0.012375089,0.15867057,-0.029465256,-0.046733797,-0.041718073,-0.02854729,0.12834482,0.05654095,0.11111622,-0.13406168,-0.0034801255,-0.17536762,0.0011350447,0.06432276,-0.036837995,-0.008978872,-0.10752151,-0.067633376,-0.008417444,-0.0120930085,0.020289605,-0.06535759,0.024858393,-0.04905191,-0.012042291,-0.15169096,-0.11375764,0.19016339,-0.1448845,0.117516525,0.061138503,-0.022216665,-0.041685876,0.04376774,0.0077006635,-0.019895589,-0.09396861,0.06691199,0.024481364,-0.086914726,0.030602125,0.09195036,0.09302239,-0.20627709,0.018479291,-0.04003995,0.11723242,-0.042675167,0.11566604,-0.017708087,-0.025568528,-0.096970946,0.041586522,0.03350896,0.032951552,-0.09215932,-0.009580705,-0.057381414,0.016508374,0.10594652,0.017156344,0.104562484,-0.0019336392,0.09084942,-0.0413878,0.023037026,0.006466703,-0.0074260333,0.022615185,-0.105445884,0.042098776,0.085558884,0.0101188645,-0.048126314,0.13197175,0.012440154,-0.0849179,0.082024775,-0.030126411,-0.001987292,-0.046520937,0.094656,-0.09082659,0.02235249,-0.05866297,-0.058377262,0.040190283,0.04413682,0.040167574,-0.041717064,-0.090399355,-0.04279503,-0.014691334,0.13939746,0.11826517,-0.02029987,-0.14748755,-0.055111308,-0.10526842,0.07774621,-0.043875758,-0.14480133,0.002624408,0.09567058,0.12907963,0.06001762,0.1517895,-0.04957421,-0.003977169,-0.02464695,-0.050024804,-0.122793645,-0.014420288,0.060779434,0.06818224,0.0030067666,-0.037289333,-0.045414668,-0.0035765993,-0.07240091,-0.008741098,-0.023128591,0.12756073,-0.13137263,-0.08515766,-0.067361444,0.055651892,-0.070729494,-0.041911885,0.07366958,0.051857274,0.12062814,0.0040642465,0.12156589,-0.05944628,0.050301418,0.026099026,-0.022178335,0.04330362,0.0030088446,0.041570645,0.14961852,-0.045633808,-0.014275013,0.039587736,0.018672248,-0.068930864,0.015460059,0.061714273,0.01985818,0.069653064,-0.06054262,-0.12758008,-0.02657382,-0.031815283,-0.023451723,-0.09687107,0.028088285,0.056638032,0.07381886
DRUG_ATC_C3,-0.06099299,-0.0550516,0.015896907,-0.091276765,0.075489566,0.08463238,0.012384626,-0.08756952,-0.088477455,-0.13650654,0.08481074,-0.010221223,-0.107110284,0.02031293,-0.07362973,0.06432882,0.031732757,0.024511116,-0.11609625,-0.011992337,0.08180314,0.0099355485,-0.06259768,0.08582652,0.12662978,-0.005768461,0.015801093,0.06907903,0.028689228,-0.062811255,-0.0473524,-0.097370856,-0.03602359,-0.065040745,0.029463654,-0.16941087,-0.01661377,-0.013128159,-0.023972142,-0.11531317,-0.047269035,0.08124716,-0.059429962,0.013948601,0.11406153,-0.03638231,-0.0014376164,0.04009944,0.12636082,0.079160206,-0.027569216,0.034119796,-0.14038275,0.06815681,-0.014620158,0.022300677,-0.04486718,0.09838185,-0.03914107,0.093670286,0.031757392,0.0914161,-0.04838226,0.065728925,0.025873955,0.052242994,0.0072035296,-0.059556693,-0.015672348,0.040132686,0.007181253,-0.046374697,0.08861777,0.11295204,0.01106739,-0.06963866,-0.124720044,0.047408886,-0.10217035,-0.023096085,0.1361808,-0.034942348,0.014524056,0.09733894,0.038078133,0.07862557,0.00513122,0.029148022,-0.026155338,-0.029586758,0.13126513,-0.09884136,0.05073075,-0.01266028,0.06975853,0.079420045,0.010650175,0.03758172,-0.053242538,-0.08102849,0.08111044,0.10743582,0.054944847,0.05417578,0.026799299,0.12561215,0.09421601,0.0692569,-0.061496556,0.06284514,-0.03279329,0.050937712,0.002313512,0.078694806,-0.0070764925,0.04920489,-0.11789719,0.023595152,0.07572717,-0.07541,0.03335858,0.04800388,-0.060306005,-0.07146246,-0.089452066,0.06884296,-0.021440862,-0.083557345,-0.09712681,-0.01513572,0.022585046,-0.087980114,-0.06273133,-0.058941588,0.09936062,0.07130254,0.0038232796,0.066936806,0.1270858,-0.0731522,-0.025903437,0.13036312,0.08427623,-0.063719876,-0.022571934,-0.044749,0.0022282756,0.008463039,0.0741778,-0.06153028,-0.046412375,0.11218003,0.0034541537,0.05325622,-0.004203511,-0.06907343,0.006830088,-0.063602984,-0.046586156,-0.105339855,0.047066584,-0.022117054,0.11448087,-0.101981,-0.026880672,-0.03592417,-0.0676611,-0.058139846,0.019052822,-0.020054648,-0.0034318247,-0.11783739,0.016819648,-0.044821788,-0.016838182,0.002981614,0.05666777,0.084122546,0.060008507,0.011057256,0.06349191,-0.060886793,0.06062126,-0.037622243,-0.03382819,-0.03311809,0.07735799,-0.060715057,-0.073503554,0.028321685,-0.050536584,0.034509227,-0.058879834,-0.11448721,-0.0392163,0.006407815,0.067882665,-0.030486386,0.015640765,0.1125772,-0.105562456,-0.0725593,0.1496881,0.048243932,-0.08685278,-0.0089722695,-0.0072262427,-0.011173227,0.06875843,0.0583903,0.0049599167,0.00090764294,-0.120426215,0.069308385,0.13798581,-0.030471347,0.08020305,-0.040388636,-0.007604736,-0.03459174,-0.02903453,-0.091465,-0.05547137,-0.11196113,-0.004139525,-0.1377343,-0.00024854002,0.09983165,0.0004142672,-0.07553224,-0.0037619863,-0.040507145,0.09415989,0.08192346,-0.008395901,-0.10050662,-0.1842538,-0.03222484,-0.06305801,-0.023252983,0.016438454,0.021436855,-0.0867422,0.034778558,-0.08886668,-0.06494669,0.1123595,0.08888091,0.032353822,-0.092417665,-0.0040907925,-0.13794313,0.084338054,0.059714086,0.09824074,-0.05775309,-0.026276726,0.09704992,-0.12101828,-0.010498024,-0.07154864,0.0776008,0.005036268,0.057488896,-0.1417694,-0.0924482,0.040841382,0.017579086,0.046229534,-0.11995871,-0.065529905,0.0239256,0.006974083,-0.01232902,-0.021020506,-0.067257345,0.09967802,-0.10628862,0.08824725,0.030194188,-0.06180465,0.0050608907,-0.031463586,-0.054843124,0.025807075,-0.035095554,-0.09936821,0.095233835,0.033353522,0.040150743,-0.050067533,-0.04257725,-0.09965649,0.12914895,0.03562778,-0.12729166,0.04922389,0.09983873,0.061751153,0.00029798318
TYPE,0.02713188,-0.13815454,-0.058962476,-0.13518755,-0.06574514,0.10650878,-0.08414418,0.0943312,-0.010010727,-0.1786145,0.10112826,0.12196573,-0.06525767,0.08986681,-0.029246828,0.09577949,0.1297293,-0.020811887,0.12168913,0.11438287,0.15141751,0.1725714,0.118002765,0.019020066,-0.065632924,0.12190282,-0.11794178,-0.01077212,-0.19238909,0.01185899,0.08719768,-0.081860095,-0.12969694,-0.06931424,0.12031099,0.089584626,-0.063967824,0.060576342,-0.05486606,-0.1034427,0.10729114,0.09963734,-0.1442265,-0.13193838,0.002287058,0.08241577,-0.12336898,-0.026302518,0.06980022,0.15898344,0.08610333,-0.04643115,0.043463342,-0.10670216,0.0008901364,0.059418883,-0.15191203,0.058496326,0.14129767,-0.024199272,-0.016389938,-0.097966224,-0.06724542,-0.16561149,0.10941386,-0.10980845,-0.034511965,0.18876427,0.013639117,-0.13675329,-0.023173137,0.10744779,0.034445766,0.00717721,0.09445052,-0.093852244,0.033868086,0.023158455,-0.1692015,-0.11145378,0.035691343,-0.037324257,0.0730743,0.059978507,-0.167799,0.04713519,-0.14591084,0.043998264,0.121545754,0.15694384,0.061706696,0.0045795697,-0.08441973,0.013080199,-0.09882585,-0.114154845,-0.035822015,0.06955519,0.14121419,-0.060761295,-0.053102378,0.12721057,0.081676364,-0.051968254,-0.08963722,-0.085274585,0.039238837,0.04219059,-0.026924081,-0.17584102,-0.02596628,0.046779852,0.09954078,0.021324283,-0.0029406473,-0.06226218,-0.18913142,0.10760508,0.038722478,0.05353078,-0.010397666,0.067438744,0.1113929,-0.12638803,-0.1875368,0.06724132,-0.06995556,-0.10026864,-0.057412554,0.07991063,0.018426267,-0.056575093,0.047546457,-0.050958183,0.08678353,-0.05465517,0.0940049,0.023217868,0.1809239,0.011708666,0.038694132,-0.053717624,0.14001726,-0.047477633,-0.056668326,0.016326,-0.118428975,-0.1753029,0.12096427,0.08869928,0.0030353267,-0.05720709,-0.02547291,0.022059746,-0.02888251,0.10931807,-0.20239559,-0.046948466,0.16095723,-0.12591033,0.04583079,0.11315574,-0.0032648274,0.060772255,0.08522397,-0.020884067,0.06980843,0.019675778,-0.053405594,0.07732353,0.17554832,-0.060736567,-0.010870213,-0.08376894,-0.06383279,-0.06820758,0.016046247,0.11902598,0.081685886,0.07972148,-0.03043369,-0.052086815,-0.095599286,-0.043471396,0.09374033,-0.13922095,0.080196016,-0.16815361,-0.1593641,-0.013360077,-0.12422118,-0.060545303,0.12274961,0.11955495,0.09907793,0.010389283,-0.0187655,0.03564021,-0.1068129,-0.13100213,-0.19766249,-0.10586007,-0.0054454673,-0.052496858,-0.17215016,0.13344206,-0.038897466,0.047652002,-0.03487463,-0.06164546,-0.025908094,0.03782701,-0.14547233,-0.03400529,0.041106336,-0.049910396,-0.07711756,0.08473725,-0.12893961,-0.16493587,-0.05907994,0.11785347,-0.18264438,-0.15356529,-0.13504368,0.1105985,0.11872008,0.039307356,0.07516894,0.051352322,-0.038345255,0.12616552,0.044528484,-0.057235934,0.12554036,0.068059765,-0.12704569,0.006174537,0.08589345,0.16864543,0.022597237,0.088222675,0.18235722,0.102953106,0.12631331,-0.11373673,0.111993775,-0.11877861,-0.013685667,0.126349,0.1355391,-0.10463235,-0.04348157,0.052086856,-0.027164279,-0.1555531,0.14345641,0.08393105,0.01601897,-0.088226564,-0.04563266,0.1294801,0.109313615,-0.116176456,-0.010007314,0.023032183,0.014107878,0.0132850595,-0.061854783,0.021222968,0.13207133,-0.018600931,-0.167279,-0.041061327,-0.047726534,0.117454775,0.07931196,-0.17546166,0.20112781,-0.1654797,-0.1396455,-0.08257732,-0.11090677,0.053642582,-0.082869574,-0.047321,0.08183308,-0.102604866,-0.12974688,0.07790469,-0.14254382,-0.13285846,0.12900513,-0.01460405,-0.15408087,-0.19217701,-0.10284278,0.028330635,-0.047075503,-0.08314148
PATHWAY_CATEGORY,0.038724832,0.057005227,-0.06828075,-0.104395635,-0.066347584,0.006040712,-0.03915219,-0.03555591,-0.053547755,-0.02175586,0.111770496,-0.028777912,-0.1596217,0.028101072,-0.048511375,-0.05885034,0.014924339,0.033214457,-0.014202976,0.0477292,0.06545877,-0.013971664,0.060207166,-0.05517746,-0.013200611,0.037688904,0.03368863,-0.20872492,0.07840857,0.0016047236,0.045210995,0.08036347,0.062359583,-0.07687122,-0.07504446,-0.159878,0.026830874,-0.042274427,-0.016550729,0.076875776,-0.055621926,0.0037820137,-0.014718522,0.13537161,0.020112442,0.07861671,0.11086327,0.020606732,0.021332828,0.015085428,0.07819387,-0.14740108,0.016681228,-0.037620682,-0.09937735,-0.13166738,0.14808734,-0.063804634,-0.037180588,-0.015251631,-0.044678714,0.06117903,-0.112016484,-0.07444752,0.042002574,0.01627952,0.09430478,-0.051170334,0.016837547,0.047005,0.039241366,-0.0960471,-0.010173276,0.07328345,-0.025257254,-0.051279828,-0.103629895,-0.029249446,-0.083433166,-0.05157744,-0.021421235,0.086040944,0.029016929,-0.01815565,-0.012455069,-0.01626354,0.029516805,0.03482728,0.05430919,-0.15908897,-0.08122778,0.091085516,0.11261221,-0.06996544,0.019642506,-0.06011198,-0.03467722,-0.1309247,-0.10087246,0.030415433,0.02520466,-0.08585869,0.074830204,-0.030730488,-0.09258587,-0.06157213,0.09519617,0.026588272,0.044887137,0.034847226,-0.10538131,0.028702762,-0.07591581,-0.088941276,-0.08756889,-0.02998904,0.032519996,0.029360602,-0.013298807,-0.17022622,0.025164923,-0.099253125,-0.055999834,0.04146312,-0.066065505,0.04403921,0.15327735,-0.10807614,-0.03252176,-0.009680666,-0.10121034,-0.04404111,0.017324898,0.13622771,-0.07612861,0.15878344,-0.081151724,0.016777787,0.012155236,-0.05454588,-0.08417326,-0.08173965,0.08108968,-0.09080226,0.080047,0.0102103595,-0.013805389,0.020782944,-0.057011023,0.0959932,0.008536249,0.13792463,-0.08278269,0.0120237805,0.0952989,0.027180325,0.073284626,-0.049354393,0.061959684,0.14143313,-0.11898165,0.09134898,-0.08734965,0.10572638,0.07916631,-0.015080147,-0.025317151,-0.10832005,-0.061188407,0.019618785,0.026056858,0.09889706,0.10083055,0.097503155,0.12027394,-0.084203556,-0.075478695,-0.07312009,-0.023344135,0.07657517,0.053269498,-0.078444466,-0.09087512,0.15946586,0.07611273,-0.07096973,0.063318565,-0.17355283,-0.1277389,0.023335367,0.04237616,-0.1684209,-0.07654197,-0.11903915,-0.0040577236,0.009997643,0.009218874,0.046506334,0.09876264,-0.080672994,-0.049022656,-0.08711376,-0.06263318,0.04514453,-0.0016915684,0.09056719,-0.07663065,-0.155898,-0.075844646,0.13655849,0.010189467,-0.110086836,-0.03858114,-0.06724057,0.15564804,-0.008114079,0.06521545,-0.039985474,-0.008682606,0.04468413,0.10390575,-0.061730314,0.13303447,0.01900933,0.053330727,0.01892556,-0.016866088,0.025176138,-0.012302107,-0.02819242,-0.010695622,-0.027011568,0.009792817,0.04169945,-0.005672189,0.04008656,0.12450958,0.09258638,0.05085116,0.08693422,0.011258613,0.0635873,-0.026499558,-0.065163724,-0.03653459,-0.08636232,-0.0850979,0.09318848,0.056488317,-0.05285371,0.033337902,0.12058574,-0.055107128,-0.13514799,-0.023932057,-0.038793385,0.07033684,0.021072429,0.012117689,0.07625268,-0.058797825,-0.14737113,-0.057523318,0.11090764,-0.019241186,0.092128925,-0.013395943,0.002354442,-0.014579949,0.031005498,0.02532448,-0.063696854,0.1153969,0.020963443,0.08331679,-0.094655395,-0.06882375,-0.062032185,-0.105816446,-0.06568081,-0.025148552,-0.12812725,0.0668972,0.093462594,0.06909155,-0.04450624,0.16052541,0.07812675,0.02711337,-0.06414992,0.024267746,-0.02518179,0.09538387,0.043894894,0.1632443,-0.14018114,0.16752027,0.00083351403,-0.103000335,-0.015859697
DRUG_ATC_C4,-0.092970446,-0.09839173,0.0005114508,-0.07057523,-0.046834793,-0.056417085,-0.032788593,-0.061281875,0.007965388,0.029700186,0.06561371,-0.0598787,-0.009509544,-0.08126543,0.06691531,0.022985294,-0.011031178,0.01345054,-0.0381919,0.009564208,0.06430409,0.14574035,0.048423275,0.07280054,0.06538844,-0.053246487,-0.0840291,0.02304334,-0.059478503,0.06467804,0.0063168756,-0.12853302,-0.043578118,-0.0033469063,-0.04885339,-0.079842374,-0.038685076,-0.12124759,-0.085975416,-0.14045644,0.0429108,0.00566459,0.034468476,-0.08128939,0.10560086,0.028160641,-0.07850971,-0.043900043,0.084286496,0.06266984,0.012704391,-0.0026373179,-0.105104245,0.03367854,-0.026085112,-0.053317085,-0.018894082,0.104917414,0.037997466,0.03235243,0.076246485,0.030698422,-0.04347608,-0.089759335,-0.06851622,-0.055843834,0.062431008,-0.066754624,-0.11228487,-0.010470438,0.027818907,0.061328974,0.07148183,0.093363486,0.053413592,0.017529402,-0.054075353,0.034471225,0.011451274,-0.026664274,0.082208365,-0.047546804,0.053828187,0.0012796704,-0.10646213,0.0396205,-0.11765624,0.041632082,0.0655985,0.052773282,0.041573126,-0.06554676,-0.045022313,-0.013857171,0.08812374,-0.0717355,0.09557168,-0.11425117,0.05767452,-0.04101604,0.05917067,-0.029221844,0.0689636,0.04641156,-0.07587364,-0.018159773,0.08123927,-0.044175897,0.010601166,0.03622578,-0.08072099,-0.034048777,0.11260757,0.050244052,0.019933533,0.054489836,-0.018643668,0.09148409,-0.042588085,-0.100721695,-0.008091681,0.142465,-0.06882611,-0.10992675,0.0682049,-0.025303904,0.07092408,-0.043895368,-0.012697198,0.036517456,-0.027575385,-0.023792304,-0.13013867,-0.04463564,-0.022026055,0.049636252,0.064494304,0.002193532,0.017882127,-0.008763477,0.031966142,0.09509895,-0.025193479,-0.080982134,-0.010265704,0.0810597,-0.027712999,0.03238599,-0.108339824,-0.12271008,0.05360813,-0.03465267,-0.023025181,-0.010280052,0.0047085206,0.063641526,0.0053943754,-0.0075101573,-0.027843338,-0.029410563,-0.03498018,-0.024486983,0.021210644,-0.08731844,0.051549163,-0.06509473,-0.14241922,-0.073642835,0.00871948,-0.116736226,-0.030462643,-0.08141485,-0.05607972,-0.044960883,-0.0013028362,0.04081818,-0.011568603,0.07326,-0.052950293,0.040901083,-0.02378191,0.11647496,-0.0962103,-0.0409164,-0.03494656,-0.081551194,-0.039672114,-0.049572453,-0.12268688,0.06418767,-0.051888593,-0.033909094,0.07437872,-0.045399826,0.0074077887,-0.014022755,0.08746787,0.04516058,0.025749069,0.11156993,0.03956009,-0.037558075,-0.0039470405,0.09148362,0.03971164,0.092317484,-0.001210407,-0.043164596,0.066160604,0.11951218,0.023247179,0.11892672,-0.06885466,-0.013816499,0.10481644,0.12198129,-0.0756565,-0.064743094,0.09968483,-0.07007772,0.108083114,0.014026112,-0.009075921,-0.07249019,-0.016270382,-0.0030107335,-0.079633415,-0.045209505,-0.019438587,-0.14039226,-0.091549866,0.005524033,0.074397966,0.024483271,-0.11001769,-0.027765103,-0.12982576,-0.050187662,-0.10576965,0.10317798,0.032689597,0.119021356,-0.083623655,-0.028823044,0.08533805,0.016230136,0.03808709,0.13557668,-0.013471786,-0.026816584,-0.092578135,-0.1501549,-0.06205881,0.05541592,0.08616303,0.056123246,0.12465826,-0.0774527,-0.048692923,0.004568934,-0.12298146,0.09880163,0.08415193,0.05968778,0.04298129,-0.038533885,0.046566434,-0.10727219,0.09314572,-0.112476625,-0.10350759,-0.077341534,-0.08060116,0.08722874,0.03657939,-0.08251359,0.033162463,-0.05898398,-0.015037042,0.015335337,0.02640976,0.15037353,-0.011751083,-0.07372679,0.08616773,0.09595922,-0.026948519,-0.047009952,-0.08795307,0.0070169657,0.0021679674,-0.047609165,-0.065401554,0.14906016,-0.07766217,-0.06679996,-0.14503454,0.09808024,0.0041461997,-0.07963851
DRUG_TRANSPORTER,-0.078253224,-0.0155080035,-0.11649462,0.03812409,0.17030787,0.043899104,0.017844986,0.019257791,-0.06827686,-0.14115846,0.06615175,0.091151215,-0.15001129,0.11109946,-0.10279314,0.06012264,-0.16149276,-0.10896894,0.06394093,-0.033910763,0.035447944,0.06853624,-0.09298042,0.115363024,-0.107951805,-0.094797485,0.0025478462,0.113808125,0.03141656,-0.15130974,0.03310247,-0.02236091,0.050259594,0.023146864,0.029921,0.0008155323,-0.08347765,-0.046797305,-0.06581627,-0.0054937424,-0.05522615,-0.052757155,0.064054996,0.06685626,0.016569933,0.024088163,-0.10496129,-0.12362713,-0.109864675,0.050378114,-0.08088952,0.1702241,-0.14798515,-0.12588793,-0.03624132,-0.09413046,-0.030887185,-0.08721413,0.115796775,-0.019529833,-0.06697896,-0.038571585,0.020446649,0.038224027,0.008114547,-0.05982635,0.058799382,-0.07831856,0.056182522,0.121312834,0.14785029,-0.17615718,0.098904185,0.08781986,-0.044289306,0.013096544,0.042070746,0.17867263,-0.013540174,-0.047702283,-0.053254265,0.023282155,-0.092347145,-0.040418245,-0.047152042,0.049958374,-0.074774995,0.16257891,0.1295381,-0.096873045,-0.07344799,-0.05654333,-0.065699905,-0.10664516,-0.09281929,0.11295872,-0.014528774,-0.102968544,0.1283387,-0.008617046,-0.058071062,0.10287445,-0.12308633,0.08179592,-0.043917734,0.11185908,0.15539376,-0.16741057,-0.05770606,0.121352844,-0.16597207,-0.115926206,0.09507453,0.08476339,0.09740802,-0.13177496,0.060361244,0.13320541,-0.024096686,0.12638864,-0.10318782,0.15364324,0.0015299141,-0.13433118,0.0017813635,-0.15378067,0.07807007,0.10925935,-0.07533629,0.13428633,0.11464545,-0.1441553,-0.11568371,-0.11704563,0.14507815,-0.07634729,-0.09452171,0.08799773,0.1135778,-0.13967909,0.13871229,0.14335607,-0.18273707,-0.09243214,0.0032614202,-0.06450763,0.1537544,-0.066016704,0.04234839,-0.14190355,0.07530241,-0.028338725,-0.14051363,0.1268884,0.02858094,-0.044893224,-0.032808978,0.09698885,0.08501701,-0.07543097,0.053127725,-0.15429986,-0.033212397,0.052768286,-0.14312783,0.082537994,0.21830428,-0.13682343,-0.14397524,0.0122021595,0.022047723,-0.14161758,0.044566292,0.16903013,-0.03957656,0.103061035,0.012062852,-0.0903083,0.11784336,-0.08603198,0.079240985,0.1843126,-0.10662019,-0.10509659,-0.04299263,-0.11639807,-0.064425334,0.04967219,-0.0011297896,-0.032467112,-0.14104292,-0.10528012,-0.073481046,0.099854805,-0.082084686,-0.020711556,-0.0422796,0.14783476,0.059741028,0.08092692,-0.007833158,-0.14280112,-0.14067847,0.056200724,-0.054245092,0.009375327,-0.22873195,0.05951171,0.054268114,0.14223406,-0.119215935,0.020991754,0.033547956,0.06416649,0.00827897,0.021098727,-0.004873033,0.01971112,0.12215883,0.06359628,0.0032387613,0.06993559,-0.034260195,-0.08667281,0.081393816,-0.05589888,-0.033681866,-0.03006922,-0.09257317,-0.024431061,-0.16487612,-0.119038,-0.04338528,0.22445813,-0.08524471,0.09764119,-0.18211007,-0.10820985,-0.060380906,0.24684565,0.0062776147,0.024401292,-0.009459053,-0.06953958,0.10609006,0.08570123,-0.070310175,0.11191329,0.16097899,0.06592119,0.0028760377,0.12714007,-0.095611654,0.0669962,0.020704422,-0.0072927503,-0.020186888,-0.104241066,-0.13534833,-0.025666015,-0.19815503,-0.0525433,-0.04221673,-0.038375977,-0.19454229,-0.06404586,0.02384528,0.0125990175,0.09177928,0.008676454,0.016875643,-0.0809194,-0.06344928,0.0711306,0.025453342,-0.06518447,-0.013290103,0.029409735,-0.05653017,0.03019967,-0.14035322,0.061520334,-0.07875268,-0.059311613,0.097150326,0.09181167,0.021980297,0.10656882,-0.10293365,-0.03304399,0.12466675,0.07887374,0.12693949,0.017384985,-0.06585321,-0.098525144,-0.02407385,0.180344,-0.08106186,-0.015388848
DRUG_ENZYME,-0.041886337,0.050727483,0.030919073,-0.12928371,0.121006906,-0.048187207,-0.048513375,-0.14879279,-0.1693765,0.07975122,-0.047605596,0.09152932,0.058650438,0.09184037,-0.10066809,-0.052480232,0.10328464,0.20762941,-0.04678921,0.074506335,0.108088255,0.019442879,-0.1149967,0.014232657,-0.09099564,0.0072697867,-0.07752961,-0.08216475,-0.10648963,-0.09073675,-0.057309445,-0.040521834,-0.029764585,0.018215993,0.03138318,0.04855189,0.09551998,-0.06368251,-0.064036585,0.058549475,-0.06594882,0.09206138,0.09086238,-0.1616803,-0.061304294,0.08030206,-0.08187036,-0.09580635,-0.018987972,0.1192714,-0.050680127,0.057622444,-0.14182809,-0.009631442,0.07923707,0.0431012,0.083675615,-0.063625135,-0.0060254186,-0.0076460834,0.06946881,0.07188681,0.03874163,0.064588495,0.07765679,0.0061667077,0.14120577,-0.045817282,-0.103109986,0.05663765,-0.0550892,-0.1995541,0.020015102,-0.040508945,0.042118374,-0.08666235,0.033009022,0.124021396,-0.07059665,-0.024908537,-0.08344448,-0.039734047,-0.13863805,-0.15031168,-0.007731074,0.042125445,-0.25284737,0.10425283,-0.01990012,-0.039211016,0.011080226,-0.09569072,0.113823876,-0.07840444,-0.057949144,-0.025395906,-0.00101221,-0.16500449,0.023907185,-0.08000527,0.10726826,0.05899271,0.006087751,0.012361354,0.002139109,0.11674705,0.10105229,0.05008992,-0.057297956,0.04329259,0.02117952,0.040677007,0.022762397,0.058286667,0.005565852,0.0844,-0.08352474,0.01808577,-0.11116113,0.04995729,-0.095862,0.032587502,-0.1209754,-0.12718093,0.01576005,-0.16815588,-0.089740716,0.043399513,0.045419637,0.11519093,0.02509355,-0.09855631,-0.06939825,0.09493575,0.06480392,-0.05706812,0.07810119,0.085335486,0.093246736,-0.08356902,0.0849485,0.1330628,-0.033446014,-0.104488716,-0.10444021,0.043406975,-0.06824673,0.039604552,-0.05393033,-0.12288807,-0.05983192,0.015129642,-0.00031135225,-0.10428231,-0.041349825,-0.06369583,-0.00841938,0.003866221,0.10632157,0.01648301,-0.07968265,0.062286947,0.15022025,0.057489622,0.102978006,-0.008611242,0.13603282,0.10248779,-0.005846504,0.058428578,0.101515956,0.024347473,-0.049204495,0.16873202,-0.087574415,-0.11401941,-0.20380399,-0.06646365,0.026866795,-0.0113195395,0.0689069,0.11607182,0.054309186,-0.0072413157,0.0020646935,-0.049601756,0.07305673,-0.060807735,-0.037627567,0.087424815,0.024666753,-0.14576434,0.0056746276,0.0714903,-0.09582345,0.0006669071,-0.0063131866,-0.05767974,-0.06420108,0.20507103,-0.0061439597,-0.057177767,-0.10204978,0.059066623,-0.1459763,0.13349833,-0.22779846,-0.013531167,-0.12446514,-0.03792332,-0.092604645,0.09018009,-0.12276794,-0.009577296,0.033347875,0.035361342,0.07026996,0.14632756,-0.16286688,0.10030121,0.11676664,-0.12785737,-0.11887114,-0.2243691,-0.11139435,-0.074803665,-0.0082376655,0.12819052,-0.18956228,0.058470096,0.048631556,-0.0009915654,0.09168662,0.20490265,-0.124136165,-0.02805622,-0.15143552,0.005903902,-0.11579823,0.13303629,-0.031086342,0.07287856,-0.059772167,-0.048303794,-0.020887773,-0.10661313,0.029797392,0.074035615,-0.04989794,0.09529282,-0.015899496,-0.19177562,0.08850102,0.1322796,-0.04273967,0.05628093,-0.004416284,0.10949601,-0.10372453,-0.08187858,-0.08215642,-0.13355197,0.047390312,-0.04322191,-0.1803221,0.06403911,-0.12969978,0.08230109,0.11432788,-0.17161375,-0.027018653,-0.13878468,0.13388823,0.04777551,-0.1016157,0.021170063,0.08331294,-0.1495935,0.05156234,0.040077623,-0.08731717,0.16424645,0.037448548,-0.074403316,0.17994592,-0.14073133,-0.02889186,-0.023506204,0.053144787,0.030235505,0.109313905,0.09588686,-0.0540022,-0.037666094,0.050200183,0.05155472,0.011371586,0.06525836,-0.054376204,-0.009761202
DRUG_ATC_C1,-0.14706968,0.053758547,-0.019298026,-0.056306466,-0.037329614,-0.0017621389,-0.041431464,0.01367646,-0.07099811,-0.077159904,0.10310037,0.014094646,0.0072600855,0.061418485,0.08092137,0.065165274,-0.09294284,0.06439034,0.0031117206,-0.084687255,0.112761825,0.18041357,-0.056934603,0.012807154,0.10049213,0.08388714,-0.05625256,-0.033688728,0.028506044,0.065986246,0.15635315,-0.14580198,0.017277058,-0.09470599,0.0056866794,-0.13420486,0.045568462,-0.045445357,0.0058496394,-0.054806747,-0.019475501,0.057841204,0.0046914453,0.020790355,-0.0012676589,-0.07072628,-0.014054905,-0.0048635895,0.08937114,0.022161871,0.055088867,-0.088627145,0.0111069605,-0.07832477,0.00094264734,0.106448345,-0.033972614,0.13260382,0.08139063,0.06902253,-0.009127503,0.08002691,-0.02049753,-0.06543376,0.041171324,-0.06120212,0.015510255,-0.108165614,0.084241435,0.04922727,0.090896875,-0.005659008,0.11549274,-0.06143278,0.08534391,-0.003208912,-0.016252516,0.0020846021,-0.04481973,0.044499107,0.03635672,-0.10933241,0.09456185,0.01719733,-0.13715822,0.09161018,-0.11280273,-0.029015608,0.02788382,0.08315481,-0.008388689,-0.06997329,0.08456458,0.0581111,-0.08605178,0.092882946,-0.007562325,-0.1353944,0.029188875,-0.04928485,0.03311971,-0.09882066,0.04381017,-0.07832718,-0.17032263,0.031196268,-0.023669522,0.031132482,-0.03985607,0.022697022,0.0057719117,-0.08893161,0.087328486,0.10716681,0.110986136,-0.046229158,-0.08736142,0.05724118,0.069060415,0.032680165,-0.011332155,0.06804676,0.028575936,-0.072101906,-0.052681524,-0.12455066,0.059362564,0.0077741393,-0.013803895,0.024342561,0.085195936,0.07072388,0.065854445,0.07780683,0.04638051,0.061130844,0.06893934,0.056484696,-0.041814998,0.07169369,0.00046970183,0.10523637,0.036844417,-0.110175356,-0.053677697,-0.03385994,0.037838105,-0.042130858,0.08496474,-0.111147575,-0.05473585,0.04120712,-0.052004363,-0.0051779957,0.039086096,0.083165884,-0.10024124,0.08212829,-0.01305729,-0.04448689,-0.04572272,-0.01959099,-0.017013665,-0.13052511,-0.034496326,-0.06490875,0.014846343,0.071921766,-0.018523997,-0.033322155,0.074377365,0.0053708795,-0.033787146,0.009963331,-0.046146,-0.022868525,-0.027390707,0.01565405,-0.02913485,-0.07277135,0.025329567,-0.030888084,-0.02922997,-0.115657575,-0.11600194,0.040160388,0.002613305,-0.11339788,0.047078937,0.02908081,0.06168367,0.062666066,0.013242265,-0.07300976,0.030971833,0.015928814,0.051593184,0.11567008,-0.037233863,0.12879826,-0.05558334,0.021420198,0.08283043,0.03171845,-0.0112213455,0.10957403,0.043099448,0.0104057025,-0.014038544,0.16691267,-0.020627182,0.04121999,-0.086970165,-0.050275,0.17450108,0.077301264,0.046264693,0.022151193,0.06622712,0.043136045,-0.021047082,0.08353358,0.038014166,-0.09199702,0.053427175,-0.08909147,-0.03463729,0.08571925,-0.040292095,-0.10475453,0.05964954,0.060924515,0.006621111,0.18211135,-0.16555086,-0.104415715,-0.14202502,-0.06650657,-0.03446566,0.074156165,-0.059542652,0.05139637,-0.10460749,-0.0054175006,-0.06695323,-0.01661246,0.09238234,0.027863923,0.03398632,0.04311066,-0.08450654,-0.16779153,0.07396583,-0.037573878,0.15639909,0.010392563,0.104459316,-0.15054315,-0.0045520053,-0.12472281,-0.19337507,-0.05233,0.13542143,0.04589843,-0.0073481435,-0.037142944,-0.014779084,-0.006403517,0.037657313,-0.02290145,-0.008584268,-0.082586415,-0.020037668,-0.042672504,0.065583006,-0.12060516,0.038311478,0.06443538,-0.028778877,0.066585824,0.07324743,-0.012833575,-0.088057354,-0.153696,0.04066383,-0.070400484,0.027411545,-0.07053825,-0.006904611,-0.13550712,-0.026818132,0.051911075,-0.09040054,0.10141448,0.045119114,-0.058824126,-0.13831913,0.06848851,-0.05170695,-0.08125959
DRUG_CARRIER,-0.12875278,-0.11816302,-0.10169484,-0.13215801,-0.11305591,0.06259771,-0.09136819,0.16151519,-0.12368051,-0.08576736,-0.009236183,0.1383537,-0.009980596,0.15305363,0.11148097,0.0701534,-0.037935663,-0.1738078,-0.03364829,0.1447218,0.08369196,0.006164242,-0.08625968,0.050354835,0.07791745,-0.10831971,-0.09802162,0.14023928,0.093346715,0.05029546,0.04210254,-0.08149165,0.03274706,0.099715166,0.06389107,-0.062633105,0.14436537,-0.107923955,-0.00076770474,-0.03787149,-0.02984903,0.026496831,-0.0015560117,0.037689693,-0.12804537,0.18589985,0.11118346,0.035855353,0.0720846,-0.11465555,-0.07278041,0.0552533,0.087356776,0.06910769,0.09991569,-0.009783367,0.05331814,-0.06327615,-0.095690995,-0.058691453,0.048819683,0.14781158,0.09178776,-0.18643612,0.015917845,0.053718086,0.09747636,0.06085597,-0.17043613,0.00014239787,-0.060915265,0.017869731,0.046394933,0.085072,-0.104834415,-0.08530085,-0.124829836,0.0766675,-0.0908072,-0.09629606,0.013175011,0.13138053,-0.09128347,-0.12475118,-0.01535456,-0.024432827,0.08672023,0.08899334,0.1822213,-0.02593741,-0.03079833,-0.0074454867,0.08933492,0.09049542,-0.05488916,0.073961854,-0.04106371,-0.03498925,-0.03626686,-0.031252824,-0.058560703,-0.13945246,-0.1836459,-0.0027484964,0.09257641,0.1398818,0.0572341,0.1339062,-0.0790767,-0.053843025,0.0069922013,0.094810255,-0.02445322,0.06147203,0.047400624,0.034647066,0.0024064723,0.13254806,-0.0168538,0.10312299,-0.107894324,0.16040322,0.060079247,0.059207756,-0.114095986,-0.023438815,0.002577563,-0.033602476,0.014165413,0.11672153,-0.0677918,-0.045468625,-0.072613776,-0.019518005,0.07958326,0.04575322,-0.014453267,0.03095501,-0.14551961,-0.093249515,0.10162707,0.12618071,-0.07296437,-0.016520247,-0.04294626,0.04380554,-0.10896876,-0.06270684,0.057929985,-0.028308906,0.13708456,0.12682392,-0.16867936,0.09934854,-0.13088074,-0.011711651,-0.043161187,0.015230511,-0.10640683,-0.13084282,-0.10044955,-0.09628208,0.124550425,0.08389166,-0.06931546,-0.0647051,0.054112766,-0.083653405,0.06455155,-0.20182544,0.081058845,0.10940075,0.08383328,0.09757602,-0.12500887,0.07819447,0.014454953,0.10219325,0.01665385,-0.09194105,-0.058573548,0.057064172,0.12492696,0.091680214,0.0707566,-0.13206388,0.029160472,-0.12784535,-0.028687974,0.14009789,-0.12418839,-0.096152075,-0.11496584,-0.12223462,0.008603747,0.0051342915,0.021535037,0.00041520927,-0.17076187,0.097231455,0.0074746553,0.09443423,-0.14204174,-0.102216564,0.043072548,0.106231585,-0.04445754,-0.12177249,-0.15144432,0.23578784,-0.14774838,0.15431024,0.037772685,-0.08582325,0.122741245,0.09852448,0.084261626,-0.06022781,0.057700407,0.14028957,0.06582845,0.118770175,0.008574201,-0.008213371,-0.03565291,0.033031054,-0.10174199,-0.013522636,-0.07359517,-0.041577347,0.028729878,-0.18628833,-0.09383745,0.13571873,-0.044598334,0.04169486,-0.047297962,0.0814729,-0.011646686,0.13438489,-0.010285365,0.087188244,-0.106567554,-0.065774225,0.15306577,0.1298461,0.1972586,-0.11784282,-0.09523579,0.14739321,0.066980004,-0.025203422,-0.04413919,0.012646562,0.1217337,0.019342685,0.106365904,-0.00590812,0.0130624,-0.18366002,-0.161493,0.031195987,-0.05037682,-0.026992105,-0.108967066,-0.074980155,0.024421448,0.0045660706,0.057331756,0.02085398,0.08785283,0.0067401375,-0.023248112,-0.002325211,0.017175723,0.089763016,0.08053369,-0.04113984,0.07962105,0.028492615,0.027243253,0.03023338,0.027665805,-0.08044646,-0.039142534,0.13856024,-0.1445714,0.14730243,-0.014710976,-0.0962878,-0.06979851,-0.062384423,0.2003623,-0.08430684,0.016323088,-0.052479252,0.0946384,0.1676461,-0.10074853,-0.13336211
