,0,1,2,3,4,5,6,7,8,9,10,11,12,13,14,15,16,17,18,19,20,21,22,23,24,25,26,27,28,29,30,31,32,33,34,35,36,37,38,39,40,41,42,43,44,45,46,47,48,49,50,51,52,53,54,55,56,57,58,59,60,61,62,63,64,65,66,67,68,69,70,71,72,73,74,75,76,77,78,79,80,81,82,83,84,85,86,87,88,89,90,91,92,93,94,95,96,97,98,99,100,101,102,103,104,105,106,107,108,109,110,111,112,113,114,115,116,117,118,119,120,121,122,123,124,125,126,127,128,129,130,131,132,133,134,135,136,137,138,139,140,141,142,143,144,145,146,147,148,149,150,151,152,153,154,155,156,157,158,159,160,161,162,163,164,165,166,167,168,169,170,171,172,173,174,175,176,177,178,179,180,181,182,183,184,185,186,187,188,189,190,191,192,193,194,195,196,197,198,199,200,201,202,203,204,205,206,207,208,209,210,211,212,213,214,215,216,217,218,219,220,221,222,223,224,225,226,227,228,229,230,231,232,233,234,235,236,237,238,239,240,241,242,243,244,245,246,247,248,249,250,251,252,253,254,255,256,257,258,259,260,261,262,263,264,265,266,267,268,269,270,271,272,273,274,275,276,277,278,279,280,281,282,283,284,285,286,287,288,289,290,291,292,293,294,295,296,297,298,299
DRUG_CATEGORY,-0.011884632,-0.07782075,-0.04321782,-0.051680088,0.036211055,0.05277795,0.011891432,0.066612184,0.028958485,0.05133211,-0.0078063025,0.041828256,-0.06404266,0.0075657386,-0.046579573,-0.042090468,-0.030068327,0.07267739,-0.037786685,-0.038393658,0.042091057,0.08279205,-0.056042947,0.02513409,-0.06248739,-0.059801593,-0.03919726,0.035930373,-0.029565167,0.021164708,-0.051612984,-0.05884853,0.039273497,0.0714364,0.0067027058,-0.07172669,-0.031112118,-0.072535135,-0.06981438,-0.051743038,-0.016317219,0.037237164,0.024753312,-0.033376113,0.08714829,-0.047452573,-0.050587382,-0.06394779,0.076276645,0.050681915,-0.028357647,0.03254326,-0.08651788,-0.08530968,0.04779482,0.031816125,0.025608541,0.026640838,-0.042251766,0.015192763,-0.05433929,0.08749433,0.029797742,-0.055298496,0.07678219,0.017241776,0.057054125,-0.011593924,0.03272039,0.08132206,0.050842356,-0.038052566,0.048498187,0.031947166,0.055703133,-0.026332041,0.020905033,-0.024668518,-0.018600792,-0.058940616,0.08937417,-0.06935463,0.05303642,0.055280656,0.008822278,-0.046485808,-0.08047849,0.029061299,0.02191252,0.084175944,-0.009931879,-0.043204427,0.07736424,0.00347922,0.024826376,-0.049473133,0.008136513,-0.053619325,0.05991017,-0.016571619,-0.054730274,-0.030746162,-0.06172237,0.07627468,0.024933867,0.03500542,0.059609506,-0.041432302,0.030053847,-0.06482549,-0.06360775,0.029099777,0.093726605,0.0694999,-0.004598717,-0.048204023,-0.06886411,0.057348758,0.05456258,-0.012454684,0.030395444,0.083774254,-0.051048793,0.022013959,-0.0713695,-0.025120454,0.02119089,-0.026916692,0.052390713,0.056256507,0.06635603,0.04420256,0.063108854,0.056680333,0.06354211,0.052285414,-0.046446905,0.004349817,0.0064521963,0.02585989,0.020473849,0.09172102,0.0799075,-0.0641697,-0.041777663,0.043601315,0.056879442,-0.019789387,0.0152962655,-0.066351816,-0.05534352,0.07902046,-0.032477275,0.040569108,-0.060667988,0.02573474,-0.019796114,-0.025954554,-0.0028994833,-0.05858599,0.031904183,-0.05408903,0.05030471,-0.07583238,0.061530452,-0.036541183,0.043005355,0.029053025,-0.07189991,-0.047576852,0.078996584,-0.09232428,0.07187377,0.011650296,-0.038148206,-0.017366437,-0.0597774,0.054070108,-0.012305259,-0.03614417,-0.015971946,0.059011374,0.02344054,0.055802226,-0.04984281,-0.029152272,0.019173604,-0.042455547,-0.039592322,-0.03299731,0.0009683574,-0.023942243,0.024585182,-0.041144837,0.058710538,-0.041570593,0.04392777,0.04706855,0.04259537,0.07046787,-0.07343294,0.030131457,0.068122536,-0.061924018,-0.08280554,0.036988255,-0.060504068,-0.017319396,0.024417553,0.031656686,0.0065856813,0.01423797,-0.0076350123,0.07773733,0.06617155,0.096952006,0.08740392,0.060538694,0.053512905,-0.068555556,0.070682846,-0.085240275,-0.047645498,-0.055535927,0.0784001,-0.056909632,0.051500604,0.0657932,-0.07016285,-0.0384161,-0.08482806,0.0029305196,0.032304313,0.06595516,-0.019509831,0.0009851842,-0.05179077,-0.04566278,0.021798447,-0.01938311,-0.05302204,0.077201314,-0.0268412,-0.076392286,0.017541755,-0.041621886,0.055361208,0.03522041,0.09507762,-0.030305369,-0.059267305,-0.052597478,0.058357924,0.034179393,0.039616343,0.06812292,-0.011648511,0.09102959,0.05178628,0.015566569,-0.07867918,0.056051955,0.014209915,0.003039434,-0.07927786,0.08153362,-0.04438457,0.086425945,-0.017447878,-0.06043331,-0.05941853,-0.025639879,-0.0014903245,0.025604237,-0.014035921,0.044809073,0.048534025,-0.029966393,0.064782225,-0.045949973,-0.05015975,0.04365934,-0.0053437026,-0.07127367,0.026859568,0.028135516,-0.092880145,0.022033418,0.04720806,-0.07139603,0.08106531,-0.02868356,0.007207626,0.058289617,-0.028179292,-0.07642843,-0.07206951,0.07157581,-0.07239838,0.06993088
PATHWAY_ENZYME,0.023388583,0.07189452,-0.057936557,-0.060399115,-0.06977663,0.07643326,-0.06478722,-0.07115674,-0.027069684,0.06750523,0.062675945,-0.023143055,-0.086979374,0.045914266,0.03287101,-0.07947116,0.055549134,0.056058582,0.040395338,-0.016082106,-0.03472651,-0.024976663,-0.04323711,-0.076421775,0.032753356,-0.02556705,-0.0729713,-0.06381382,0.062039565,0.043447807,-0.067498036,0.059289623,-0.04532997,-0.058830835,0.033422824,-0.091691166,0.07271271,-0.030630512,0.007027406,0.027609915,-0.06921634,-0.057063323,-0.02500267,-0.029360285,-0.051913437,-0.023934275,-0.04369077,0.018119624,-0.049808625,-0.06370311,0.078101225,-0.0625274,0.0652411,-0.04103596,0.006400189,-0.021703295,-0.049298953,-0.07872718,-0.04355714,-0.020399293,-0.062313423,0.06699285,-0.04966334,-0.06535421,-0.0179194,-0.041449178,0.0715337,0.0489743,-0.05287582,-0.072788745,-0.03188533,-0.056056324,-0.078225434,-0.04256313,-0.046974834,-0.030618725,-0.08345363,0.0326176,-0.047254015,0.0034427869,-0.045723964,0.0654453,0.025564356,-0.095315784,-0.04955336,-0.057579186,-0.03656324,-0.06665792,0.043966603,-0.050703675,-0.038345434,0.06648136,0.053830605,-0.024333348,0.043441188,0.051369563,0.07230331,-0.06992372,-0.052506287,-0.046192877,0.020582238,0.060523584,-0.020813521,-0.046335977,-0.052471273,0.09295928,0.038110692,-0.057039663,0.027782701,0.012704319,0.07060591,-0.066641696,0.051641062,0.057514306,-0.10060147,-0.019407932,0.06619847,0.071158,-0.0485792,-0.08430163,-0.0759664,-0.07846619,-0.068610154,0.05461122,-0.01573415,-0.04664924,0.08231709,-0.08328068,-0.037512258,0.050490364,-0.05348758,-0.036560725,-0.045967378,0.041166134,-0.04064021,0.07786656,-0.021234475,0.014124024,0.07420817,0.04086756,0.0152955465,0.05154177,0.008485843,0.015008634,0.06572775,-0.055396277,-0.08024485,-0.03487979,-0.061728727,0.06716305,0.057678834,0.08023936,-0.051071003,0.061845113,0.057050876,-0.058174554,-0.027024899,-0.025012875,0.0545187,0.03297762,-0.08092334,-0.04535124,0.031207921,-0.03171326,-0.039677758,0.07641339,0.057346277,-0.047867842,0.066394694,-0.05063203,-0.042612962,0.061549872,0.013360446,0.038166627,0.033655465,0.049425066,-0.04923269,-0.058197293,-0.050618265,0.08143583,0.053545903,0.011487363,-0.04983069,0.0628498,0.057863016,-0.052439503,-0.060849663,-0.040811945,-0.064307876,0.06516967,0.0077829952,-0.05175019,-0.068509236,-0.034773517,0.011313096,0.050757885,-0.050892178,0.034559205,-0.03769495,-0.038363393,0.05582341,-0.091438495,-0.034163352,-0.016651379,-0.067026116,0.072392255,-0.07800759,-0.07528594,-0.06231115,0.06752366,0.07029672,-0.047722034,-0.038694218,-0.032350726,0.045837156,0.040364884,-0.018155664,-0.008430632,-0.034977123,0.024298703,-0.02672451,-0.05842701,0.07381272,-0.07906709,-0.07254458,0.052354764,0.019597834,-0.05107,-0.06306033,0.060870353,0.029063923,-0.059133437,-0.06504916,-0.03767887,-0.05320544,0.076829806,0.028582579,0.06528783,0.053352304,0.07963731,0.042326644,0.06869334,-0.04056239,-0.054773066,-0.07905477,-0.09739119,-0.052815087,0.0685115,0.03129786,0.07502319,0.021888325,0.08108763,0.07004397,-0.07521151,-0.040036157,0.040663026,0.030831823,0.03594732,-0.05419366,0.09040494,-0.028318264,-0.047491655,-0.06093136,0.07488444,-0.023787392,0.019308541,-0.06899617,-0.027193774,-0.011124957,-0.058894396,0.04055613,-0.07341397,0.06316523,0.017483374,0.036433153,-0.0707671,-0.060216185,-0.060924746,-0.052977417,-0.058873836,-0.0625208,-0.0406395,0.063851364,0.03526732,-0.052190684,0.07217621,0.05439293,0.0122429235,-0.044495642,0.04113088,-0.0308252,0.050830085,0.041229375,0.04551966,0.06096784,-0.055846296,0.061979204,-0.049252298,-0.069514155,0.04592622
DRUG_TARGET,-0.052675057,0.002702692,-0.07597357,0.04088133,-0.03483289,-0.006845791,-0.04810589,0.038578734,-0.079360716,-0.07470486,0.031437647,0.067784466,-0.0003358183,0.05228795,-0.078396104,0.021303413,-0.014212101,-0.020961465,0.038984526,-0.052154988,0.04741007,0.02184941,-0.06857289,0.04010297,-0.059292167,0.031462133,-0.02011107,0.019890351,-0.067415036,0.0023409312,0.059796363,0.0017840916,-0.0068450025,0.0579444,0.006784784,0.04503294,0.056115553,-0.004682167,-0.06173354,0.03217391,0.03591567,0.067435436,-0.031148106,-0.037384734,0.01670183,0.03045888,0.0009820517,-0.060621694,-0.032436375,-0.018182896,-0.013345319,0.010310193,-0.05524321,-0.07793065,-0.055502217,-0.036735754,-0.05202077,-0.023722831,0.031295724,0.0653028,-0.066551164,0.014671794,0.018770168,0.015909549,0.06502519,0.022860106,-0.015308603,0.038136322,-0.014701673,-0.052104995,-0.06682037,-0.042342965,-0.04828274,0.04027629,0.044689205,-0.0319128,-0.07936852,0.018915493,0.0295634,0.010328488,0.07871638,0.039401688,-0.020939277,-0.036814302,0.029486503,0.04972928,-0.08984892,0.013985465,-0.031748213,0.051147357,-0.008430463,0.022107705,-0.030591736,0.01028207,-0.051467426,0.031385418,0.007098107,-0.049297754,0.036461093,-0.02341369,0.09311398,0.014509047,-0.030402385,0.036639616,0.0033623434,0.02144896,-0.038813103,-0.01505169,-0.015465917,-0.0062191878,-0.0077036843,0.038800277,0.05828014,0.04018223,-0.026042173,-0.053117096,-0.032527648,0.09067626,0.048089717,-0.05816309,0.009689795,-0.04002334,0.024269944,0.07034771,-0.0018576884,-0.08744607,0.053405542,0.036265653,-0.03851161,0.060191218,-0.04191005,-0.010144655,-0.018459275,-0.014488792,0.058010787,-0.01676153,-0.056269262,0.06513784,0.0605391,-0.044005148,0.028675804,0.083698206,-0.034401104,0.010536023,0.009569748,0.06623676,0.03835656,-0.060081683,0.050654672,0.034053676,0.05822292,0.008033325,-0.06381228,0.05555274,0.043421973,-0.050454818,-0.07521213,-0.06356803,0.048160557,0.029937832,0.031524185,-0.073734015,0.10364473,0.008492008,0.051680148,-0.067181565,-0.015284301,0.057730086,0.037308488,-0.047913827,-0.035798017,-0.06744007,-0.02651013,0.02521268,-0.08240055,0.050341345,-0.08813372,-0.028561082,0.07309081,0.015913378,0.0558718,0.039327238,0.06337463,-0.0154308565,-0.031261757,-0.083671585,0.0050789826,-0.05263658,0.020945817,-0.013303334,-0.03276044,-0.05997685,-0.045581717,-0.049404155,-0.037884086,-0.061907563,-0.021634378,-0.01080447,-0.04194395,-0.00033723106,-0.019867413,0.026234366,-0.033077225,-0.044789754,-0.07573161,0.106333375,-0.053242885,-0.05222404,-0.08465605,0.05703359,0.023635898,0.04399135,-0.0783122,-0.03600055,0.07837785,0.045635227,-0.06028474,0.043975078,-0.04800163,0.012464578,0.068070605,0.011873018,0.049318578,-0.06158373,-0.06510385,0.03692311,-0.012300602,0.00063381554,-0.06898768,0.07367182,-0.061102968,-0.053450838,0.014742394,0.06973147,-0.059794165,-0.013682428,-0.11454862,0.034953345,-0.0055553834,0.09616995,0.044317834,0.05010101,0.06177728,-0.052890677,0.0051357592,-0.072172366,0.06420026,0.072829954,0.018256387,0.063946486,-0.03312222,-0.025269026,0.007579438,0.05276977,0.03471644,0.013016252,-0.0022465535,0.044895057,0.026437627,-0.06643003,-0.08075437,-0.03363261,-0.0061566937,0.048010435,-0.029381286,0.017307905,0.0151577955,0.0008524378,0.081517585,-0.08360686,0.06406068,-0.046496395,-0.038417455,-0.008781449,-0.041793283,-0.05851737,0.05123982,0.0015148004,0.07181478,-0.034198415,-0.024427058,0.09401881,-0.0076049105,0.011120027,0.06367494,0.059080563,-0.053537842,-0.041698806,-0.037533987,-0.023455901,-0.008091663,0.03106074,0.022267211,0.08350366,0.04992055,-0.10081676,0.027526423,0.053527396,-0.06308406,-0.020289578
DRUG_ATC_C5,-0.09696085,-0.029612554,-0.0020207555,0.043992292,0.06006857,0.035443205,0.04327683,0.03223074,-0.056180026,-0.0038079105,0.02764891,0.07318738,-0.009307057,0.07760084,0.04553596,0.012228335,0.05112345,-0.015724385,-0.05241745,-0.014652713,0.08865528,0.0983166,-0.01612417,0.012208264,0.011068754,0.00474642,-0.07019108,0.050860338,-0.066012844,-0.009701194,0.01769587,-0.07269555,0.0056470577,-0.05572912,-0.043339618,-0.0946115,0.03750167,-0.058417395,0.033623412,-0.05399669,-0.05832286,0.062325764,-0.058669917,-0.020411957,-0.014790548,0.051175665,-0.0069996957,0.03334758,0.09755041,-0.017342791,-0.046224844,-0.015267842,-0.0710094,0.050983805,0.05771293,0.051965363,0.015310839,0.09417347,-0.023801552,0.013665356,0.040288415,0.0013372244,0.014279882,-0.053996902,0.01237167,-0.06512327,-0.03010818,-0.00506357,0.0011038277,0.046615366,0.030363694,-0.035148796,-0.002064774,0.010505207,0.089890726,-0.03104875,-0.023848891,0.07504533,-0.0053958455,-0.014122059,0.06290675,-0.033541862,0.0843964,-0.020711696,-0.022961637,0.094616316,-0.06407849,0.007951014,-0.08107511,0.049857445,0.03121459,0.0033042356,0.10388663,-0.035014708,-0.028449992,0.05794821,0.017412925,-0.03776533,0.022445833,0.044090837,0.062131174,0.011694092,-0.037993003,0.051350486,0.009244765,0.06970284,0.013615748,-0.06164098,-0.075223945,-0.054630212,-0.06855406,-0.03193474,0.034029465,0.06860109,0.049206708,-0.048068855,-0.08147014,0.0855016,0.08116151,0.0006965406,-0.08378257,0.030838192,-0.0699804,-0.023788873,-0.08525165,0.033535596,0.010735191,-0.023991719,-0.023185952,0.05696256,-0.049754795,-0.04785061,0.07059863,0.025472244,-0.027926039,0.058048785,0.072444364,0.04435713,-0.018627016,-0.061086364,0.077357195,0.04835077,0.061472546,-0.038804892,-0.008806825,-0.026061583,0.09508357,0.017667478,-0.037925847,-0.012339908,-0.05489362,0.01783235,0.020935485,0.0019159839,0.060482357,-0.0054498743,-0.031155236,-0.029907212,-0.039685868,-0.075662926,-0.00022393401,0.019326098,0.08756062,-0.08632555,-0.034756646,-0.1000352,-0.056241572,0.029554501,0.0092279455,-0.031630322,0.05812124,-0.04131876,-0.050566778,0.006846511,0.019439017,-0.038444128,0.009696222,-0.0138709275,0.047663674,-0.048319645,0.031387456,-0.006248237,-0.025171285,0.05346372,-0.018008795,-0.044377636,-0.0259691,-0.047980424,-0.07118678,0.019833371,-0.015122031,0.029031176,0.074057944,0.032522175,-0.030871617,-0.03722093,-0.001716503,0.09359522,-0.03755003,-0.025342194,-0.024148468,0.016018774,0.08088731,0.06739693,-0.029979277,-0.017964032,-0.056618042,-0.04286211,-0.03598483,0.063435666,-0.045934748,-0.022180606,-0.06515495,0.08649529,0.055971537,0.08058869,0.04147697,0.110004954,-0.037277218,-0.044069264,0.01855429,-0.004345067,-0.02012046,-0.08250879,0.05552153,-0.011989737,0.024514476,0.022005038,-0.012292103,-0.055970546,-0.013756763,-0.087176226,0.05387516,0.034606606,0.00830156,-0.02198329,-0.12590076,-0.05250241,-0.066581935,-0.0054808445,0.018982422,-0.0014691593,-0.030943984,0.022828689,0.05271085,-0.017986203,0.055457447,-0.023810236,0.03358135,0.008934777,0.016586594,-0.08277749,-0.015019338,-0.01301794,0.025988303,-0.05481335,0.071895726,-0.0046999985,-0.035896868,-0.029582165,-0.09573211,-0.028062295,-0.010413181,0.054201964,0.027831286,0.05123024,0.0021298963,-0.012014405,0.0041221725,-0.03142765,0.0038712176,-0.04684884,-0.03703469,0.0041398355,-0.011017058,0.047264397,0.0038905663,-0.034673955,0.050791517,-0.027109545,0.05035015,0.032983426,-0.039353106,-0.040176727,0.07565062,-0.05669513,-0.033168405,0.04840425,-0.054588426,-0.10670868,0.05706715,-0.054740287,0.02690643,0.083180204,-0.048105463,-0.06515311,-0.06318571,0.079147674,-0.013480103,-0.0015151985
DRUG_ATC_C2,-0.038157724,0.002208225,0.021117028,-0.034096945,0.017285278,-0.0069448585,-0.03764869,0.065700814,-0.012910951,-0.018793067,0.092871726,0.005088737,0.012650518,-0.03301292,0.023133958,-0.038228944,0.044959746,0.06820373,0.011933409,0.014616925,0.0539352,0.04972729,0.07116104,-0.020329619,0.051211588,-0.026179485,0.02895391,0.016035521,0.026138404,-0.022182142,0.018257853,-0.030312415,-0.021916756,-0.06711987,-0.032274835,-0.16683094,0.033614192,-0.08985641,0.02831107,-0.12500991,0.09883991,0.004116492,-0.068491064,-0.06859898,-0.064230956,-0.009213892,-0.05728078,-0.022462431,0.14607769,-0.033780668,-0.053544357,-0.018164441,-0.015065868,0.13535316,0.102351196,-0.05611725,-0.05819422,0.010235062,-0.025636923,0.037985552,0.06700016,0.080679566,0.061394792,0.02280142,0.01638642,-0.07385647,0.01949704,-0.03807971,-0.09858573,0.065716155,0.081438065,-0.079021834,0.08226322,0.054789007,0.063023165,-0.07580857,-0.11780212,-0.0071991454,0.05252081,-0.051108252,0.080833584,0.00069811434,0.044950236,-0.022584641,-0.07144214,0.114268035,0.021300083,0.06762207,-0.06364985,-0.017065858,0.024978785,-0.025622204,-0.010023151,0.054768503,0.080969244,0.07779416,-0.0036968368,-0.07989014,-0.040220022,-0.027510913,0.0070303343,-0.018353704,-0.0070302533,-0.038021572,0.03814894,0.08537912,0.1042867,0.082121156,0.079617895,0.0064285444,0.0030993575,0.024255337,0.017238345,0.1531483,0.055564485,-0.05983287,-0.10327366,0.06510119,-0.024085892,0.0065062554,0.032413382,-0.05725548,-0.073889844,-0.048312403,-0.1074826,-0.117467724,0.00047153977,0.06856392,-0.082530215,0.07632183,0.0379041,0.048309553,0.018518142,0.051501114,0.10624629,0.041730814,-0.05341456,0.10101935,0.053778853,0.08338657,0.019450935,0.07880853,0.13633564,-0.08600878,0.030001938,-0.05817546,0.002976607,0.05197016,0.018458635,0.0073456084,-0.06443655,0.026713647,-0.25680822,0.0981894,-0.0037143289,-0.063257515,-0.05980435,0.019129407,-0.046972755,-0.08518338,-0.068356976,0.06286235,0.10437116,-0.14013003,-0.0094726505,-0.08285149,0.04076593,-0.021664519,0.07580206,-0.10590727,0.028835796,-0.23166259,0.07485971,0.026538402,-0.07436932,0.04657021,0.04156379,0.06657065,0.02971341,0.027583057,0.027286941,0.0070731854,-0.07220862,-0.03496274,0.0013750098,-0.057372507,0.025930159,-0.0720216,-0.06110887,-0.027374372,-0.037372887,0.07768544,0.071655944,-0.041647416,0.06003143,0.036677007,-0.0147542665,0.13852349,-0.052766964,0.018311018,-0.08530188,0.13907233,-0.0041021863,0.008406003,-0.0030142877,-0.008872046,-0.084946565,-0.0012994002,0.006561163,-0.033066735,0.08130051,-0.042908173,-0.083370544,0.16431826,0.09742388,0.10790585,-0.04302743,0.050142173,-0.11937795,-0.049123142,0.058082975,-0.11450239,-0.048747834,-0.117383756,0.03806452,-0.1254326,0.083848245,0.028964624,-0.0012089878,-0.079110265,0.005329795,-0.020529293,0.064644836,0.1163228,0.013576531,-0.002486755,-0.11281401,0.013182918,-0.13107705,-0.071344316,-0.0132568935,0.009051713,0.014533414,0.04036951,-0.0070302757,-0.072114125,0.10832013,0.10838013,0.12195833,0.051996794,0.04097262,-0.11326841,0.019901877,-0.041237745,0.100371584,0.033138447,0.07523616,0.013828105,0.042211924,0.048978936,-0.031241896,0.074481145,0.07886312,0.08835603,-0.09363662,-0.029843869,-0.051084008,-0.0540397,-0.023214247,-0.09102413,-0.014530552,-0.08182536,-0.005191985,-0.022228612,0.03572546,-0.059576426,0.020764587,-0.02954133,0.0205316,0.09546342,0.084332794,0.12443751,-0.08973896,-0.102512136,0.018384418,0.075500555,-0.035883404,-0.020548744,-0.046921883,0.06274465,-0.018985828,-0.061802637,-0.081455454,0.024367537,0.010586961,-0.05734424,-0.054837145,0.121543035,-0.081986435,0.019688085
DRUG_PATHWAY,-0.07555872,-0.10665985,-0.03782572,0.033209525,0.03355846,-0.03916188,-0.026972258,0.12050865,-0.0980431,-0.131775,-0.10813171,0.04265449,0.045180295,-0.01776778,-0.050808597,0.17385653,-0.06165217,-0.040092032,-0.047336392,0.036742356,0.085434586,0.07964743,-0.07089681,0.07497762,-0.051950276,-0.072140306,-0.03279105,0.11528729,-0.12667447,-0.062967956,0.09497518,-0.031085037,0.015451468,0.00824705,-0.030495008,0.030309226,-0.05350881,-0.040235635,-0.004786961,0.013321248,0.18148515,0.031055357,0.012483872,-0.08601817,0.05154163,-0.033563416,0.021786569,-0.064425446,0.23481601,0.17974757,-0.07633243,0.15949304,-0.07011958,-0.0713086,0.106519856,0.09603526,-0.048423257,0.10657143,0.042081296,0.009592487,0.062460907,0.075841986,-0.002365226,0.087304704,-0.015551305,0.098334245,-0.13488023,0.08858846,0.11890279,-0.023248998,0.09410586,0.08738324,-0.021792026,0.08614544,0.099643946,-0.053617302,-0.036585238,0.0044561224,0.039886896,-0.025214257,0.114157885,-0.06643303,0.037848312,0.08373236,0.06399926,0.08140019,0.032486252,0.096409306,-0.061128415,0.04514035,0.07286169,-0.042949595,-0.029389614,-0.07206268,0.062145572,-0.039359603,-0.074232645,-0.037585527,-0.037646536,0.036991406,-0.11782155,0.032973755,0.048708342,0.06285133,0.029124921,-0.02423276,-0.07946266,-0.06187262,0.051773977,-0.029370224,-0.11144747,0.01619243,0.032537263,-0.03929697,0.10181603,0.06410842,-0.08870236,0.0023498484,0.04638398,0.072945215,0.025541272,0.064924344,-0.052263267,-0.052411396,0.039478768,-0.08526194,-0.042866755,0.17446621,0.060601626,-0.01699869,0.12393659,-0.05507762,0.026607493,-0.11081629,0.1304796,-0.10183249,0.050132856,-0.035442956,0.013527024,0.04301773,0.020824255,0.141543,-0.011463016,-0.029805282,-0.06990805,0.01667451,0.15456203,0.0052223457,0.06599365,-0.078866206,0.007081363,-0.15116799,-0.04255396,0.09759637,-0.07025069,-0.029592587,-0.11325325,-0.1003062,0.006744236,-0.01271066,0.015996885,-0.12825958,0.04201425,-0.06876944,0.009947047,-0.14711267,-0.103601545,0.16933511,-0.18101813,0.14400174,0.06930632,-0.031035721,0.0034105391,0.049266994,-0.01639184,-0.02651334,-0.077684194,0.07952178,0.017751902,-0.09383169,0.030891905,0.06825012,0.0639334,-0.10785693,0.0041052145,-0.030013623,0.10526945,-0.02413494,0.092271015,-0.039546657,-0.01787705,-0.04457564,0.05562034,0.015674558,0.034485634,-0.08525707,-0.011279931,-0.059061237,0.032636177,0.09300487,-0.021960668,0.07723384,0.008367885,0.0606646,-0.03802376,0.029375236,0.006446938,0.029281598,0.030050648,-0.08639561,0.035731293,0.07709517,0.032759886,-0.017437488,0.08271819,-0.015331488,-0.057888508,0.07401309,-0.008955228,-0.015906936,0.0056692306,0.05765244,-0.056661814,0.030483782,-0.039105922,-0.08075243,0.015120197,0.003680174,0.07678819,-0.014312037,-0.11108272,-0.0694611,-0.039767537,0.18063197,0.057770114,0.0585198,-0.12369213,-0.05705474,-0.09351054,0.08636689,-0.031638455,-0.18645094,-0.019925859,0.05763886,0.09558031,0.054659545,0.15672135,-0.028633568,0.012892805,-0.024249649,-0.044492498,-0.13529631,-0.02417171,0.05968181,0.053994812,-0.051608294,-0.03705254,0.013101937,-0.010818716,-0.056534808,-0.037373528,0.033038538,0.11568049,-0.08026325,-0.038307957,-0.055231746,0.07312236,-0.06501583,-0.009812149,0.10020569,0.00943188,0.118068576,0.001677011,0.0929954,-0.04055223,0.04982444,0.022818178,0.024841566,0.070341475,-0.01176562,0.03611906,0.17626245,-0.08217447,-0.01139445,0.03681982,0.022249488,-0.047042847,-0.02375118,0.09499627,-0.032592658,0.06290791,-0.034135655,-0.06098673,-0.025622174,-0.025227664,-0.03229683,-0.12204846,0.038443483,-0.026617667,0.031436943
DRUG_ATC_C3,-0.066755906,-0.08369937,0.029224906,-0.08566244,0.077087305,0.056177564,0.01768325,-0.06265726,-0.07685721,-0.07066343,0.11344104,-0.0031897493,-0.06152843,0.017497346,-0.094946794,0.031548217,0.0160585,0.025015948,-0.08642022,0.0067730336,0.07629115,-0.00022255396,-0.058078554,0.08377725,0.15894689,0.030710379,0.030519946,0.043964036,0.045982536,-0.08808114,0.0024094954,-0.05958582,-0.028328052,-0.058360606,0.04089579,-0.12234847,-0.017584177,0.0015665619,-0.031135326,-0.067645244,-0.054564133,0.08041749,-0.0148094995,0.014880541,0.119748145,-0.01026681,0.047796324,0.009960482,0.13505135,0.06580561,-0.0069169346,-0.006076497,-0.11043533,0.049106892,0.010411782,0.059066422,-0.06369745,0.10499001,-0.05019082,0.11422621,0.030128952,0.080902174,-0.025703974,0.06500007,0.0030508137,0.029798185,0.041460928,-0.0279782,0.00039423266,0.029773727,-0.004676986,-0.043047644,0.151775,0.09744019,0.054344427,-0.062046252,-0.13929878,0.030431017,-0.048006296,0.011629521,0.10509656,-0.038007848,0.026061589,0.094133295,0.0048960405,0.062483337,0.044685837,0.01570843,-0.033101223,0.0058802785,0.070928216,-0.11247494,0.061791815,-0.025491277,0.07162618,0.08246734,0.0125460485,0.028052745,-0.044591818,-0.056910373,0.049093965,0.090892605,0.03558172,0.047232132,0.008725881,0.1473688,0.10910239,0.03592452,-0.050189536,0.060303215,-0.033827133,0.08036576,-0.002845464,0.043316614,0.00056601636,0.013806085,-0.10922441,0.06409816,0.060239,-0.053909484,0.028025486,0.01051341,-0.076349325,-0.06897359,-0.096020386,0.03329798,-0.05469421,-0.08590043,-0.06618812,-0.00094828435,0.04362348,-0.08828736,-0.07385181,-0.039266042,0.08385227,0.051307853,0.018885523,0.045914453,0.074762225,-0.048414703,-0.026377961,0.100628205,0.102846414,-0.07877187,-0.016113773,-0.039962675,0.03899434,0.0067036757,0.045286376,-0.08413555,-0.05163663,0.051594015,0.0124634355,0.07282293,-0.018809687,-0.034997363,0.028955089,-0.07808207,-0.01867072,-0.08615441,0.020403005,-0.054091148,0.06790734,-0.053399265,-0.053017836,-0.011989864,-0.051916588,-0.06853959,0.0068443865,-0.018868914,-0.0043318355,-0.07877384,0.014994383,-0.041380495,-0.04057607,-0.003474187,0.027946778,0.08721713,0.046945803,0.024579741,0.03821723,-0.057940364,-0.0057441476,-0.026829721,-0.056367483,-0.025668299,0.0687805,-0.0459474,-0.07847474,0.04831482,-0.054224245,0.010969858,-0.07390127,-0.050439674,-0.0052254978,-0.0024096232,0.05832335,-0.0087497365,0.002332103,0.09868203,-0.11052885,-0.064151555,0.13251968,0.03925291,-0.07449396,-0.022715114,-0.03924947,-0.019007482,0.06553193,0.036365584,-0.028467316,0.013374731,-0.11095959,0.09158019,0.16078353,0.0020510368,0.06521637,-0.06027199,-0.021918613,-0.04851719,-0.01612354,-0.07491797,-0.05309185,-0.07812024,0.034768954,-0.07723529,-0.006641822,0.103563964,0.017413111,-0.047363576,-0.0083234785,-0.048121117,0.06346937,0.06588137,-0.010687759,-0.055302974,-0.15436436,-0.035296906,-0.04213476,-0.024955854,-0.040843852,0.03793391,-0.0648277,0.022047734,-0.050566982,-0.05190236,0.06106509,0.09203097,0.025934199,-0.09057086,0.002851916,-0.106494285,0.07669026,0.038550798,0.07538738,-0.09440832,-0.0036569303,0.061761964,-0.073193364,-0.0045055994,-0.057538103,0.058405325,-0.0008599494,0.08247018,-0.115966894,-0.046695367,0.061985113,0.0034589802,0.06842512,-0.14199606,-0.104786105,0.0033212132,0.021330364,-0.012909558,-0.03324975,-0.07637017,0.076317914,-0.11696398,0.07234048,0.032856803,-0.04551311,0.0049357247,-0.021890143,-0.04396251,-0.010195772,-0.049296573,-0.08793032,0.07602752,-0.013597367,0.068308905,-0.068658024,-0.033901006,-0.04687864,0.10694019,0.024212606,-0.06813615,-0.013381344,0.07133397,0.07946438,-0.0038503653
TYPE,-0.023252498,-0.11967629,-0.055020712,-0.1321273,-0.07639349,0.11670702,-0.1142674,0.08281963,-0.049793594,-0.24333732,0.14149249,0.12750793,-0.039078653,0.10457843,-0.01114998,0.09472267,0.1517614,-0.04308106,0.2129417,0.1069712,0.19128162,0.16640063,0.059697255,0.06354564,-0.051028796,0.11408062,-0.14818354,-0.004269395,-0.16433395,-0.015876787,0.086896926,-0.0867435,-0.11932948,-0.08620556,0.14746904,0.10332315,-0.06482947,0.044699322,-0.076472126,-0.14672261,0.08178845,0.1861899,-0.157245,-0.14235622,0.019166566,0.08026542,-0.1642797,-0.033192407,0.07724372,0.19244468,0.08747399,-0.047461905,0.0039236643,-0.15130591,0.06457889,0.107670516,-0.13593066,0.07231705,0.13414963,-0.037387684,-0.008705786,-0.09721706,-0.11479983,-0.1642374,0.14286405,-0.11791084,-0.017755862,0.16186418,-0.0031732533,-0.15247,-0.075370334,0.13375649,0.03337519,0.033545878,0.08268103,-0.13665822,0.040771868,0.02749404,-0.18323426,-0.124642335,0.025326496,-0.03729527,0.076971196,0.059321705,-0.18506734,0.03481978,-0.15110235,0.042201832,0.10642774,0.18674663,0.08701914,0.0048198286,-0.06674996,0.061721843,-0.09072013,-0.084465116,-0.07170619,0.06366651,0.15531231,-0.026950125,-0.06056206,0.11983915,0.07989126,-0.061951526,-0.10758243,-0.09105653,0.0060520098,0.01576341,0.032189265,-0.19090742,-0.031429045,0.119442545,0.113918535,0.022707019,0.0028125297,-0.10895973,-0.19759227,0.0767647,0.05253678,0.064003184,-0.0058405437,0.056718227,0.07371835,-0.1517312,-0.19234954,0.076311044,-0.06520006,-0.1146137,-0.12136294,0.13484104,0.023247065,-0.04163434,0.036214575,-0.057033896,0.051640034,-0.059415694,0.12782767,0.003975463,0.18515377,-0.0018158171,0.058632493,-0.049778003,0.14208421,-0.042359494,-0.097071946,0.024466457,-0.12752791,-0.24051544,0.16892026,0.12539807,0.014948755,-0.07509936,0.003408509,-0.0042623403,-0.051802892,0.11468333,-0.25909427,-0.045089673,0.21718735,-0.11406596,0.05926276,0.07443443,0.036779165,0.0694385,0.05715184,-0.039129537,0.09961022,0.02335496,-0.05187241,0.07949038,0.21009775,-0.08891241,-0.019064512,-0.12270671,-0.09537796,-0.10063407,0.025643133,0.09369512,0.08450056,0.062732846,-0.055037405,-0.062080253,-0.10623373,-0.050104752,0.092235126,-0.13400668,0.078890964,-0.19245373,-0.1821688,0.014701311,-0.18295445,-0.10159769,0.1296996,0.15009618,0.11787776,-0.012064133,-0.020879025,0.062009603,-0.11227751,-0.13899772,-0.19951484,-0.10024506,0.04805766,-0.046833694,-0.15923908,0.2119783,-0.016661583,0.052958567,-0.037593182,-0.06701716,-0.037841648,0.11318067,-0.15022936,-0.03558105,0.045233164,-0.0029839154,-0.050806154,0.08167755,-0.18611802,-0.13792355,-0.025224952,0.108156286,-0.13775228,-0.2130708,-0.15054299,0.118771896,0.1624901,0.021976355,0.06121268,0.0011133953,-0.005273666,0.13864036,0.039391387,-0.046867933,0.12733434,0.076988526,-0.09078717,-0.011283212,0.105531104,0.22672182,0.055161286,0.09656338,0.18394056,0.10184423,0.15250622,-0.18934828,0.17318144,-0.15052345,0.011300078,0.1333699,0.14034547,-0.11473724,-0.04503781,0.07917133,-0.029081741,-0.16402943,0.15058583,0.1380617,7.273292e-05,-0.07907471,-0.095544696,0.1305571,0.13690476,-0.1119077,-0.015230775,0.08028955,0.01196585,0.03669565,-0.06196655,-0.010369239,0.17477372,-0.004731047,-0.14501415,-0.04162078,-0.0652228,0.109929465,0.18564932,-0.21010181,0.21783659,-0.15190071,-0.18162428,-0.098944485,-0.1137761,0.036942866,-0.07276339,-0.034280658,0.08095284,-0.13722482,-0.13071434,0.035158258,-0.1472815,-0.15112953,0.13219798,0.065229245,-0.16050078,-0.19731933,-0.16054998,0.0675337,-0.065594,-0.08597204
PATHWAY_CATEGORY,0.043954056,0.06648443,-0.05946702,-0.06683431,-0.053352106,0.03929433,-0.019017985,-0.02058302,-0.05219351,-0.018436763,0.12010189,-0.016404636,-0.17279764,0.017658496,-0.0212071,-0.03765486,0.076405585,0.06956492,-0.02719165,0.029131973,0.029170942,0.0008472157,0.06686309,-0.02092191,0.0019788488,-0.018835373,-0.0036699495,-0.17850442,0.060915045,0.022390043,0.049151435,0.090489805,0.055967327,-0.07916823,-0.068560086,-0.19921711,0.018578338,-0.040767785,-0.018762948,0.1261802,-0.026838941,-0.023594743,-0.0058378787,0.09531306,0.0042214897,0.040840983,0.12544833,0.02321624,0.049788766,-0.009500199,0.07441342,-0.21351296,0.023269612,-0.030160984,-0.101076625,-0.09125937,0.22105871,-0.041703492,-0.04212028,-0.0068897475,-0.071714096,0.08154358,-0.14387754,-0.13498265,0.0661863,-0.030143706,0.08664121,-0.045994356,-0.022798292,0.037820462,0.030249147,-0.10914798,-0.0053358767,0.03588861,-0.050437342,-0.042109646,-0.10038191,-0.00084084703,-0.0308482,-0.062835656,-0.022367965,0.09300424,0.020941123,-0.023497257,-0.010117859,-0.0046388116,-0.0011699923,0.002944086,0.0394644,-0.17664488,-0.05181984,0.11093639,0.114742875,-0.07874145,0.04933677,-0.07736726,-0.014259571,-0.16463657,-0.042639997,-0.030645194,0.037665457,-0.034775004,0.08699371,-7.705116e-05,-0.038315084,-0.03786892,0.07386088,0.03095665,0.016463168,0.021185817,-0.10794888,-0.02050371,-0.056569528,-0.04413302,-0.13372393,-0.025091311,0.04765302,0.022066683,0.02037155,-0.10778655,0.035813965,-0.071788006,-0.03562458,0.064019054,-0.055937633,0.077812545,0.15675361,-0.12903239,-0.0004324234,0.020776993,-0.06345101,-0.0652772,0.014811206,0.11334825,-0.058288533,0.12410699,-0.075426854,-0.00028576137,-0.020986926,-0.057604082,-0.08306439,-0.1097901,0.021870315,-0.11786448,0.02509808,-0.020135242,0.0012054138,0.020504732,-0.072984315,0.09196373,0.05628754,0.1170564,-0.07238733,1.626705e-05,0.09374893,0.011408183,0.1056098,-0.07288553,0.03712278,0.1771854,-0.2018878,0.06907068,-0.090342656,0.10270693,0.05047632,-0.02297316,-0.028629145,-0.08257878,-0.028906966,-0.007756287,0.033568624,0.1563342,0.090662725,0.07893705,0.10407123,-0.09124581,-0.0980838,-0.010825888,-0.07002422,0.07389317,0.055323143,-0.091037594,-0.07456162,0.1690555,0.06604207,-0.038781535,0.0024909244,-0.15276277,-0.11836679,0.057847787,0.060060542,-0.04359374,-0.086708084,-0.094318874,-0.003015562,0.036188077,0.0071310783,0.058201984,0.07963667,-0.14512204,-0.05593725,-0.074132346,-0.050516136,0.0036092468,0.040944662,0.022543626,-0.05822875,-0.14332668,-0.039161436,0.11401461,-0.0027851444,-0.12456412,-0.014508564,-0.1038545,0.15074274,0.01265399,0.071718924,-0.038233146,-0.02851331,0.08055689,0.1301751,-0.0608947,0.10306719,-0.00021418247,0.08337869,0.04229833,0.013227124,0.012998946,0.0020613058,-0.041433394,-0.03003864,-0.05506198,-0.015030182,-0.016921658,-0.015443327,0.07197727,0.11548449,0.08966708,0.03958999,0.06368505,0.016006693,0.05638626,-0.027076893,-0.09414645,-0.05055842,-0.111477256,-0.07587777,0.037811674,0.042855788,-0.070786946,0.04447131,0.16579857,-0.039772794,-0.0938698,-0.02666929,-0.036886673,0.085562214,-0.034841318,-0.026280677,0.096405506,-0.062245574,-0.19324644,-0.028605817,0.19857155,0.0046685194,0.09260978,-0.018075842,0.0171128,-0.01393305,0.022828035,0.025581636,-0.054895934,0.11835168,-0.009420898,0.06490768,-0.12370751,-0.040271763,-0.035170943,-0.16824408,-0.0745405,-0.01130191,-0.16461441,0.06398364,0.088127844,0.043029968,-0.048452035,0.114238106,0.061723296,-0.024445094,-0.023856578,-0.0061798384,-0.035264827,0.099546425,0.068004414,0.15984304,-0.18996981,0.15784879,0.012161686,-0.13301638,-0.034678496
DRUG_ATC_C4,-0.12335158,-0.06839489,0.028279718,-0.07531691,-0.04114899,-0.04523731,-0.027247036,0.0012124239,0.007264191,0.047640067,0.06192001,-0.015282792,0.026405185,-0.038766816,0.03152644,0.035779394,-0.009962137,-0.010302277,-0.029774172,0.0038808042,0.0257178,0.13884233,0.05282049,0.0769352,0.02223203,-0.041957617,-0.113750644,0.006705347,-0.08675061,0.07811044,-0.00693625,-0.15464894,-0.018710485,-0.008396421,-0.072095305,-0.072258495,-0.047356017,-0.13067323,-0.027468288,-0.1316941,0.026488667,0.031666916,0.026880074,-0.09347389,0.080344185,0.027519185,-0.070317574,-0.05011479,0.068994045,0.05892117,-0.0008263068,-0.036612518,-0.1270341,0.03384644,-0.02196192,-0.021127742,-0.003624804,0.090462886,0.02880724,0.016238818,0.07715632,0.005403053,-0.031989615,-0.07835374,-0.019102924,-0.070545964,0.05624547,-0.058994707,-0.07132931,0.016739545,-0.019495642,0.053536687,0.093083166,0.10923776,0.03743451,0.013980498,-0.042240743,0.026362063,0.012795293,-0.029988853,0.041649047,-0.04563709,0.036476605,-0.008251819,-0.09117313,0.028637448,-0.09811528,0.071562596,0.05457265,0.049252693,0.052493084,-0.065783106,-0.041392047,-0.002823496,0.084171094,-0.049799845,0.074581675,-0.077170506,0.028546922,-0.052810192,0.03057211,-0.04250646,0.026500948,0.053392526,-0.06273898,0.002431722,0.09576679,-0.027141968,0.044224624,-0.0057380716,-0.04920696,-0.025383031,0.07452272,0.055480048,0.009215573,0.019511463,-0.018399075,0.051043767,-0.017193807,-0.07404001,-0.01652702,0.106158696,-0.05397707,-0.08352577,0.010954241,-0.005788074,0.042230483,-0.040973928,-0.003032917,0.03638246,-0.03303576,-0.02609362,-0.032445215,-0.041946005,-0.017860979,0.05676299,0.079296246,0.031386293,-0.005993278,0.011677193,0.032966297,0.10303942,-0.017737735,-0.08807845,-0.003053982,0.053281352,0.006987423,0.0061188675,-0.074249215,-0.060729012,0.046390984,-0.07084938,-0.0013241378,-0.027979614,0.025680922,0.022330198,-0.025112463,-0.016600695,-0.01919225,-0.034473494,-0.021715948,0.03500058,0.030041631,-0.10675067,0.056369703,-0.088538244,-0.0820038,-0.06071287,0.015933016,-0.0545095,-0.04910097,-0.087019034,-0.05373759,-0.03694609,-0.021000007,0.04495689,-0.038945742,0.06843214,-0.05353889,0.036673956,-0.016667183,0.09262758,-0.07195934,-0.03797096,-0.025469203,-0.040945176,-0.06133687,-0.05661605,-0.103560016,0.04545944,-0.015724082,-0.022375498,0.04227064,-0.08316249,0.009639956,-0.054918196,0.0986025,0.060955822,0.025701052,0.10260916,0.00019771598,-0.028540662,-0.006397802,0.067825936,0.011304815,0.054433845,-0.010891823,-0.028337749,0.023437869,0.108523585,-0.01612632,0.08496859,-0.065371305,-0.00028154417,0.06436041,0.15538917,-0.04011044,-0.05206949,0.058187418,-0.07531583,0.07398,-0.028631143,-0.005246563,-0.060008314,-0.013556017,-0.028230248,-0.05260493,-0.0065704575,-0.04590198,-0.076830946,-0.08560566,0.035939727,0.05536466,0.03827274,-0.08154392,-0.0517639,-0.118149176,-0.016748197,-0.063185625,0.059453376,0.024856094,0.07288218,-0.060229704,-0.038016807,0.057247832,-0.0026694685,0.03242993,0.09104375,-0.05781408,-0.013628,-0.07436128,-0.118992545,-0.04436233,0.050205573,0.0745294,0.031096643,0.09845249,-0.08161742,-0.07161757,0.044814102,-0.1043231,0.104998276,0.08688413,0.04124023,-0.0018154879,0.0107970685,0.05124361,-0.05270136,0.1268153,-0.096377775,-0.056738842,-0.08716159,-0.08471346,0.03088497,0.036590993,-0.07560795,0.010494026,-0.062683105,-0.0022738052,0.04267018,0.023653634,0.09618936,0.0040321737,-0.09520317,0.08179222,0.058645923,-0.011633461,-0.07010334,-0.048566815,0.040396992,0.018894747,-0.042004183,-0.056699414,0.122829385,-0.036490228,-0.058522325,-0.11039134,0.081072256,-0.0040132715,-0.069201805
DRUG_TRANSPORTER,-0.04590468,-0.011714117,-0.092511944,0.02266913,0.17383464,0.028624376,0.029406711,0.13648467,-0.066912904,-0.105499744,0.0688784,0.081424214,-0.14785244,0.15278578,-0.078625076,0.06607041,-0.12170895,-0.09541363,0.03973913,-0.054041244,-0.018330382,0.051997967,-0.16050988,0.19784379,-0.100728676,-0.10915041,-0.0017923834,0.09590586,0.02650729,-0.11343719,0.058828067,-0.06751389,0.08069873,0.027345622,0.05595275,-0.012007272,-0.020855537,-0.048853513,-0.119935386,0.03664127,-0.09988132,-0.05188176,0.025402516,0.006226569,-0.04025341,0.043763444,-0.0955549,-0.12577948,-0.04662483,0.018016778,-0.07603234,0.13259037,-0.1684949,-0.077057585,-0.04931707,-0.08726014,0.0093992455,-0.07334462,0.1131584,-0.055617735,-0.055243872,-0.015626412,0.0030492365,0.04133102,-0.040918015,-0.01494407,0.1103877,-0.010669815,0.07060249,0.1257605,0.111578204,-0.21467276,0.1218554,0.06846303,-0.07727097,-0.016385136,-0.010307716,0.07704516,-0.03353806,-0.035385624,-0.05100592,0.042426985,-0.109931715,0.011978867,-0.060833536,0.058290385,-0.0968845,0.14636369,0.08351085,-0.12729391,-0.008633352,-0.02120602,-0.07236161,-0.072663404,-0.100291856,0.09818237,0.007281637,-0.105915256,0.055112537,-0.010782216,-0.03822679,0.087748624,-0.17207249,0.1205561,-0.030843172,0.0923025,0.1633206,-0.17436746,-0.14666697,0.06634801,-0.10586852,-0.14920533,0.1550889,0.12305699,0.055891894,-0.02086707,0.027648075,0.18769106,-0.023288669,0.15735377,-0.10189541,0.064578615,-0.03463287,-0.13532458,0.012210784,-0.19024222,0.06598982,0.1030588,-0.15824571,0.11704389,0.14831431,-0.14093994,-0.16252695,-0.051425964,0.11061974,-0.0037906985,-0.065011986,0.13326828,0.17947471,-0.11455401,0.21307668,0.16126633,-0.054881163,-0.17578834,0.02544895,-0.04152951,0.11404157,-0.09383785,-0.034045096,-0.13226512,0.053279363,-0.042459495,-0.123248935,0.15350293,-0.027788524,0.011618978,0.02600925,0.07086284,0.079578675,-0.06305433,0.13402922,-0.12834074,-0.07656609,0.045936417,-0.136425,0.09421601,0.20145325,-0.099476926,-0.120387726,-0.0027286732,0.023016166,-0.22211142,0.09445212,0.1452558,-0.08121539,0.11679913,0.013449788,-0.07470283,0.17764126,-0.06864723,0.071369775,0.23757428,-0.090121225,-0.084605776,-0.0772016,-0.168372,-0.04299641,0.08518271,0.02294177,-0.08074601,-0.1433448,-0.17228197,-0.0563417,0.055081528,-0.06732807,-0.03771338,-0.0021785935,0.16384467,0.042233262,0.10225047,-0.03365315,-0.137768,-0.16398786,0.13128966,-0.041940793,0.07126744,-0.23215248,0.042881604,0.105541185,0.12638323,-0.12681812,0.021253746,0.0033978247,0.07491485,0.051608086,0.054407887,-0.0086252075,0.0028319904,0.06785748,0.040085092,0.024292583,0.101496,-0.052415766,-0.07532171,0.18968825,-0.052721374,-0.02159661,-0.049689244,-0.0856913,0.03999409,-0.1323245,-0.1363031,-0.07722961,0.17478241,-0.05683507,0.05764723,-0.123381086,0.004287702,-0.0713476,0.16085114,0.02762472,0.042668853,-0.0564929,-0.0689887,0.055609427,0.102739185,-0.037778486,0.08121037,0.17691858,0.054115288,-8.6061846e-05,0.10261881,-0.11052408,0.088613845,0.03878531,-0.005589629,-0.04359138,-0.058542073,-0.1632967,-0.038661662,-0.15754028,-0.056866456,-0.055398367,-0.060810942,-0.2538483,-0.05546524,0.06058707,0.009105376,0.10143602,0.0045116507,0.037595958,-0.11191037,-0.05422114,0.05108409,0.012714182,-0.069728695,-0.02463827,0.017499436,-0.012530845,0.041482605,-0.10128116,0.12016464,-0.08641997,-0.0898844,0.16751438,0.10104337,0.04384585,0.05518087,-0.11563089,-0.051506855,0.100895725,0.09440591,0.1278366,0.07209078,-0.07772729,-0.13429624,0.043900885,0.17780627,-0.067644246,-0.053923868
DRUG_ENZYME,-0.06531835,0.082784146,-0.0025178418,-0.12994707,0.061447687,-0.03134442,-0.04428398,-0.10121646,-0.12800938,0.047130056,0.0055754874,0.102348134,0.050792813,0.099842414,-0.074685894,0.019367516,0.11175609,0.09288348,-0.037069585,0.07377363,0.089051634,0.017456029,-0.15404442,-0.027999826,-0.07798486,0.025545096,-0.11377392,-0.10512472,-0.080026634,-0.054294836,-0.069697164,-0.06636561,-0.022880103,0.039065514,0.056001533,0.06836287,0.0956702,-0.05180617,-0.044221886,0.08562679,-0.052735377,0.061328135,0.0018217831,-0.2281544,-0.11069521,0.06536205,-0.058216505,-0.10373981,0.0020548052,0.082610965,-0.029704042,0.053710166,-0.09562454,-0.015036148,0.022859396,0.02209546,0.106150664,-0.062965155,0.011488113,0.03421764,0.0577869,0.06766192,-0.02218572,0.08917311,0.08428034,-0.0071667866,0.1717047,-0.046937656,-0.0835973,0.057698306,-0.050477777,-0.16072392,0.06067609,-0.012059418,0.045656078,-0.08412271,0.019119442,0.12487591,-0.048603047,0.0061636902,-0.08445549,-0.06751723,-0.0724443,-0.13117717,-0.0072539686,-0.0004949619,-0.19585334,0.10858409,0.007303293,-0.057808343,0.008354913,-0.0658933,0.091610916,-0.051921513,-0.08360942,0.0044687255,-0.012539625,-0.19061287,0.0013598967,-0.10087402,0.15554957,0.06684466,0.008538195,-0.024471762,0.020148866,0.10283753,0.10932131,-0.002647744,-0.0815134,0.018649241,-0.0047891457,0.025909038,0.0133466,0.016247272,-0.028537208,0.05625811,-0.07266656,0.064027905,-0.0897772,0.014088904,-0.07810503,0.031191291,-0.13986774,-0.10266809,0.046078555,-0.18064734,-0.060810804,0.037899636,0.025145603,0.14004293,0.008979935,-0.054525882,-0.093445316,0.048178673,0.086372465,-0.00876238,0.012838543,0.06111145,0.07963536,-0.05023986,0.060114615,0.07699896,-0.039414138,-0.12638274,-0.04118842,0.053087126,-0.08855277,0.04859438,-0.024738481,-0.15781403,-0.032704208,0.023755204,-0.023108173,-0.05089936,-0.029551113,-0.090208925,-0.033171095,-0.023823015,0.09480798,0.01962472,-0.064965986,0.042359184,0.16295174,0.010471226,0.15292282,-0.012541651,0.13675137,0.12753713,0.015152526,0.05436407,0.11525945,0.03584902,-0.031017063,0.14542162,-0.1332622,-0.1332039,-0.21827462,-0.062730916,0.073612384,0.0012590267,0.052897338,0.1147117,0.109343156,-0.008632039,-0.046284247,-0.07734438,0.044863284,-0.025616447,-0.06701444,0.062469743,0.06109664,-0.17411414,-0.0057588695,0.04094566,-0.104977824,-0.0080546765,0.007422816,-0.035839222,-0.09927723,0.22522348,-0.016706252,0.017421428,-0.052154623,0.06326845,-0.14204422,0.18318804,-0.18925723,0.023583135,-0.12118052,-0.01807959,-0.101461455,0.0801639,-0.14929062,0.028451744,0.043230396,0.0057899305,0.068544045,0.1854979,-0.08414503,0.059723366,0.08307732,-0.14634213,-0.09311434,-0.17640758,-0.11749165,-0.09767169,-0.0027472575,0.06970228,-0.1297587,0.024913315,0.026668532,-0.015392355,0.055413008,0.21475458,-0.20832555,-0.02817369,-0.21830523,-0.014658941,-0.11038814,0.120308585,-0.13583843,0.08697972,-0.04959868,-0.059761412,-0.02205725,-0.06414,0.07379059,0.09874968,0.023512833,0.0394331,-0.026284166,-0.118503354,0.05639399,0.06964841,0.0028001536,0.022004558,-0.018501917,0.11132823,-0.08910917,-0.05083997,-0.11695032,-0.111599036,0.045761254,-0.040407393,-0.24341017,0.025801651,-0.10135873,0.072281234,0.11419358,-0.24634497,-0.030585548,-0.16338898,0.074709386,0.063086204,-0.06274933,0.0580856,0.057802513,-0.13084841,0.054352205,0.07178016,-0.07593849,0.2067455,0.0259402,-0.049598668,0.18871509,-0.1964753,-0.046181347,-0.008646392,-0.014032476,0.0037628666,0.06921204,0.076538764,-0.06351339,-0.047238022,0.061511066,-0.0076938886,-0.05565822,0.062168717,-0.06543734,-0.061338052
DRUG_ATC_C1,-0.08425273,0.030318601,-0.020050015,-0.034557767,-0.064702205,0.02561006,-0.042848345,0.049050666,-0.11700094,-0.1240397,0.09494286,-0.014516217,0.005858167,0.076036066,0.08374596,0.068357304,-0.069423355,0.08647865,-0.0017136091,-0.06709315,0.16815202,0.18447275,-0.0063194414,0.007473765,0.08313138,0.05392527,-0.051203188,-0.04406045,0.029752906,0.067209154,0.09597829,-0.15695965,0.024671571,-0.0859945,-0.034338027,-0.09694209,0.03250871,-0.038751453,0.025166435,-0.029727919,0.011553446,0.053196896,-0.040638786,0.015520953,-0.019464906,-0.07089398,0.007912041,-0.02944286,0.10054897,0.02765985,0.033117104,-0.073429,0.029321866,0.0040463484,-0.02531531,0.08830485,-0.0039769863,0.12654155,0.013255893,0.074332125,-0.0017801365,0.07856238,0.021286702,-0.061330773,0.045299698,-0.037188806,0.03361142,-0.08141212,0.07129896,0.03946669,0.1028204,0.0020571453,0.13011049,-0.027709994,0.1443818,0.0003168566,-0.009575739,0.009165173,-0.063879326,0.038475886,0.07358798,-0.09784274,0.1049195,-0.0034594373,-0.15012631,0.1009354,-0.07176418,-0.0067134053,0.021170199,0.1192505,-0.010961613,-0.06977472,0.08345664,0.0456977,-0.05484703,0.06755112,-0.0035311375,-0.120727435,-0.0119267935,-0.033032484,0.07843653,-0.06808653,0.06497564,-0.032624044,-0.08772017,0.041164003,0.026788287,0.044503305,-0.04657382,0.0063502225,-0.04281253,-0.03270466,0.06700179,0.0809516,0.13216108,-0.051883988,-0.070585005,0.084241346,0.06020227,0.03796874,-0.011797129,0.03784607,0.0014250177,-0.09652685,-0.03530276,-0.12920403,0.019161345,0.032791447,0.023425879,0.01579459,0.11307567,0.06798521,0.07092376,0.09134573,0.04182239,0.11335534,0.03699662,0.07887501,-0.08859096,0.08760636,0.016843809,0.11439854,-0.005624393,-0.108562306,0.010543745,-0.041902382,0.024632366,-0.016443003,0.04005322,-0.12596688,-0.06400488,0.022807647,-0.14333385,0.012222672,0.021924559,0.04465676,-0.085086845,0.081875324,-0.00096813863,-0.031515207,-0.022989606,-0.066897884,0.008466219,-0.122057766,-0.04361338,-0.028002251,0.0022061379,0.06869648,-0.014488262,-0.036709912,0.09131434,-0.026211396,-0.041838184,0.00047713044,-0.064229034,-0.03340531,-0.028858764,0.03219889,0.010663318,-0.025434896,-0.0026844349,-0.037167415,-0.030861674,-0.08372816,-0.12839682,0.020208402,-0.011954324,-0.09928937,0.049263287,0.026974048,0.028193101,0.07819445,0.043739982,-0.067138255,0.029528959,-0.009370954,0.044692464,0.088616066,-0.05834091,0.07342187,-0.08761108,0.058244463,0.08946919,0.0001717537,-0.018311013,0.078603655,0.051818565,0.025534967,0.056622013,0.12159495,-0.02135539,0.0654391,-0.03858938,-0.05241642,0.1462098,0.0829996,0.0494869,-0.016696107,0.06461526,0.046517823,0.05369519,0.031243337,0.02668139,-0.10887061,0.0330937,-0.07255128,-0.07166017,0.06858874,-0.052549016,-0.111766994,0.049309004,0.06376786,0.020468708,0.112712644,-0.09572201,-0.111477174,-0.14994584,-0.10667818,-0.06664298,0.0901606,-0.035205323,0.034856822,-0.095854804,0.045948714,-0.035985716,-0.0063725333,0.08186717,-0.012348658,0.057976663,0.015271331,-0.088688456,-0.17265384,0.07955598,-0.059988458,0.115765326,-0.031386044,0.08545774,-0.13198692,-0.0040955637,-0.04941483,-0.12616393,-0.049101662,0.13907589,0.06796466,-0.038774397,-0.033141144,-0.037946578,-0.046065893,0.02649274,-0.0646515,-0.012295427,-0.061843008,-0.0009579034,-0.028875679,0.078526415,-0.112466216,0.044920076,0.0028059145,-0.04044488,0.10802826,0.06889957,0.014082813,-0.085028484,-0.11714001,0.006592938,-0.05518166,0.044283442,-0.01838955,-0.055250164,-0.13242772,0.0046644565,0.029159103,-0.05766256,0.10623884,0.050846882,-0.099912435,-0.07618144,0.027824974,-0.09945128,-0.06929326
DRUG_CARRIER,-0.15043828,-0.12663035,-0.104363345,-0.13354301,-0.04894157,0.049906377,-0.0765187,0.20412305,-0.15258159,-0.10579486,-0.020567147,0.12624592,0.023672966,0.19798833,0.029974006,0.043610033,-0.014399904,-0.14404309,-0.08950674,0.041236576,0.1301501,0.08270049,-0.1672882,0.042495385,0.027675163,-0.19334933,-0.101981,0.14345849,0.12841566,0.04671442,0.10249809,-0.09539994,0.014541316,0.11293344,0.05853395,-0.03015037,0.1654824,-0.1477994,-0.06295899,-0.04067826,-0.103920504,-0.012621359,0.010231949,0.0277176,-0.16728406,0.114633925,0.08483671,0.033309523,0.12646358,-0.073355466,-0.0717092,0.040879533,0.07882899,0.10372629,0.10636861,0.03467753,0.10172724,-0.015229128,-0.06730069,-0.07894857,0.055946298,0.14313975,0.11323006,-0.12263536,0.01858934,0.065694496,0.095185235,0.04008304,-0.1532185,0.025766697,-0.10367803,0.04427565,0.057513803,0.047284406,-0.042086765,-0.1054345,-0.17556706,0.02931421,-0.07526767,-0.14721315,-0.02667628,0.0520805,-0.13974725,-0.20659964,0.07960437,0.015170925,0.0941699,0.023397138,0.22189368,-0.084709615,-0.08478815,-0.009606398,0.11149888,0.09441082,0.012605083,0.07551092,-0.085599735,-0.04997882,-0.010658885,-0.040495317,-0.071663685,-0.11256062,-0.21237844,-0.050309554,0.14835353,0.22811595,0.062757954,0.1890559,-0.101879574,-0.05823997,0.058424123,0.05071198,-0.06631006,0.09315857,-0.007905162,-0.050958782,-0.0032937233,0.092790276,-0.033191368,0.07604796,-0.100242734,0.18216607,0.008545202,0.053125843,-0.12557152,0.026219921,-0.09188738,0.0008445912,0.015481746,0.12807454,-0.15560135,-0.11239315,-0.07860383,0.07699369,0.12249989,0.028347261,0.040382262,0.022455923,-0.1719765,-0.1347209,0.09566682,0.13952568,-0.08456409,-0.08220504,-0.07277204,0.064185634,-0.029120876,-0.074082695,0.15514247,-0.011757887,0.09609123,0.123799466,-0.16373469,0.12837778,-0.07880832,0.06543055,-0.12711924,0.00044924594,-0.09478707,-0.14093277,-0.13213843,-0.09667655,0.10555439,0.035362512,-0.12442015,-0.08855587,-0.065417685,-0.0757442,0.030246142,-0.06873781,0.021397965,0.0020123117,0.04705252,0.07153378,-0.08285372,0.004873907,0.0066423467,0.14744107,0.0030540463,-0.12601441,-0.0059531173,0.036741238,0.13813156,0.03768748,0.09408599,-0.09423158,-0.061653018,-0.13921642,-0.020074494,0.20198381,-0.07569919,-0.073807806,-0.080949865,-0.13947752,-0.022054372,0.08052491,-0.024658479,-0.020164005,-0.21970195,0.12032915,-0.04467111,0.07689075,-0.15060979,-0.15781316,0.032505546,0.11944134,-0.02960362,-0.19392978,-0.11708924,0.18226041,-0.1340077,0.20055465,0.020039804,-0.011332232,0.11265181,0.08616021,0.054672737,-0.050542235,0.114866644,0.12626073,0.107536994,0.112194575,-0.03120311,-0.030614551,-0.02617568,-0.006835752,-0.075194344,-0.03366426,-0.03559689,-0.05921417,0.06738382,-0.19315173,-0.049245678,0.20775999,-0.027060378,0.011012655,-0.13580796,0.13078143,0.09419548,0.1336649,0.039921615,0.13315813,-0.14808644,-0.021918435,0.22818151,0.14995985,0.25461292,-0.0746716,-0.071447805,0.10632016,0.034327973,-0.08353834,-0.11788864,0.060105912,0.05443591,0.029228345,0.07759598,-0.0077296514,-0.0036117975,-0.125785,-0.124138646,0.0031778049,-0.06406692,-0.023284644,-0.11026825,-0.11876434,0.032296047,-0.03865426,0.04465822,-0.07253884,0.05245058,0.043648344,-0.026570253,0.040989447,0.01884784,0.09129721,0.029635588,-0.04280749,0.13128865,-0.0049753087,0.026408566,0.019644296,0.035440277,-0.11065221,-0.0684332,0.19095966,-0.21637018,0.08943629,-0.08357592,-0.089234784,-0.13793978,-0.03991283,0.20766398,-0.09060154,-0.0063845054,-0.020082343,0.055168454,0.20727049,-0.100592814,-0.10946297
