,0,1,2,3,4,5,6,7,8,9,10,11,12,13,14,15,16,17,18,19,20,21,22,23,24,25,26,27,28,29,30,31,32,33,34,35,36,37,38,39,40,41,42,43,44,45,46,47,48,49,50,51,52,53,54,55,56,57,58,59,60,61,62,63,64,65,66,67,68,69,70,71,72,73,74,75,76,77,78,79,80,81,82,83,84,85,86,87,88,89,90,91,92,93,94,95,96,97,98,99,100,101,102,103,104,105,106,107,108,109,110,111,112,113,114,115,116,117,118,119,120,121,122,123,124,125,126,127,128,129,130,131,132,133,134,135,136,137,138,139,140,141,142,143,144,145,146,147,148,149,150,151,152,153,154,155,156,157,158,159,160,161,162,163,164,165,166,167,168,169,170,171,172,173,174,175,176,177,178,179,180,181,182,183,184,185,186,187,188,189,190,191,192,193,194,195,196,197,198,199,200,201,202,203,204,205,206,207,208,209,210,211,212,213,214,215,216,217,218,219,220,221,222,223,224,225,226,227,228,229,230,231,232,233,234,235,236,237,238,239,240,241,242,243,244,245,246,247,248,249,250,251,252,253,254,255,256,257,258,259,260,261,262,263,264,265,266,267,268,269,270,271,272,273,274,275,276,277,278,279,280,281,282,283,284,285,286,287,288,289,290,291,292,293,294,295,296,297,298,299,300,301,302,303,304,305,306,307,308,309,310,311,312,313,314,315,316,317,318,319,320,321,322,323,324,325,326,327,328,329,330,331,332,333,334,335,336,337,338,339,340,341,342,343,344,345,346,347,348,349,350,351,352,353,354,355,356,357,358,359,360,361,362,363,364,365,366,367,368,369,370,371,372,373,374,375,376,377,378,379,380,381,382,383,384,385,386,387,388,389,390,391,392,393,394,395,396,397,398,399,400,401,402,403,404,405,406,407,408,409,410,411,412,413,414,415,416,417,418,419,420,421,422,423,424,425,426,427,428,429,430,431,432,433,434,435,436,437,438,439,440,441,442,443,444,445,446,447,448,449,450,451,452,453,454,455,456,457,458,459,460,461,462,463,464,465,466,467,468,469,470,471,472,473,474,475,476,477,478,479,480,481,482,483,484,485,486,487,488,489,490,491,492,493,494,495,496,497,498,499,500,501,502,503,504,505,506,507,508,509,510,511,512,513,514,515,516,517,518,519,520,521,522,523,524,525,526,527,528,529,530,531,532,533,534,535,536,537,538,539,540,541,542,543,544,545,546,547,548,549,550,551,552,553,554,555,556,557,558,559,560,561,562,563,564,565,566,567,568,569,570,571,572,573,574,575,576,577,578,579,580,581,582,583,584,585,586,587,588,589,590,591,592,593,594,595,596,597,598,599
DRUG_CATEGORY,1.2234032,-0.78295434,-1.0052685,-0.95180583,-1.0431597,-1.3250798,-1.1506546,1.128019,-1.3174587,-1.0784746,-1.1734203,-0.78046143,-0.8959621,0.9518272,-1.3082519,-0.9679366,-0.9295677,-1.045398,-0.91995186,-1.1527323,-1.2064797,-1.0954214,-1.0505915,-1.0693419,-1.4119092,-1.0291897,-0.93383235,-1.2530067,-1.0456166,-0.99932134,0.46593022,-0.99346167,-1.1767313,-0.89837813,-1.1400702,1.2797512,-0.7516581,-1.0642695,-0.8203725,-1.154979,-0.91736686,-1.1451908,1.1283143,-1.1132975,-0.9562429,1.0469643,-0.91192675,-0.6343527,-1.0537336,-1.074344,-1.111618,-1.0624179,-1.1475061,-1.6638064,-0.51182693,-1.1374167,-0.8812758,1.1617277,-1.2509781,1.2745998,-1.4209423,-0.94659686,1.4434403,-1.0999073,0.45012075,-1.1298996,-1.0404595,-0.8654326,-1.4877471,-0.8678026,-1.0754031,-0.9855867,1.2610189,-0.9009105,-1.2897586,-1.3776331,-0.9998441,-0.91050553,-0.9690922,-0.97997326,1.1972432,1.2647209,0.9946612,-1.5461488,-1.0170327,0.8368961,-1.115688,-0.61844337,-0.524562,-1.1602451,-1.0466235,-0.88795185,1.5240402,-0.92203546,-1.0044274,-0.4501424,-1.4703468,-0.8583092,0.9320545,1.2000824,-1.0897902,-0.7230185,-1.1715215,-1.6515824,-1.2346883,-1.4569765,-1.0141429,-1.0398699,-1.195923,-1.0271392,1.3058794,-1.0611516,-0.92727554,0.9654116,-1.1790595,0.9786947,-1.1781716,-0.791293,-0.7621771,-1.3005414,-0.92120904,-1.1785992,-0.79074746,1.2373829,-1.0318991,0.5311162,1.218607,-1.390477,-1.3298405,-1.0917623,-0.91883,-0.87315017,-0.7712306,-1.1717525,-1.0668837,-1.4078941,-1.1096717,-0.8558014,-0.8946673,0.5986738,-1.3487115,0.7125011,-0.9869838,-1.4121315,-1.1674607,-1.283337,-1.0774091,-1.1571766,-0.87646896,-0.7652484,-1.5153941,-0.98308116,-0.9478786,-0.8699909,-0.95983106,-0.8312732,-1.0429218,-1.1423851,-0.94717294,-1.1273178,-1.0504004,-1.0288372,-1.0846007,-1.0753337,-0.9729982,-1.2763231,-1.4386386,1.2955893,-1.077971,1.2337734,-0.8077737,1.1320753,-1.0823889,-1.1170491,-0.9001648,-0.38518485,0.52999,-1.1967102,-1.0422004,-1.0801538,-0.79022074,-1.0541849,-0.99894005,0.90036356,1.2354845,-0.8926506,-0.9297853,-0.92468846,-0.971964,-0.582,-0.1984822,0.9334522,-0.84047866,1.1160986,-1.086715,-1.2703599,0.8038753,-1.2079147,0.8604266,-0.9304969,-1.1791381,-0.9950971,-1.0462273,-0.8025062,-1.179405,-0.66769814,-0.9404372,-1.002341,0.97956216,-0.86473066,-0.9883207,-0.9237227,0.5589448,-1.0893747,-1.0154604,-0.9994643,-1.2994441,-0.9845933,-0.7499573,-0.9638153,-0.87986195,-0.91383076,-1.1351924,1.1159692,-1.0399549,-1.0744514,-1.0824243,-1.0707836,-0.979991,-1.113975,-1.1873205,-0.9732268,-0.81219935,-1.2174394,-0.8938309,-0.95767653,1.1413665,-1.228088,-1.147881,1.1876166,-1.3095416,-1.4962336,0.98149896,-0.9263916,-1.0975165,-1.0012178,-0.9576713,-1.0420023,-1.1136515,-1.2115592,-1.1906288,-0.26463637,-1.1112862,-1.0661378,-0.87116265,-0.95279896,-1.1378038,-1.0391251,-1.1306095,-0.6136135,-0.7956118,-1.2009184,-0.9574637,-1.0540887,-1.2908562,-1.1392446,1.4644414,-1.1993012,-1.3562644,-0.992818,-1.051436,-0.91158265,-0.8432894,-1.0314752,-0.3935255,-1.1910108,-0.81772393,-1.0665737,-1.1262094,1.599327,-0.92407125,-1.2325474,-1.2125416,-1.245244,-0.87728065,-1.3805835,-1.1125923,-1.0010848,-0.9066358,-0.9051332,-1.0901964,1.1325856,-1.0472015,-0.9790537,-0.8317376,-1.4013616,-1.1780962,-1.1421725,-0.84834695,0.33004078,0.90541625,-0.13175419,0.06351625,-0.53985,0.32572827,1.1413983,0.7590301,-1.2900058,0.7983536,0.29346886,0.9162935,-0.4918437,1.2206975,-0.8356534,-1.4975694,0.8552503,-1.0632607,0.9762226,-0.2718489,-0.24537805,1.0437891,-0.35141528,0.23419002,-0.19888943,-1.3905864,0.07234186,0.93364334,-1.176081,0.4128404,0.84170943,-0.8618848,-0.16708115,1.0405514,1.0164447,-0.4313113,-1.227083,0.6097277,1.0685295,-0.9822992,-1.2623358,0.68370026,-1.2128466,0.7754882,-0.7213256,0.70144176,-1.0176017,-0.66974616,0.7842125,-0.43281895,0.45179147,0.24333476,0.6952755,1.0781581,1.1906912,0.602221,0.751009,-0.9735101,-1.1816121,-0.5410324,-1.0635118,-0.77601004,-0.45070696,1.0429454,0.64796793,0.5499928,1.329574,0.7839536,-0.59190124,-0.82129186,0.53877485,0.8605482,0.6294781,-1.4595891,0.5285109,0.34171578,1.2705234,0.31628147,-0.38359666,-0.27404052,0.72601056,-1.1230891,1.2205819,-0.9882699,0.6572555,0.4698475,-0.8937087,-0.32980987,0.70065165,-1.5906112,1.286261,-0.2794896,0.4624853,-0.48398992,0.62059,0.67569417,-1.1711589,-0.12588751,-0.33636194,0.9905155,-0.77555555,-0.3556815,-0.9890482,-1.2126977,1.1234113,0.86991626,1.3065652,0.45010993,0.56218696,1.1642292,-0.41574886,1.3093452,0.55971175,-0.46612698,0.17394565,0.9369094,1.4748986,-0.8323147,0.6008624,-0.99045914,-1.2854837,0.76272,0.8161162,-0.14595158,-0.0061465176,-0.38970813,1.3416525,0.8146181,1.2128052,-0.7611798,0.6164399,0.4520678,1.1295578,-0.33693585,-0.4077893,-1.1445628,-1.2536417,-0.25872883,-0.7873849,0.15664007,1.3561851,0.03293224,0.06820945,-0.64828634,0.20701908,0.9375759,-0.91832805,-1.046541,-0.8448168,0.6669732,0.8739352,1.1555878,0.67243123,-1.0469136,-0.50789034,-0.56007975,0.6657276,0.34427318,-1.1735185,0.96767825,-0.7187058,-0.1723918,1.1498593,-1.0101149,-0.4645389,-0.5620243,-1.2560749,-0.7403504,1.3367575,0.3605044,1.0423201,0.2032698,-0.954801,0.49554354,-0.62368864,-0.50244135,-0.67689836,-1.1597283,0.4723513,1.1130868,0.9759134,-1.097408,-0.5504208,0.09569193,-0.14399883,1.3026738,-0.52452415,0.50011,-0.50117403,0.36302203,1.0908903,-1.4511406,-0.80835307,-0.49572724,1.275158,0.6994715,-0.9215197,0.9997311,-0.8618086,0.9965954,-0.04367302,-1.0734388,0.52756333,0.09663072,0.062975325,1.0249327,0.5288751,0.3944116,0.8667755,-0.9272821,-0.63772076,-1.0093884,-1.1277004,-1.0788462,0.6280746,1.6654757,-0.7096414,1.3454821,-0.6945263,-0.8739178,-0.96506935,0.5492929,0.78710175,0.6712982,-1.3381892,1.1746106,-1.0696388,0.13938166,0.06194756,-0.13653609,1.039058,-1.2104632,0.28564057,-0.574817,-0.8843058,0.89731115,0.5099162,1.3889089,0.42794868,-0.5890443,-1.2692486,-1.2418607,1.092582,-0.97284466,0.52726704,0.5909225,-0.4707761,-0.17479226,-0.812597,-0.57856184,-0.49569094,0.329617,-1.1104347,1.2154397,0.49183598,0.8554084,1.1259246,0.44019273,-0.5556179,-1.388504,1.1354072,0.7548956,0.6856225,-0.25208697,1.584518,1.1775076,1.0326904,-1.3950214,-1.0866545,-1.026142,0.39783156,0.75857717,-0.50005,0.15965953,-0.43102792,0.8887425,-1.2983916,0.6206792,-0.77463824,0.22740404,-0.8215954,-0.7048232,0.6040727,-0.88777953,-0.7090179,0.7080397,-1.0909244,0.36840644,0.11705549,-1.331611,0.7227485,-0.67216873,1.4985073,-0.5670804,0.644369,0.08217907,1.1159048,0.03981826,1.3356512,0.8115169,-1.1434885
PATHWAY_ENZYME,0.63394195,-0.7084712,-0.75703025,-0.5945362,-0.7979879,0.60150015,-0.7401035,0.5654291,-0.7910139,-0.71838135,-0.6349069,-0.67719746,-0.59763825,0.49886402,0.5230652,0.55027175,0.54429334,-0.8319828,-0.7218212,-0.8598337,0.41323122,-0.71197736,-0.72727734,-0.8145588,0.718283,-0.79601806,0.4931337,0.5854899,-0.83448416,0.6399157,0.5703744,-0.780398,0.5437901,0.53177565,-0.74384475,0.5946975,-0.672917,0.4388134,0.56435376,0.5796323,-0.69482076,0.6118869,0.65056235,0.6404239,-0.7074476,-0.53826207,-0.7499492,-0.6778703,-0.74333906,-0.79170895,-0.674492,-0.7626092,0.56269747,0.5893127,0.589779,0.4851948,0.5291368,0.545362,0.32213062,0.6010855,0.60691583,-0.7115743,-0.61789936,-0.8721605,0.6738956,0.5610265,-0.81371576,-0.78537184,-0.79444176,-0.6907687,0.5072343,-0.8084753,0.64335525,-0.5750527,0.4700818,0.66082525,-0.67629486,-0.7380696,-0.75375205,-0.7675068,0.6374641,0.61037946,-0.58646244,0.6463392,-0.68042374,-0.549784,-0.7868431,0.5378299,0.7085075,0.48843852,-0.8173198,-0.6524967,0.6193162,-0.6883575,-0.8220343,0.5724567,0.56684643,0.54494274,-0.5830414,0.62265146,-0.6933273,0.50394493,0.52567923,0.61979765,-0.8521556,0.63254386,0.57176524,-0.7792245,0.43595773,-0.80273193,0.63633436,-0.7485668,-0.7749119,0.587143,0.5961334,0.52909565,-0.82474387,-0.65112454,0.5173785,0.6827155,-0.7157098,-0.65499574,0.7394205,0.7169414,0.63279533,0.66020584,0.6113322,0.5742048,-0.88404304,-0.7991338,-0.7387459,0.5523081,-0.6813762,-0.7804467,0.550613,0.6223637,-0.86259407,0.47157285,-0.57081604,0.6977817,-0.8888628,0.7006339,-0.70757675,0.6643484,0.51237905,0.6796223,0.4904158,-0.7779418,0.5509594,0.4941217,-0.71837974,0.58448595,0.5698065,-0.70595515,-0.6898926,-0.66615087,-0.8069624,-0.7607022,0.5749695,-0.70504695,-0.78233504,-0.68635154,0.661482,-0.6959691,-0.7384903,0.676653,-0.77254957,0.5440185,-0.84907484,0.57823765,-0.703609,0.60121334,0.51140606,-0.8430475,-0.6784112,0.60751456,0.5994413,-0.82981694,0.5266957,0.33842206,0.742113,-0.80441505,-0.73130786,0.6523809,0.55744934,-0.67505777,-0.7257096,-0.73124516,-0.65436816,0.5594857,0.61219394,0.5323645,-0.66969025,0.6117425,-0.7928154,0.5659462,0.67388344,0.6370813,0.5515677,-0.704585,0.47244453,-0.73695606,-0.66021436,0.6295142,-0.8097496,0.5516042,0.53057164,-0.77503204,0.7462712,-0.69453126,0.52017355,0.3897693,0.6593911,-0.86577,-0.7087953,-0.78175753,0.35828632,0.46323344,0.5605504,0.5143838,-0.75705576,0.6408526,0.65532535,0.5882631,-0.6885025,0.48721617,-0.79717976,-0.8503507,-0.7736967,-0.6649463,-0.61277825,-0.7424744,-0.71492094,-0.683289,0.55776787,-0.7123395,0.54452044,-0.7301888,-0.68594784,-0.5767968,0.4215005,0.5645464,0.6037163,-0.7434431,-0.7042189,-0.74139684,-0.7651194,-0.8039448,-0.80647045,-0.7985005,-0.85056525,0.5765616,0.5508224,-0.72107077,0.4752204,0.6049423,-0.81052756,-0.7707167,0.5629208,0.60709333,-0.7100919,-0.74100333,0.39251256,0.63603956,0.4831207,-0.7773738,0.56455845,-0.81367964,0.5441997,-0.76168513,-0.7097917,-0.7437225,-0.6985728,-0.81964475,0.6406323,0.53910965,0.57938004,-0.7659123,-0.80089265,0.68029624,-0.7259848,-0.8326944,-0.7077977,-0.91218376,-0.7288636,0.62975925,-0.75733125,-0.76842386,0.6033937,-0.75869125,0.5562674,0.5606945,0.61671233,-0.76755863,-0.6728579,-0.71649396,-0.84573716,0.6012763,-0.7468373,0.5766659,0.70222706,0.48732024,0.65236497,0.51648396,0.20095369,0.5795489,-0.35345802,-0.64540416,-0.4506343,-0.40280464,0.49968368,0.2922716,0.47045922,-0.55895466,0.5817413,-0.616452,-0.5798365,-0.47228265,0.13694339,0.28339025,-0.58285326,0.38760927,-0.54055816,0.24898487,-0.7927489,0.47560853,-0.57302326,0.704332,-0.36532,0.69112355,-0.6806733,0.42795682,-0.59928524,-0.6161625,-0.44346994,-0.6394444,-0.24869461,0.5042178,-0.585302,-0.6785754,-0.14641945,0.65952027,0.6316703,0.6153425,0.29749152,0.6314316,-0.37320462,-0.5619189,0.20555615,-0.4599942,-0.45492333,-0.18427631,0.6308291,0.67221874,-0.6176746,0.5679112,0.6182212,-0.59314483,0.598732,-0.6393675,0.6816091,0.36898947,0.62570053,0.2962139,0.63652897,-0.641966,0.4315672,0.12623689,0.60251296,-0.09114835,0.5301328,-0.23018971,-0.66339254,-0.48733535,0.6134625,0.69495994,-0.3317033,0.3287989,-0.30360672,0.50474155,0.68473864,0.5765781,-0.600751,0.6458799,-0.42197064,0.50304914,0.23625118,0.58784026,-0.7959845,-0.56553286,0.18152852,-0.16239405,0.68394333,0.3041536,-0.3887058,-0.6780709,0.65169865,0.6629869,-0.5951499,-0.6342431,-0.24721827,-0.5901211,-0.60854286,0.6864895,0.5771807,-0.6688206,0.64467716,0.22066651,-0.57870567,0.34372494,0.6318383,-0.5311484,0.33529225,-0.6402541,0.6565169,0.65105915,-0.4233006,-0.2874476,-0.5895688,-0.7002068,0.33499926,-0.53914326,0.72040796,-0.7323186,0.7153171,0.64496595,-0.6691017,0.6399866,0.50718576,0.38215542,0.36468554,-0.5704819,0.28250077,0.36914843,0.61434937,-0.6702978,0.455427,-0.52349806,0.50687426,-0.70685405,-0.62342197,0.72263896,0.6754304,0.6882567,0.6132416,0.6466551,-0.54841375,0.29561853,-0.5915234,0.49252868,-0.57264864,-0.60493857,0.7323763,0.22053802,-0.17757262,-0.12550978,-0.14553173,-0.6323549,0.62116176,0.44315985,0.18348782,0.61988235,-0.6852098,0.51331186,-0.37396336,-0.70095944,0.5482436,-0.6688481,-0.22844934,-0.62189066,-0.2997263,-0.6439561,-0.59043527,0.22456755,0.16786453,-0.6505526,-0.6157853,-0.2428383,0.52757204,-0.53244835,-0.68472564,0.2957002,-0.23060401,-0.71966577,0.6493246,0.17417683,-0.12566674,-0.29203942,-0.3274575,-0.6231671,-0.5325466,-0.61421555,0.25929672,0.6069435,0.480169,-0.58419293,0.6433281,0.65257764,-0.5789389,0.34288526,0.5931279,0.29482576,0.5962626,0.7003923,0.2648452,-0.5391068,-0.534596,0.28779018,0.6838733,-0.32627082,-0.57319045,0.5054018,-0.67667603,-0.13731495,0.6462383,0.36546972,-0.56514496,0.51536655,0.6186713,-0.6096662,-0.1968038,-0.6746732,0.6282056,-0.64946496,-0.5774797,0.5735624,-0.3227964,0.5879285,0.31034327,0.5122031,0.5020341,-0.16476604,-0.36869997,0.49156776,0.55644375,-0.5413644,-0.6128397,-0.47752345,0.52268124,-0.59734,-0.5275536,0.6198084,0.7170452,0.20005983,-0.45783105,-0.25525975,0.33181778,0.46308932,0.20740691,0.36458817,-0.37494972,-0.56200725,0.61757565,-0.3129207,0.5520695,0.64494264,-0.29945952,0.12835482,0.5482154,-0.60675246,0.41448957,-0.5909089,0.5700563,-0.6912421,0.56466293,-0.52678984,0.6292979,-0.38484973,0.70003784,0.34012845,-0.49977148,-0.33683077,0.43650445,0.28702608,0.6672345,0.59760773,0.57261294,-0.4325893,-0.40286577,0.75614303,0.15640639,-0.32199344,-0.715554,-0.5644709,-0.14302434,-0.6512523,-0.300675,-0.30952,-0.6453396,0.3322029,-0.6023764,0.6851497,-0.68984413,-0.40262708,0.3579302,-0.6466324,0.42357463,0.6621802,-0.35711977,-0.6454747
DRUG_TARGET,0.45577765,-1.3994215,-1.6626318,-1.3135248,-1.1725364,-1.3146434,-1.01943,-1.5539461,-1.5593513,-1.2223017,-0.8121532,-1.1794342,-1.300757,-1.1047791,-1.3053081,-1.4745237,-1.2268041,-1.3134583,-1.1331338,-1.2401477,-1.5663288,-1.4520533,-1.6524258,-1.0990199,-1.6299858,-1.3407581,-1.0476707,-1.2866118,-1.1620272,-1.2045655,-1.0580503,-1.1961082,-1.4872212,-0.6914362,-1.5124352,-1.3956296,-0.94612765,-1.4971961,-1.341491,-1.2738898,-1.1510671,-1.4908817,-1.1863798,-1.4947809,-0.9325743,-1.0937991,-1.0792704,-1.1377842,-1.2322794,-1.3280859,-1.2590282,-1.0820475,-1.7467628,-1.7838366,-1.5596547,-1.201916,-1.1762072,-0.5596403,-1.5335745,-1.3485457,-1.8028191,-1.1103516,0.21613798,-1.1383382,-0.12549448,0.8072015,-1.1686693,-1.2038612,-1.7385417,-0.92531216,-0.6805161,-1.1594874,-1.5010048,-1.3716946,-1.5787743,-1.4120555,-1.2062277,-1.2449656,-1.1711131,-1.1418805,-1.5323553,-1.2447802,-0.71837074,-0.9612406,-1.3642162,-1.2217091,-1.1946437,-1.0348791,-1.3774858,-1.4611213,-1.091597,-1.1786767,-1.0966535,-1.2121837,-1.1628555,-1.3131335,-1.5222362,-1.5716898,1.2686602,-1.1093063,-1.1813759,-1.1636392,-1.4782118,-1.3765826,-1.4894813,-1.7301489,-1.171262,-1.0940021,-1.4578961,-1.0712657,-0.5731246,-1.3050699,-1.1233509,-1.4227608,-1.6069826,-1.7049346,-1.4488654,-1.1492071,-0.851271,-1.3274591,-1.0833077,-1.6515373,-1.7733365,-0.49445447,-1.0508248,-1.3444159,-1.4751276,-1.2809534,-1.436345,-1.1187679,-1.1549567,-1.5039972,-0.92625827,-1.1483377,-1.5842726,1.5345933,-1.1363163,-1.2428831,-1.1295946,-1.1075473,-1.652212,1.8930215,-1.2996421,-1.3088714,-1.4652946,-1.734693,-1.2208623,-1.3651806,-1.2188077,-1.1620363,-1.6148868,-1.1229913,-0.6142527,-1.1930933,-1.0779546,-1.1508559,-1.2279172,-1.4330258,-1.0461087,-1.0191315,-1.1358719,-0.44829962,0.68473136,-1.2702811,-1.0597433,-1.1471016,-1.6876903,-1.2366885,-1.0735202,-1.1824952,-1.0725989,-0.49532044,-1.4417728,-1.146205,-1.2188255,-1.2142856,0.35666746,-1.2796532,-0.7943742,-1.4334906,1.3881434,-1.2012396,-1.0821854,-1.7108308,-1.4210876,-1.159997,-1.0104144,-1.1974581,-1.2888218,-1.0882583,-0.9163157,-0.96760404,-1.0587105,-1.117567,-1.321478,-1.4857522,-0.9091237,-1.4388113,-1.1323642,-1.1608443,-1.364672,-1.164198,-1.6275588,1.6240532,-1.3038664,-1.3678908,-1.3684251,-1.074095,0.25702342,-0.95370394,-1.2561235,-1.1564764,-1.6501633,-1.2565721,-1.4811121,-1.3871614,-1.5788519,-1.3293729,-1.3761545,-0.9347801,-1.2385741,-0.9338135,-1.6737149,-1.298624,-1.2116028,-1.1713449,-1.29269,-1.3613871,-1.1078764,-1.3610836,0.8836119,-0.9753812,-0.9705009,-1.4243069,0.508197,-1.6041502,-1.2478285,-1.5295647,-1.2579277,-1.4304365,-1.5986887,-0.6864708,-0.005766367,-1.0727501,-1.2121272,-1.0288134,-1.228544,-1.2435257,-1.0598164,-1.2096957,-1.2850641,-1.3446997,-1.0073938,-1.0089772,-1.2243171,-1.3277439,-1.3271618,-1.0867814,-1.520079,-1.2729758,-1.1640079,-1.5034795,-1.2547234,-1.5182208,-1.7625787,-1.3986536,-1.4638972,-1.2117045,-1.7556237,-1.0553735,-1.3137168,-1.0113904,-1.3068628,-1.0290941,0.35784888,-1.4491163,-1.2706407,-1.2289715,-1.1363283,0.3544228,-0.92258316,-1.3961985,0.68598413,-1.3794708,-0.9698152,-1.6073552,-1.2869486,-1.1590271,-1.4467571,-1.0153531,-1.5993893,-0.9240134,-1.2561014,-1.3964325,-0.8423917,-1.6983511,-1.2921821,-1.5673224,-1.1602528,-1.1295158,1.5712297,-0.062232807,-0.6671224,0.3050662,0.7124878,-1.3811765,0.95281404,0.09257608,0.90149933,0.42308918,0.39277974,0.32293585,0.09716238,-0.9395294,1.3808916,-1.035674,-0.5556975,-0.24758592,-0.22914918,-0.20836742,-0.06725496,-0.2755278,0.07501946,-0.4027883,1.4244416,-0.3435107,1.1564178,-1.2571287,-0.030968573,-1.5633391,1.0267019,-0.5187301,0.59699243,-1.0541543,-0.04204257,0.67932534,-0.13261448,-0.28921512,0.9965913,-1.0904349,0.08242088,-0.9001714,-1.5832638,0.65667254,-0.16503815,-1.054585,-0.18482453,1.1533495,1.0484451,0.22984369,0.97101057,0.12819605,-0.7168897,-0.76414305,1.4616584,-1.0414188,-0.3683194,1.2309494,0.29435393,1.1658295,0.20910165,-0.81327164,-0.6428246,0.37180012,-1.2283454,-1.3851856,-0.24747846,0.12865517,-1.4072887,0.03418909,0.12678678,-0.16961448,0.25247508,0.2726054,-0.513099,1.2382219,0.7779495,0.32998067,0.57002366,0.10705597,-1.2555612,-0.70256096,-1.0481671,1.1366343,-1.1782395,0.9760486,-0.41719177,-0.019108828,-1.3962411,0.7791592,-0.11887059,-0.19913161,-1.5357292,0.111906394,-0.45481184,1.2926216,0.1753535,-0.831273,0.14752923,1.3373065,0.17087488,-0.43895432,1.285888,1.4201221,0.51460856,0.37418658,0.4602627,0.2562842,-1.0848933,0.045497186,1.4389845,0.24949892,-0.57365453,-0.85127306,0.14616677,1.0194067,0.3687172,1.029552,-0.81563276,0.5079736,-0.051609334,0.055947643,-1.4294711,-0.14480323,1.4742056,-1.3170173,-1.2497253,1.3609096,-0.18618837,-0.12583193,-0.097054176,-1.3362724,-0.4080117,-0.008757105,0.41560748,-0.24324037,-0.17471884,1.2034054,-0.9830351,-0.7754239,0.10474033,-1.1869541,-0.51761943,-0.262449,0.6278461,1.1459327,-0.40120557,-0.58912015,-0.15383302,-0.8806214,-0.26432016,-1.004457,1.4255791,0.29712337,-0.37930647,0.17775112,-1.1572812,0.82812524,-0.7340856,-1.1019547,-0.33741656,-0.9618072,1.5921522,-0.071752444,0.10315609,-0.9509313,-0.787254,0.12073491,0.40064448,1.128485,-0.03618101,1.1299126,0.988019,-0.18221538,-0.06876038,0.15127286,0.9943786,0.34134027,-1.0796523,-0.34422502,-0.37112474,-0.37168244,0.49637577,0.94840723,0.43028167,0.31925052,0.25449324,-0.048961565,-0.4566631,0.6164475,0.007607083,1.0653604,-0.20971186,-0.26054403,-0.8916417,-1.3873005,-0.85430175,0.55064976,-0.9035056,-0.3324682,-0.54810613,0.42737237,0.5338585,-0.73410237,-0.105826326,0.38447568,-0.70153147,0.03255453,-1.5622127,-0.525905,-1.2464138,1.0622504,-0.5773827,0.67865866,-0.36550394,-0.33125547,0.07268018,-0.57498294,0.6545755,0.41588497,0.043689586,1.053681,1.3245058,-1.6216218,-1.0287702,0.77661085,-0.42609137,-0.96215177,-0.098390035,-1.2564982,-0.9445444,-0.18279567,0.05470187,-0.29796207,-0.9918204,-0.2204097,1.302065,-0.23160839,-0.9123934,0.344557,-0.50089806,-0.8183674,1.4983383,0.055354536,0.8446048,-0.020726323,-0.27482915,-0.26213187,-0.01506749,-0.8544644,0.49181366,1.1936247,0.017433131,-0.26641208,-0.9633511,-0.32518408,-1.0897957,0.056490883,-1.5460994,0.9265274,-0.0284311,0.70663506,0.7469463,-1.24026,0.6164537,-0.43311012,1.4317149,0.042152908,0.88122207,-0.07099979,1.1536912,0.024885435,-1.0661724,-0.18860032,-1.329956,1.3497242,-1.1246074,0.7092169,0.40576917,1.366012,-0.35822663,-0.03913836,1.1563121,-0.47654238,-0.12260022,-1.0748864,0.15557618,0.36975086,1.3216873,0.078782275,-0.42800593,-0.492585,-0.7216873,-0.62938166,-0.600084,-0.87115103,-0.2081265,1.1445404,-0.22713341,-1.3974237
DRUG_ATC_C5,-1.5794811,-1.3664303,-1.69229,-0.75610626,-1.0673194,-1.3390027,-1.4397008,-1.7793293,-1.0313221,-1.0058119,-1.598461,-1.2497215,-1.4237093,-0.68427294,-0.8768986,-1.4484746,-1.5656694,-1.3335431,-0.87576795,-0.9760686,-1.6212505,-1.5967588,-1.9045211,-0.9517204,-1.5792483,-1.1647369,-1.2853485,-1.71336,-1.0690073,-1.7057788,-1.1782203,-1.1960292,-1.435607,-1.011743,-0.87838155,-1.6257514,-1.0458155,-1.664069,-1.437994,-1.6097875,-1.0654818,-1.670293,0.6039068,-1.3095379,-0.93818074,-1.5462103,-0.9975533,-1.1769382,-1.1460446,-1.1961575,-1.4731055,-1.0272936,-1.7431066,-1.8557887,-1.6962646,-1.4624995,-1.3975043,-1.532102,-1.3819604,-1.6134478,-1.175877,-1.3296615,-1.3847423,-1.0726653,-0.56298035,-1.6441841,-0.87947834,-1.3113463,-1.2914459,-0.9285667,-1.7840934,-0.84031695,-1.5757221,-1.6608441,-1.6190012,-1.647024,-1.2578207,-1.1061044,-1.1415768,-1.1939883,-1.652942,-1.5592887,-1.6394305,-1.86626,-1.3170654,-1.6075294,-1.1084754,-0.62639457,-1.5390906,-1.7638159,-1.0828022,-1.1046605,-1.9107869,-0.92450035,-1.1219097,-1.5819248,-1.9028704,-1.545984,-1.1106145,0.12392367,-1.2281511,-1.4729933,-1.6576761,-2.0492554,-1.0294074,-1.813173,-1.3975856,-1.025078,-1.7779163,-0.9537291,-1.3286693,-1.4978344,-1.228134,-1.4179969,-1.5358636,-1.8957483,-1.0775691,-1.3243448,-1.5798388,-1.1723272,-0.9882953,-1.1043133,-1.7995912,-1.0908275,-1.6087844,-1.7813845,-1.6951094,-1.8781798,-0.840506,-1.0845131,-0.9355819,-1.6743271,-1.1294851,-1.0583966,-1.5182873,-1.0846406,-1.0650382,-1.5727006,-1.3662987,-1.1900423,-0.8988942,0.2890425,-1.3740525,-1.3464262,-1.4808915,-1.8461323,-1.495975,-1.1036661,-1.335056,-1.4919913,-1.731649,-1.3546327,-1.786192,-0.97965443,-0.9644347,-1.0932763,-1.1770613,-1.657826,-1.4254562,-1.627765,-1.1076384,-1.7197187,0.34964466,-1.6262219,-1.1256131,-1.5705154,-1.2914082,-1.3289403,-0.98843706,-1.4450061,-1.1415861,-0.5783003,-1.5734905,-1.0786455,-1.2460334,-1.4437569,-1.709009,-1.0301522,-1.6893713,-1.3276392,-1.2893313,-1.0362614,-1.0396142,1.4406854,-1.6860586,-1.296375,-0.9565567,-1.3584627,-1.479937,-1.5996042,-1.4724181,-0.92124844,-1.1500639,-1.6100405,-0.78751445,-1.6487797,-0.29856458,-1.1037486,-1.6416914,-1.3406842,-1.68299,-1.0710613,-1.6837147,-0.7430797,-1.042886,-1.0504161,-1.6251162,-1.1138618,-1.630027,-1.0554252,-1.4928975,-1.1984383,-1.5428898,-1.0116336,-1.8576742,-1.2572553,-1.6793457,-1.6995047,-1.5050738,-1.358758,-1.1298671,-1.110342,-1.7794441,-1.8920662,-1.3895915,-1.4794157,-1.2411535,-1.3267295,-1.1945184,-1.503772,1.0491004,-1.0871037,-1.0814452,-1.5417289,-1.1722592,-1.49441,-1.4443481,-1.3964914,-1.461048,-1.7015986,-1.5105069,-1.0176748,-1.3777606,-0.7899292,-1.4225703,-1.0148449,-1.3316945,-1.2625068,-0.97404414,-1.0551964,-0.94338495,-1.633679,-1.3448291,-1.3160266,-1.5618788,-1.2262731,-1.150664,-0.91828185,-1.4064736,-1.390965,-1.201572,-1.4433417,-1.2775409,-1.7558465,-1.7663888,-1.3271298,-1.4922278,-1.1691136,-1.4117891,-0.95431876,-1.5671343,-1.1615654,-1.2479175,-0.9147421,-1.3065051,-1.7895157,-1.0976938,-0.9230149,-1.3043187,1.0957891,-1.0975976,-0.9872084,-1.3543787,-0.9313367,-1.01022,-1.8017179,-1.1812458,-1.0585452,-1.7326001,-1.0010116,-0.8478487,-1.8683585,-0.43908086,-1.2964919,-1.2531615,-1.5439224,-1.1408894,-1.3780063,-1.1745304,-1.3707563,0.5699243,1.0082598,-0.25733402,1.3456771,1.0684886,1.5730828,-0.42065445,0.13857043,1.0420674,-0.12027114,-1.4123783,-0.2717246,-1.5377305,-0.76108044,-1.7801162,-0.0069603967,0.54877496,-1.000347,-0.8282909,-1.1530044,1.1808168,0.72178847,-0.32593423,-1.1509025,1.3614167,0.030437302,-0.71642935,1.117468,0.1817315,1.1675197,0.49896398,0.32447687,1.097775,1.3091311,-1.4115899,-0.16057701,0.28046948,0.6181606,-0.74569666,-1.0007749,0.25486404,-1.488457,1.336728,1.2898021,-1.1957358,0.2782125,-0.66811824,-1.2036866,-0.645861,0.8358651,-0.64160085,0.953338,-0.2438952,0.9989331,1.3036312,-0.9806674,1.4686067,0.19649693,-0.17466874,-0.11133431,-1.4073156,0.45708978,1.6950328,0.47376072,-1.4411787,-1.550139,0.6606231,0.021938674,0.859137,0.6052061,0.2016076,-0.4421977,0.68824494,-1.0191319,0.3764129,-1.2925051,-1.0021442,0.2552007,0.30793652,-0.15893927,1.4110423,0.5102942,-1.2406579,0.8994662,-0.501094,-0.7239703,0.8474851,1.1926163,-1.1144679,1.3963878,0.101876326,-0.0794379,0.9506667,-0.97817636,0.51800144,-0.4186581,-0.25316784,0.4480439,-1.1001297,-1.3399663,0.7127969,-0.2488288,-0.28753126,0.46587035,0.6711915,-0.93047416,1.4329658,0.5646478,-0.72389823,-0.42731476,0.51209515,-0.005963273,0.34140188,-0.19324304,0.11697437,-0.00089771167,1.0409331,0.8768833,0.83503973,-1.5237867,0.6054631,-1.5411044,1.3977752,1.4996988,-0.21662547,0.12124785,0.4245025,0.39792314,0.27130878,1.3171691,1.196378,-0.7335173,-0.61527103,0.59825945,-0.6293897,-1.2625062,-0.1978142,-1.338789,-1.1434261,-1.7668415,-1.5412798,1.9991568,0.23209539,1.2463505,-0.42164236,-1.1888733,-0.83546734,-0.082198784,-0.029216293,-0.44847593,-1.4164424,-0.94267637,1.2831664,0.45096937,1.0681143,-0.75457877,-0.22659951,0.82752013,1.3052613,0.5487551,-0.40910715,-1.5269939,-1.1151859,-0.3132905,-0.9907314,-1.0476,1.3200063,-1.2371316,-0.5565716,-0.3726164,-0.3999466,-1.0321323,-0.34720963,-1.12434,-0.4855799,-1.6536942,-0.5394812,-1.2465358,-0.61849666,1.0061876,-0.8281913,0.5397079,-0.14779577,-1.7584047,-1.3292407,0.09305207,-0.157291,0.6239675,-0.6235862,-0.44633028,-1.3470037,-1.2059994,0.96198124,-1.4679002,1.2871181,1.3219514,-1.3396201,1.5383103,-0.36148843,0.14932689,0.25135547,1.04705,1.3039132,0.5262923,-0.22278117,-0.8072305,-1.237304,0.65227246,0.051236767,-0.5823597,-0.78229046,-0.11442004,-0.4089302,-0.40229428,-1.2914137,0.93711764,-0.48258784,0.4608872,0.55909395,-0.1859136,-0.16557626,-0.2057267,-0.57780284,-0.37245187,-1.5201749,0.032288242,-0.56266063,0.79209584,0.044863988,0.4365086,-0.650075,0.5069693,0.95032746,0.87428874,-0.66487384,0.014589242,-1.3612422,-0.5604533,0.53737885,0.8133706,-1.2180926,2.043551,-0.82155985,-0.7123323,-1.0567667,-1.0285201,-0.806686,0.44832388,-0.72560364,0.35112247,-0.72018963,0.70061433,-1.0215447,0.6173899,0.21882561,-0.7771875,-0.34976646,1.0454469,-1.1656559,-1.3312914,-0.72871256,-0.72980416,-0.23902123,-1.1819992,1.3036783,-0.12537359,-1.2030318,-0.8971488,-0.78723645,1.0574808,-1.2926902,-0.4256384,-0.15390468,-0.06329449,1.4396096,0.54598,-0.4122894,-1.2331882,-0.34216088,1.735951,-0.70064634,-1.0230918,-0.09625208,-1.2152456,0.3513384,-0.9728012,-1.0327868,0.44228923,-0.8541908,-0.06174927,-0.9036927,1.0979425,-1.4576758,-0.34134373,0.5755522,-0.57042706,-0.19613561,0.92914766,-0.27428716,0.2038189
DRUG_ATC_C2,-1.0964518,-1.0756612,-1.4571801,-1.1130316,-1.0725294,0.9482932,-1.2003632,0.72454435,-0.959822,-1.2970966,-1.0213581,-0.8841893,-0.8630164,0.54602855,-0.68378353,0.46823555,-0.8989831,-0.9403894,-0.92747,-1.148526,-0.8876335,-1.250933,-1.4063349,-1.0613168,-0.4947056,-1.1990112,-0.60987073,-0.19140926,-1.0408686,0.21548864,-0.54677945,-1.0365012,-0.7510477,0.6891556,-1.4437962,-1.0535605,-0.8861992,-0.6293173,-0.901842,0.93117803,-1.1051663,-0.9013807,-0.8477893,-0.8062542,-1.0532488,-1.083073,-0.9548203,-0.97716403,-1.2131332,-1.0351783,-1.3215395,-1.0257903,-0.5893321,0.3308872,-0.16513413,-0.7810424,-1.0518324,-0.938978,-0.924892,0.7397805,-1.0831044,-0.94777447,-0.9997433,-1.1231954,0.8556254,-0.9509895,-1.1542269,-0.96611226,-0.95735556,-0.8890964,-1.0631484,-1.0113064,-0.6238625,-0.8622799,-1.4263088,-0.7962304,-1.1758707,-1.0672331,-1.0988694,-0.98177695,-0.25875735,-1.1382214,-1.0713464,-1.0560212,-1.0284011,-1.1775169,-1.0711352,-0.5039735,-0.20139575,-1.3830086,-0.9861553,-0.82870686,0.6186064,-0.90328044,-1.1922258,-0.41158724,-1.0218282,0.10710066,-0.7633482,0.9104987,-1.118877,-0.24507263,-1.0972397,0.44658935,-1.3245628,-0.5911906,-1.0963039,-1.1808879,-1.1293166,-1.0086266,-0.98372364,-1.0630991,-1.144754,-0.15584278,0.052292097,-0.40677908,-1.1031413,-0.9492122,-0.09734778,0.9916102,-1.0431222,-1.5422814,-0.7954921,-0.055898517,-0.58873177,0.82791096,-0.2574599,-1.0384018,-1.3652949,-1.0560737,-0.99776924,0.29308397,-0.9172609,-1.0819634,0.0356857,-0.8578697,-1.1707064,0.49142337,-1.2030869,0.10595572,-1.2151179,0.94847846,-0.5822571,0.8834163,-0.91519225,-1.2507962,-0.7863733,-1.187215,0.56929964,0.8054367,-1.3627472,-0.7457472,0.11911826,-0.8811886,-1.0610987,-1.0137663,-1.0704368,-1.2409852,-0.43301332,-1.1996982,-1.1168017,-0.5095822,1.0032675,-1.204745,-1.0208638,-1.13442,-1.3192576,-0.16785039,-1.1154003,0.29644978,-0.931736,0.84808284,-1.2663977,-1.1108114,-1.0280294,-0.979772,-0.97774965,-1.2263873,-0.54802924,-1.2685889,-1.1512339,-1.2078661,-1.0024562,0.8721878,0.97920704,-1.0668473,-0.98912656,-0.9400065,-1.2519971,-1.0575289,0.8132994,-0.91864604,-0.94854575,-1.1043648,-1.2738103,0.50803894,0.05338613,-0.9716053,-1.1864208,-1.1949584,-1.0065842,-1.0571297,-1.0017313,-1.1355895,-1.2570959,0.850882,-0.69252306,-0.99830955,1.1787883,-0.9737509,-0.5103049,-0.99221414,-0.17878515,-1.0733428,0.39317578,-1.0266784,-1.2341343,0.0114863515,0.31205502,0.8112765,-0.88716185,0.56804943,-1.1578957,-0.32941172,-1.3023428,0.7485329,-1.155047,-1.1653075,-1.0716313,-1.3068452,-1.1959449,-1.0308499,-0.8127245,-1.0409135,-0.16537319,-0.9853491,-0.53736335,-1.3837842,-0.89454275,-1.0017309,-1.0281374,-0.7732995,0.27942768,-1.050216,-1.0827945,-1.0427277,-1.1846722,-1.2074294,-1.0930898,-1.1085709,-1.2545762,0.9903203,0.8364586,-1.0728904,0.82796866,-0.71716833,-1.2126354,-1.032706,0.5808996,-1.0458776,-0.922438,-1.1746203,-0.8239542,0.9169258,-0.5287473,-1.3322202,-0.9569117,-1.2154056,-0.79322016,-1.0645347,-1.1886365,-0.97063476,-1.2288272,-0.9100537,-1.2301531,-1.0190225,-0.6723006,-1.1299424,-1.1621504,1.1400357,-0.9181501,-1.2114265,-1.1883826,-1.2796568,-0.9302529,-1.2196779,-1.1592054,-0.88526416,-0.6637801,-0.9693192,0.31497875,-0.17634988,0.6385388,-0.98132354,-0.983446,0.3568092,-1.2263232,0.47846383,-0.8943535,-1.2064631,0.091686435,-0.91809833,-0.4330076,-0.88037056,0.62670195,-0.39989677,0.7184503,-0.98270464,-0.5886951,-0.2807223,0.57796186,-0.118012674,0.9047302,-0.5944578,0.9855527,0.49865305,1.169976,-0.5433202,-0.27614218,0.037564866,-0.040826004,-0.40993705,0.21348575,-0.38226852,1.1897824,-0.5706889,0.54286194,-1.0022701,-0.5581632,-1.1355574,0.96209335,-0.31095076,0.62230545,1.0232747,0.14217684,0.92936087,0.24559252,-0.6106391,0.6186644,-0.73509115,0.45285043,1.1943438,0.6381236,-0.3012579,0.37448275,-1.1445304,-0.57820284,-0.8210157,-0.6263279,0.3629994,0.11691305,0.6551136,1.2833416,0.25835687,0.57897896,-0.5646035,-0.8058853,-0.5978844,1.0613475,-0.9043921,-0.87584615,-0.5580773,1.0067315,0.629768,0.6518002,-0.3979149,0.63378614,-0.14238611,-0.06857325,0.42153588,0.69034237,0.23435906,-1.0376444,0.7813308,-0.42527723,-1.0518094,0.64712805,0.09131063,0.35895017,0.37534192,1.2511479,-0.8170608,-1.0053238,-0.22647063,0.5277126,-1.062151,-0.11803388,-0.5342801,1.5860895,-0.66466403,-0.3472736,0.5272149,-1.108588,0.31343618,0.04573101,-0.8516464,1.0727807,-0.8509621,-0.28955227,1.0816975,-0.6097978,-1.0023003,-0.17840718,0.83138454,0.4101245,-0.80738765,-0.16658416,0.51319325,-1.0105047,-0.10927334,0.45533141,0.64546084,-0.20185483,1.1751466,-0.94257015,-1.3937021,-0.14814016,-0.090515316,-1.0937905,-1.0264003,0.59658617,0.56920075,0.94857967,0.8935484,0.3432013,-1.12289,-1.1205871,0.9760489,-0.01670152,0.5837504,0.29971913,1.141996,-0.3468797,-0.49364462,0.81085163,-1.044398,-0.29773122,1.126379,0.23894131,0.8291517,0.7760165,-0.47880772,-0.32802787,0.81886715,-1.0642565,-0.6746091,0.8555546,-0.3481653,-0.845181,-0.46935433,-0.38170868,-1.0205433,-1.2465751,-0.57225156,-0.50166726,0.53726786,0.5401959,0.5220617,0.57525873,-1.1229903,-0.37258905,1.0562422,-0.08037469,-0.9788526,-0.72465366,0.25555125,-0.4500439,-0.632959,0.3853778,0.82253134,0.4855243,-0.47301635,0.5704246,-0.34052318,-0.38749975,-1.0292315,0.38193256,0.5948519,-1.0497223,-0.49892753,-0.9700099,0.49420315,0.35985172,0.8353701,-0.8726867,-0.27905095,-0.14416988,-0.8220799,0.86200935,0.78139234,0.4608333,0.7605904,-0.18834268,-1.2333386,0.69286627,-0.56810766,-0.2603014,-0.71228737,0.9338889,-0.5988849,0.18675399,0.6465659,-1.1424193,0.16800325,0.73036575,-0.88197833,-0.94055295,0.41998523,-0.55737144,-0.6633704,0.9594832,0.34039414,1.0871861,0.46912277,-0.6795341,-0.15018865,-0.9799329,1.2133435,1.1975411,0.5273304,0.33457524,0.8312353,-1.1702399,-1.378791,-0.28832844,1.0010918,0.42236504,-0.09234186,-0.5109374,0.76923007,0.12425793,0.3168586,-0.30256167,-0.8140643,-1.0460792,0.8628153,1.4125999,0.82358783,-0.63948244,-1.0549555,-1.2306484,0.8212418,1.1397785,0.31740555,0.6213229,-0.718393,-0.24385202,0.13673143,-0.009408237,-0.04380958,0.04987324,-0.6563242,0.52509534,0.77509975,-0.8200149,-0.91064674,0.31303912,-0.14326698,1.0120791,0.3561199,0.37492147,0.5094839,0.67660046,-0.93975806,0.36763576,-0.3060389,-0.92254525,-0.4083236,-0.7428182,0.47072536,0.53882176,-0.6163516,0.4374768,-0.35020673,-0.41154942,0.80940926,-0.6772903,-0.67020565,0.46885416,-0.5212911,-0.44087672,-0.7234217,0.39523447,-0.34654066,0.062319394,-0.64868844,0.24477494,0.21253279,-0.42319933,0.6275679,-0.7393996,1.0320785,-0.22590202,-0.35240397,-0.62420744,-0.11270415,0.24881525,0.12920895,-0.18028787,1.0878942
DRUG_PATHWAY,1.1312122,-0.33095258,-1.0597806,-0.5246852,-1.0070786,0.4308325,-1.0928257,-1.0039294,-1.0602419,-0.97005934,-1.0294918,-0.89756787,-1.0656579,-0.066491336,-0.69558805,-0.45713124,0.24288692,-0.948456,-0.9396003,-1.0162686,-0.74613893,-1.0529755,-0.7581894,-0.98574305,-1.3138559,0.19035842,-0.63549864,-1.1818969,-0.76914376,1.071395,-1.0814338,-0.8863214,-0.8066985,-0.6620582,-0.78388125,0.18287241,-0.6612723,-1.0167903,-1.1153665,0.83604956,-0.94819814,-1.1140056,-0.9272247,-0.9833344,-1.0399029,0.048090547,-0.831866,-1.0242676,-0.859504,-0.9546905,-0.89927375,-0.9410583,-1.1161387,0.99040216,-0.91955143,-0.8346087,-0.8787952,0.40421066,-1.1290475,-1.3221668,-1.1657125,-0.89810693,0.95016646,-0.9043899,0.45353186,1.2231548,-0.99389446,-1.0588044,-0.9355259,-0.7924988,0.9280857,-0.9650221,-0.89908034,0.70877784,-1.1242101,1.1645557,-0.79913706,-0.2902258,-0.89312315,-0.9916105,-0.9819088,-1.1902806,-0.18876363,-0.33440647,-0.9190328,1.033581,-0.98597574,-0.94775724,1.1895099,-1.0484244,-0.8718175,-0.8810809,-1.0358737,-0.84315836,-0.88740057,-1.0937264,0.2484386,-1.1401058,0.8184809,-0.34494114,-0.788805,0.18747412,0.032966055,0.83035344,-0.90763503,0.8494491,0.22128914,-0.90387046,-0.4162419,-0.816352,-0.038900666,-0.7284437,-0.85494566,0.7702694,-1.0969676,0.7365221,-0.9403708,-0.881667,0.9804662,-0.5407372,-0.8216976,-0.8900921,-1.3590393,-0.73725766,-0.3308844,-1.1180732,-0.12555425,-0.5713094,-1.0099286,-1.0009546,-0.95279974,0.79358476,-0.63984,-1.0567541,-0.398662,0.522136,-1.0874181,-0.99143106,-0.6083686,-0.99112076,-0.8965838,-0.9669168,0.54043573,-0.67785376,-0.91945714,-1.071484,-0.6761535,-0.96429074,-0.89683723,-0.8438566,-0.7702761,0.81171745,1.1499321,-0.82064104,-0.77134764,-0.93694717,-0.8989269,-0.17306831,-0.6506591,-1.1305741,-0.9283869,-1.0811388,-1.1648148,0.117322005,-0.69593704,1.1377583,-1.1941571,-0.2764793,-0.9282617,0.90189326,-0.9101634,-0.123350516,-0.5325212,-0.7896275,-1.0096436,-1.0019499,0.74743783,-1.2104095,0.88448083,0.80234957,0.14921637,-1.0071629,-0.9164205,-1.1180882,-1.203806,-0.889421,-0.9309497,-1.0193621,-0.78164107,0.3308618,0.78362375,-1.1590412,-0.719806,-1.0975064,-0.84028506,0.74082595,-1.1057324,1.0580249,-1.1187625,-0.5760021,-1.0527099,-0.9348549,0.7017136,1.0269421,-0.92179775,-0.5061368,-0.3095964,-0.5013761,1.0805161,-0.97253615,-0.8131048,-0.51287335,-0.92368513,-0.92021894,-0.068489775,-1.1029727,0.5907555,-1.0878512,-0.79977137,0.3011572,-0.85649645,-0.919194,-0.92548895,0.8542414,1.0790536,-1.0080084,-0.68933254,-0.97638655,-1.0117283,-0.6586722,-0.15302832,-1.0005924,-1.0312941,-0.42196015,-0.66645104,1.2198931,-1.1026523,-0.83434004,0.5015651,0.59544355,-0.023594474,0.54831946,0.8252381,-0.85815614,-1.1141169,-1.0109912,-0.8835235,-0.9625914,-0.82607365,-0.91785747,-0.92768246,-1.1367356,-0.9124333,-0.8936193,-0.42510924,-0.95668674,-0.86137,-0.9175021,-1.1562661,-1.1110198,-0.92934775,0.2636437,-0.07285975,0.7111201,-0.9323238,-0.9982845,0.81889653,-0.94754136,0.8543428,-0.95193696,-1.0878443,-0.903795,-0.785191,-0.9896224,-1.0149052,1.0886226,-0.8751286,-0.82053804,-1.2504145,-1.0762277,-0.84925914,-1.0893615,-0.95422935,-1.1090249,-0.8945916,-0.9398517,-0.9555309,-0.83757037,-1.0686811,-0.9847814,0.22947447,-1.0154134,-0.81020266,-0.32405072,-1.1161449,1.0811526,-0.9102142,0.14360622,-0.8867065,1.1343335,-0.6308206,-0.8390344,1.0759964,-0.47844642,-0.192706,-1.0978848,0.37327883,0.82292,0.04803229,-0.6473452,0.51316404,0.44182473,0.514893,-1.068666,0.8364474,-1.2123747,-0.9329745,-0.8631721,-0.81967634,-0.50996846,0.6767688,-0.73752993,0.996387,-0.82693744,-0.3401706,0.6473501,-0.8590519,-0.87918234,-0.15010393,-0.991385,-0.9301118,-0.2552874,0.8530789,-1.0521963,-0.5287239,-0.4485585,0.17858003,0.8682459,0.52796626,0.21985817,0.45403937,0.032652207,1.1675406,1.1085776,0.44180766,-0.7476539,0.63760275,0.13493259,-0.13655555,0.13915575,-0.5978812,0.7281746,0.87850124,-0.5157725,-1.1291134,-0.88428694,-0.3102241,-0.34695292,1.1015934,-0.92197615,0.8792217,-0.23206657,0.5072234,0.18040396,-1.158134,0.14414187,0.4158898,-0.60318244,1.1020272,0.64382863,-0.4246289,0.12054933,-0.47835675,0.8098176,0.5983854,-0.22801986,0.29075682,-0.7190121,-0.13211668,0.7773002,0.9545292,-0.387037,0.6452598,0.8430743,0.83163404,-0.09618138,0.26069906,0.77661943,1.1531765,0.6829785,-0.39794472,0.7857317,-1.1402212,0.76623386,0.009812111,-0.89266896,-0.83764696,-0.8207654,0.40656245,-0.9232346,-0.7209353,-0.7514321,1.0758069,1.1744705,0.042538922,-1.0554143,0.6238513,-0.15672502,-1.0157336,0.03131505,1.1465284,-0.7902061,0.32564542,-1.2717364,-0.69759554,1.0482459,-0.76417106,0.31926736,0.76526225,-1.1737032,0.3575105,0.9009204,-0.11629554,-1.1394986,1.1352208,0.46945405,-1.2124575,-1.0038005,-0.32345086,0.029903844,-0.5584057,0.08097564,-0.21210264,-0.038213015,1.2188222,1.0927296,0.27233073,-0.9264072,1.051266,0.8292814,0.659356,-1.280832,1.0229238,-1.1639035,0.16212802,0.51717985,-0.9179642,-0.71683735,-1.0052623,-0.89887017,-0.3880334,-0.6465878,1.0564085,-0.6263138,-0.60148406,0.30557767,0.48931307,-1.035059,-0.57901216,0.37525004,-0.5545586,0.95995575,-0.5075663,0.8609655,0.116927676,-0.7056234,-0.1289598,-0.8590174,0.4779674,-0.914889,0.2666409,0.91310775,0.878899,-0.11163202,-0.45816353,-1.0436304,0.56830007,-0.18464519,-0.8740383,0.914129,1.1743724,0.28366032,0.43717378,1.1389872,0.6718682,-0.9264298,0.27112043,0.6369296,0.78110254,-1.1552254,0.7852255,-0.6437738,-0.24401665,-0.19636852,0.28471205,0.86035866,0.25256926,0.7267915,0.14913435,-0.25798538,-0.22966114,-0.067307375,-1.1263027,-1.0994966,0.7076406,0.75261426,1.1594139,0.252878,-0.9380529,-0.64842635,-1.0657572,0.95223004,0.18533783,0.09972817,1.1188654,-0.49992508,0.6829937,-0.7325863,1.0798833,-0.3918683,0.57834506,-0.73205394,1.1349471,-1.1791276,-0.15058146,-0.1123639,0.7956766,0.5604745,-0.27612662,1.0921675,0.83598197,0.10583182,0.14489518,-0.7123528,0.47698966,0.8109827,0.19860989,1.0236832,0.97409487,-0.96323824,-0.70815384,-1.1575575,1.0873238,0.617203,0.80266666,-0.16703472,-0.078564614,0.30419716,-0.15509298,0.3004146,0.111694925,0.13496311,0.032298442,0.3533755,0.9540935,0.9699503,0.43415818,-0.12410116,0.19509257,0.6364259,0.44221863,-0.12283034,-0.97392225,0.15648012,-0.9295276,-0.27044523,0.9465112,-0.5076212,-1.0537493,-0.3809966,-0.35829854,-0.8022858,0.7716805,-0.45304316,0.68743145,0.7353209,-0.03400871,-0.5924112,-0.35498938,-1.0900539,-0.43948925,-0.40029034,-0.87771785,0.9003055,-0.11287315,-1.0173758,-0.40647072,0.27211872,-0.95869684,0.58844876,0.90019876,0.87603694,-1.186196,1.0379592,0.38123897,-0.78210384,0.2551327,1.0593044,0.21550208,-0.7196135
DRUG_ATC_C3,-1.2101297,-1.2182583,-1.4286143,-1.3863684,-1.1250134,-1.2539401,-1.2092592,-0.98515,-1.4715898,-1.2311643,-1.3943102,-0.88982373,-1.0938737,-0.7271425,-1.2770934,-0.59606487,-1.21824,-1.1892989,-1.0124134,-1.064019,-1.0640793,-1.42595,-1.5382168,-1.1040556,-0.5769166,-1.2085527,-0.7075794,-1.3162827,-1.066729,-1.0426791,-0.69917744,-0.9849562,-1.040957,-0.9725368,-1.3981835,-1.1994176,-0.9063459,-1.0364625,-1.1204756,-1.3748004,-1.0654589,-1.4351231,-0.3484665,-1.0668508,-1.0239074,-1.2376604,-1.009741,-1.0877736,-1.1907938,-0.986207,-1.3928581,-1.0453417,-1.4310974,-1.2523751,-0.7635104,-1.0164933,-1.1627504,-1.1071264,-1.1766165,-1.1031777,-1.2809519,-1.1213752,-1.4624496,-1.0838985,0.68261516,-0.83107907,-1.1315825,-1.0945303,-1.621288,-0.98056513,-1.3417269,-1.0383035,-0.46953204,-1.4627303,-1.1503763,-1.284883,-1.2560135,-1.0273577,-1.055409,-0.9756124,-1.1030376,-1.0278267,-1.1849495,-1.1731869,-1.2015611,-1.4306784,-1.1727443,-0.9817614,0.8312981,-1.3373969,-1.0218043,-0.90704143,-0.98947847,-0.9956558,-1.1012104,-0.88222814,-1.4466407,-0.75667644,-0.4554593,-1.1328925,-1.1945343,-0.9284091,-0.81868744,-1.4549319,-1.3140674,-1.4437754,-1.1477233,-1.035494,-1.3477165,-1.088268,-1.1572548,-1.4186776,-1.1251724,-0.96094763,-1.1749234,-1.5256422,-1.2104601,-1.1809105,-0.9001528,0.84793466,-1.0776813,-1.5465627,0.7714304,-0.59477484,-0.9586529,-1.5228019,-1.3009626,-1.4641653,-1.3230077,-1.1214807,-1.0369054,-1.3701166,-0.87112314,-1.1572491,-1.2733545,0.99197173,-1.1320968,-1.2707181,-1.2217331,0.44483864,-1.3696668,0.6068431,-0.52219,-1.5674361,-1.2013637,-1.232048,-1.2080206,-1.0292207,-0.8930808,-0.96988404,-1.490292,-0.9295378,-1.4776319,-0.93693894,-0.96888983,-0.94322157,-1.1133205,-1.2879082,-0.9269806,-1.2253641,-1.1614512,-1.2632705,0.97176754,-1.3390622,-0.98540986,-1.3994796,-1.4635091,-0.68026406,-1.0953014,-0.91837835,-1.1146265,-1.1884181,-1.2583239,-1.1616023,-0.99535906,-0.96427757,-1.218861,-1.2548753,-0.98479444,-1.0619549,0.5777643,-1.229668,-0.9792351,1.5322764,-1.0726188,-1.0026066,-1.1379682,-1.1426876,-1.3216475,-1.2376838,-1.1293173,-1.1645175,-0.8192277,-0.93328404,-1.1976992,-0.21460436,0.4798292,-0.8853837,-1.3854218,-1.2717787,-1.4110186,-1.0583216,-1.4484667,-0.032715358,-1.1481402,-1.3358876,-1.4299966,-1.0831351,-1.4822013,-0.9975506,0.075251065,-0.8946444,-1.3194774,-1.098582,-1.0822523,-1.1029805,-1.4662626,-1.2091175,-1.1441786,-1.0964645,-1.0205622,-1.1814345,-0.7235498,-1.6203759,-1.3021547,-1.0674217,-1.3032732,-1.2272519,-1.1526978,-1.4032753,-1.3244771,-0.9402568,-0.94943357,-1.3410134,-0.83878666,-1.4460793,-1.5774475,-1.5367997,-1.2999353,-1.2596971,-1.2905036,-1.4062903,-1.2650607,-0.96959215,-1.1134977,-0.9698855,-1.2291863,-1.0436711,-0.97126096,-1.2097477,-1.2390668,-1.1324399,-0.6004687,-1.1738831,-1.2051184,-0.7921187,-1.2206681,-0.95995057,-1.4126725,-1.2578144,-0.9777075,-1.3223505,-1.0587959,-1.5154854,-1.0879918,-1.3403271,-0.9229382,-1.2726058,-1.2917635,-0.9939475,-1.2148379,-1.0645782,-1.1366929,-0.98789537,-1.1562668,-0.9337161,-0.15966555,-1.1469364,-1.1629192,0.8688792,-0.9585816,-1.1748278,-1.2209713,-1.2738413,-0.95998377,-1.1984165,-1.0418406,-0.9715082,-0.60057485,-1.0543611,-0.27265885,-1.0424765,-1.2791071,-1.1473056,-1.1105821,-1.4138566,-1.3226525,-1.451418,-0.87786764,-1.2183423,0.28105983,-0.13520679,-0.4421792,-0.2341287,0.5720027,1.0407164,0.29417264,1.1253887,0.22959724,-0.61480904,0.20367709,0.07882359,0.7688912,0.6393454,-0.19801271,1.103687,0.90159476,-0.14299582,-0.3271109,-0.29808825,0.14322083,-0.19829485,0.5668136,0.24653956,-0.56293935,-0.52090967,0.7820452,0.63793796,0.14208093,-0.9646375,1.0500754,-0.30200672,1.0641694,1.0910355,-0.57882994,0.105094366,0.17353198,0.9387735,0.46448058,-0.6922512,-0.17496781,0.7482846,1.195154,0.6438709,-0.02580941,-0.9479471,-0.634478,0.20351554,-0.33455208,0.060776755,0.043733895,0.4451428,1.0180657,0.26971158,0.9794891,-0.94470024,0.20739046,0.16542141,0.55063164,0.89225674,0.7472794,-0.051159807,0.2124721,0.71435267,1.0789964,-1.1490568,0.20242414,0.010890732,0.7854367,0.35306102,0.124579646,0.12423518,1.2024455,0.091436446,-1.0728627,-1.0219829,-0.21074142,0.36164314,0.070279084,0.087915115,-0.5801435,0.1961386,-1.0948111,0.9039396,-0.5829639,-0.4828205,0.39759707,-0.61183,-1.2767843,-1.1411883,-0.0833492,-0.14453281,1.2762929,0.23942225,0.10913267,-0.95239323,0.915224,-0.5144108,-0.7573635,-0.26066697,-0.28644732,0.70160395,0.9234294,-0.3414071,0.8240555,0.8364932,-0.83994716,0.77217185,-0.3714199,-0.21885571,-0.45682633,0.41704068,0.27983037,1.1629319,0.22501004,-1.2362409,0.22727852,-0.030435605,-1.2836578,-0.8057263,0.39621016,-0.3333091,1.1623672,1.2198745,-0.2607691,0.4207286,-0.9076891,-0.17728618,0.59558547,0.7031368,0.596749,-0.6024105,-0.017087486,-0.051104803,0.026533784,-0.985682,-0.25446787,0.9126122,0.055047102,-1.0000522,-0.9727652,1.1267773,-0.48667377,0.3154207,-0.99737346,-0.8803011,-0.36240432,0.17202565,1.0364748,-0.59875596,-0.32764202,-0.92536086,0.9407842,0.22844562,0.3338942,-0.21260653,-0.5940419,0.20642094,1.0791104,-0.4654471,-0.422294,0.99875706,-0.07462865,-0.44312817,-0.39835623,0.31926927,0.2503998,1.1374465,-0.41803056,-0.9034661,-0.088778555,1.0652307,0.09636839,-0.66322047,-0.06646236,-1.2179403,-0.39964354,-0.7933435,-0.652077,0.46338972,-0.85410964,0.22010371,0.16523899,-0.94016707,-1.1249622,-0.17270863,0.22636655,-0.72407734,-0.13781133,-0.018907484,-0.855095,-0.5889714,0.15143535,-1.4776661,0.29506075,-0.86854124,-0.5231515,0.8320465,-0.4585572,0.06988446,0.03676447,0.5510357,-0.15713792,-0.43041706,-0.49231392,-0.9139888,-0.28529966,0.35237753,-0.5525318,-0.48598817,0.8335785,-0.018029664,0.60289764,0.05165776,-0.5776432,0.5630547,-0.4650525,-0.14186049,0.97148746,0.65418106,0.27978802,-0.18569161,-1.3272718,-0.05994974,-0.92578655,-0.3184527,-0.16664994,-0.08635747,0.2073485,0.41328746,0.74130577,-0.16816917,-0.39522135,0.07518485,-0.54280156,0.49549896,-0.6775854,-0.32867154,0.08855116,0.7261719,-0.8159029,0.84397334,0.7639278,-0.13516405,0.38402188,-0.61332446,-0.017055571,0.41590008,0.38770363,0.3279279,-0.40585446,-1.0101529,-1.0355673,0.09703018,-0.890058,-0.99595,-0.58393013,0.3239978,0.54404384,-0.97008276,-0.11758639,0.3864602,0.7809957,-0.79264176,-0.28664267,-0.56029135,1.2031343,-0.28786093,0.5403389,0.5231698,-0.17910074,-0.39273003,-0.050842762,0.043197636,1.1055747,0.35069454,-0.9325692,-0.5732341,-0.27751878,0.12920818,-0.45875764,-0.7092453,-0.7307134,-0.51450896,0.34177157,-1.0117164,-0.47085258,0.089211,-0.005244186,0.48459968,-1.0522368,-0.56495464,-0.85792714,-0.4015719,-0.2665738,-0.6228687,0.040859155,-0.36803257,-0.053662967,-0.58346796
TYPE,-0.5812402,-0.0055767125,-0.71029997,0.40107557,-1.3532244,-0.8788447,-0.77341896,0.19530503,-1.4192774,-0.41697896,-0.45132625,-0.09935362,0.23208517,-0.5131904,-0.46692774,0.13903743,0.52380556,-0.84020513,-0.569953,-1.342914,-0.4405566,-1.0395973,-1.0752746,-1.1842165,-0.83707076,-1.212454,-0.36486635,0.80687964,-0.91690344,-0.36113954,-0.7450687,-1.2314382,0.22003956,-0.7738053,-0.99962,-0.52968115,0.0373698,-0.34754932,-0.49060357,-0.42537364,-1.2104179,-0.36153105,0.83430296,-0.5498887,-0.48493415,-0.5001142,-0.63896996,-0.36676538,-1.2799733,-1.2559768,-1.1162732,-1.3232042,-0.590646,-0.5364468,0.68108666,-0.39848116,-0.31523255,-0.40420148,-1.1674602,0.46418855,-1.0485809,-1.0215763,-0.49148,-0.93255013,-0.5731268,0.76086193,-1.3139342,-1.0712328,-1.3291622,-0.5193352,-0.43923193,-1.3192462,-0.6037726,-0.5733789,-0.19435585,0.5015802,-1.2852767,-0.37357107,-0.77971995,-0.37426335,0.7600343,-0.084913276,0.37620595,0.06896862,-0.20503728,-0.3525298,-1.3692873,-0.9361171,-0.39060903,-0.3315007,-1.0236816,-1.1257828,-0.53991646,-1.1089892,-1.2676494,-0.47607547,0.05564978,-0.8125931,0.055579074,-0.33105102,-0.8549889,-0.46647245,0.18662392,0.042370975,-1.3424793,-0.7842976,-0.9273329,-0.7375677,0.5417967,-1.0836371,0.6157439,0.092795275,-0.7877254,0.7590141,-1.0929086,0.5528736,-1.3386661,0.13006286,0.5756536,-0.54445493,-0.6406972,-0.8816147,-0.7800844,-0.177356,0.13976309,-0.83859986,0.16240788,0.29244787,-1.3535188,-0.95846045,-1.2741524,0.10183005,-0.50123906,-0.8838331,0.5898647,0.2209832,-0.80045277,-0.18622836,0.59889174,0.7613578,-1.1248518,-0.2804481,-0.91151804,-0.62650704,-0.28330696,-0.092821606,-0.492923,-1.0964499,-0.97892636,0.58884156,0.50732243,0.40346935,-0.5460989,-1.2197478,-0.6596893,-1.1278132,-0.84965754,-0.8457729,0.5214575,-0.18858363,-1.2856488,-0.0680485,-0.6860811,0.497942,-1.1875509,0.18827848,-1.170307,-0.55591303,-1.3510267,-0.34727216,-0.5829217,-0.16982773,0.4240723,-1.1609458,-0.85116327,0.4556749,-0.40621984,-1.4303056,0.35818878,-0.7086588,-0.5021163,-1.0191103,-1.2627131,-0.22295533,0.23970732,-0.42168486,-1.2512798,-0.5475078,-0.8903446,-0.7128585,0.69490874,-0.70858115,-0.2806151,0.5791736,-1.0082394,0.6326979,-0.553019,-0.7901296,-0.8381457,-0.7116013,-0.74374306,-0.86394024,0.71445644,1.0577755,-1.2003353,-0.81485313,-0.9345948,-1.2755936,-0.7094053,-0.42813444,0.03631033,-0.33265123,-0.71177423,-1.4087849,-0.88147193,-1.0528324,-0.6165367,-0.3993913,-0.6951176,-0.78873926,-1.1668466,-0.64736366,0.27660424,0.43421897,-0.6355334,0.45908245,-1.3476776,-1.0723191,-0.6814694,0.30319753,-0.5666901,-1.2467895,-0.010447022,-0.20770709,0.5999168,-1.0039444,0.5353512,-1.1801026,-0.32385707,0.3629298,-0.110578515,-0.7606464,-0.3968381,-0.840785,0.02522142,-0.92756724,-0.8565306,-1.2042732,-1.3314954,-1.0202376,-1.34758,-0.3916296,0.63782334,-1.0514909,0.4424743,0.55774224,-1.1613216,-1.3028954,0.46641845,-0.18411145,0.2040897,-1.2227961,-0.697874,-0.36860356,0.2124503,-1.1654125,-0.44548833,-1.3210773,-1.1437705,-1.3500504,-0.82462317,-0.30433458,0.030891964,-1.1964923,0.52282727,0.47956654,-0.86041784,-1.3530091,-1.3004823,-0.5252638,-0.7158708,-1.40071,-0.5512529,-1.4201416,-0.75221914,-0.88621837,-1.3355875,-1.3407928,-0.39355856,-0.38337138,-0.9580928,0.32783473,-1.0746012,-0.5282942,-0.48466146,-1.1014053,-1.2915705,-0.8951004,-1.1087358,0.7416813,-0.39680287,0.7467309,0.9564314,0.2941648,-0.47860858,0.168149,-0.21125728,0.46240202,0.2696381,-0.42466816,-0.5857847,-0.9746119,0.31011724,-0.34872156,-0.43970945,0.72525084,-0.0010083914,0.8283194,-0.19904785,0.33866718,0.25336492,-0.0872197,-0.8479969,0.66649425,0.06352297,0.6415722,0.83330095,-0.31271163,-0.57703716,0.25443968,-0.11300424,0.01750052,0.6191544,-0.11785991,-0.38177913,-0.36881647,0.9026492,-0.6086135,-0.8221205,-0.47189313,0.32935685,-0.14120239,0.66583353,0.9112942,0.6390246,0.21018599,-1.0208247,-0.24724835,0.9538005,-0.5907361,-0.8397977,0.4319712,-0.03919637,0.047952738,-0.40657386,0.6792714,-0.7766808,-0.52540624,-0.3101762,0.61761653,-0.07200514,-0.030796634,-0.67233586,-0.26550677,0.59872913,-0.45491594,0.3554005,0.11129416,-0.22419523,0.07335678,-0.5211292,0.39640188,0.12510645,0.3315183,0.8159911,0.8760796,-0.68536115,-0.07015881,0.08644966,-0.16772908,-0.37674835,-0.63889986,0.77072245,0.5062146,-0.0623242,0.7035931,-0.3066353,0.7557482,-0.30746946,-0.42534173,0.8632447,0.20619881,-0.625205,0.10511847,0.7790155,-0.26139575,-0.6029775,0.06927635,0.87401044,-0.3169567,0.9854387,-0.31943786,0.43521887,-0.2874202,1.0559983,-0.6205028,0.80448306,0.6173277,0.2471934,-0.60376996,-0.24039647,-0.75570226,-0.8806101,0.25333577,0.91673946,0.46029612,-0.31575194,0.35774598,0.09025706,-0.5168044,1.0013279,-0.68809736,-0.9817001,-0.8026566,0.5123819,0.5699054,0.74107856,-0.44791105,-0.42062834,-0.6783302,-0.6501465,-0.24639903,0.6763906,0.8741907,-0.17099744,0.12127625,0.8779644,-0.47380537,0.00075541396,0.6526332,0.69375795,0.01745685,-0.8594471,0.045784082,0.72145206,-0.57166296,0.6387628,-0.9581912,0.67031556,-0.17553234,0.71168983,0.7223274,-0.9190966,-0.33132803,0.5941427,0.6301523,-0.19010803,-0.084955804,-0.7318403,0.05718334,0.33209738,0.017537931,-0.60775775,0.016373971,0.26043317,0.7101566,-0.13503154,-0.5863754,-0.27109522,-0.6393606,0.24831097,0.29879776,-0.46366102,-0.6352836,-0.15748093,-0.8683822,0.5639352,0.11172949,-0.5121462,0.036314078,-0.8782584,-0.93963164,-0.6488369,-0.123622544,0.09906473,-0.19222438,0.8317014,-0.77422667,-1.0545709,0.57552445,-0.8160047,-0.6813532,-0.7684632,0.3534073,-0.012791195,-0.8404816,-0.734104,0.19896686,-0.46488866,1.0021719,0.61082435,-0.38334602,0.27029997,-0.95736396,0.16030921,0.74354285,-0.64468074,0.7420476,-0.19584829,-1.0682735,0.43730146,-0.7036143,-0.72956336,0.30559117,-0.030259134,-0.7474439,0.13148755,0.5772967,-0.73190606,-0.813353,0.59845823,-0.5616222,0.74992853,0.6163685,0.63817585,-0.15236293,-0.9097974,0.80118686,0.88658816,-0.24586648,-0.6067901,-0.499486,-1.0081595,0.97462356,0.1113264,-0.644687,0.7488288,0.08192394,0.7226935,-0.46393812,0.11634053,0.53267395,0.083376095,0.43271172,-0.53736335,0.7198375,-1.0672045,-0.6354094,-0.45419815,0.51514137,-0.41313532,-0.47788832,-0.5362546,-0.05293241,0.27891734,-0.27838057,0.14416765,-0.13914324,0.15787867,0.8295118,0.91956466,0.21858355,-0.07682115,-0.16680978,-0.5235281,0.880251,0.46632192,-0.52148944,0.13932241,-0.5812239,0.357694,0.4296346,-0.16937701,0.30148944,0.7447714,0.24057561,-0.7655421,0.30292854,-0.80699646,0.93158686,-1.0420946,0.26949316,-0.77777874,0.043699406,0.9792926,-0.55612606,0.27010337,-0.31709015,-0.52380216,1.08795,0.77400523,0.43679535,-0.33918136,1.0237488,0.92397046,0.32967898,0.06621646,0.53832376,0.74886805,0.45757955
PATHWAY_CATEGORY,-0.36509746,0.2275304,-0.49366972,-0.7819431,-1.0884122,-0.15275897,0.09074928,-0.508861,-0.91941124,-0.94818103,-0.9456142,-0.7101115,0.56312525,0.5537233,-0.8604626,0.6080056,-0.06361133,-1.1185036,-1.0355387,-0.8067809,0.43290105,-0.9083755,-0.51143694,-0.5733162,0.2863519,-0.8445374,0.22168283,-0.25986964,-0.8748347,-0.51185924,0.5927491,-1.0906335,0.45732015,-0.46261275,-0.8602541,-0.29052934,-0.8662086,-0.34512416,0.7546404,-0.21075621,-1.0445695,0.62700194,0.037599243,0.6436865,-0.8628763,-0.588636,-0.53329885,-0.4759745,-0.9947543,-0.26808453,-0.85773623,-1.0673923,0.24789588,0.5017842,0.3705559,0.7297107,-0.107467614,-0.15961412,0.635569,-0.53283924,-0.1525661,0.12531605,-0.70086396,-0.8248956,0.55875015,-0.44535857,-0.98727244,-1.0156784,0.27077022,-0.97657645,-0.74119824,-0.5111129,0.38907653,-0.86100554,0.5480547,0.6271926,-0.70859987,0.21577697,-0.90684485,-0.92602116,-0.22289705,-0.54987264,0.4657791,-0.08356294,-0.6585244,-0.061058052,-0.9489143,-0.6287227,-0.0053914445,0.26004577,-1.1081644,-1.0428443,0.1502457,-1.008543,-1.0958331,-0.65900195,0.4491046,-0.19566168,0.16731404,-0.4541192,-0.52809787,0.057494935,0.14264208,-0.6537701,-1.1475759,-0.58530045,0.39512748,-1.0116916,-0.53170127,-0.95593554,-0.24486516,0.08410572,-0.97911733,-0.33337176,-0.9034098,-0.12131069,-1.0667803,-0.37882927,-0.58709055,0.5537759,-0.85490954,-0.6498382,0.43012285,0.10846065,-0.7658784,0.73012865,-0.0472164,0.49885416,-1.0090997,-1.101929,-0.41923693,-0.6032796,-0.8221724,-0.38158435,-0.4984663,0.33107027,-0.6200039,-0.5828817,0.44332767,-0.46247882,0.29887787,-0.10918736,-0.21346505,-0.20897776,-0.03206418,0.18598233,0.21219984,-0.96984667,0.81424606,-0.806877,-0.7354647,-0.6666606,0.42628017,-0.35726526,-0.8301253,-1.07514,-1.0547079,-0.71984524,-0.34962714,0.29117236,-0.6926715,0.32967904,0.33994195,0.4703583,-0.87986666,0.4004986,0.27840185,0.6145051,-1.0717745,-0.8307453,-0.42974085,-0.06443916,-0.31062153,-1.0139078,-0.9361337,0.10761491,0.38292933,0.420088,0.4084859,0.72447336,0.7248757,-0.3562507,-0.079559684,0.1801191,0.84574944,-0.7519495,-0.5673117,-0.96291435,0.008879622,-0.54473734,-0.08735015,-0.56056535,-0.42097148,-0.14952019,-0.94493175,-0.7522511,0.7844675,-0.13496998,0.42546973,0.5667915,-0.33088788,-1.0886306,0.20636983,0.27037916,-0.6857199,0.107415974,-0.29525498,-1.0945302,0.12827349,-0.8868838,-0.5928847,-0.99393064,0.7825028,-1.0380845,0.26383197,-0.76571786,0.3202731,-0.35782507,0.6321603,0.54039896,-0.95784414,0.7027566,-0.09178921,0.18210988,-0.8419852,0.028378632,-1.1893461,-0.85984254,-0.8949147,0.31829673,-0.31182298,-0.9395026,-0.8929431,0.16786633,0.16168697,-0.6147596,0.34523928,-0.41124502,-0.9111574,-0.31899157,-0.30206007,-0.49806195,-0.7199576,-0.9845377,-0.93876076,-0.9811809,-0.75122046,-0.33956563,-0.71975774,-0.60078156,-1.0477083,-0.01828521,-0.5835208,0.1499029,0.5016657,0.4270028,-1.0826758,-1.0119121,-0.52940387,-0.4854845,-1.0938343,-0.4283832,-0.72973716,-0.304095,0.110826455,0.17428188,-0.031663373,-0.2810231,-0.90955526,-0.9627651,-0.7635084,-0.97684205,-0.90630746,-0.86981016,-0.44218424,-0.2758671,0.83702826,-0.059487794,0.2933821,0.47073597,-0.57651377,-0.6142077,-0.4640793,-0.6061567,-0.80192226,-0.25779006,-0.5220764,-0.94620466,-0.04958336,-1.0016685,0.8575748,-0.64956033,0.664733,-0.030046789,0.6919576,-0.7973478,-0.66347295,0.5948724,-0.9743086,0.67840594,-0.20872806,0.031609572,0.8188301,0.8491632,0.4927525,0.42453027,-0.09508745,-0.22670075,-0.967888,-0.072323166,-0.13192935,0.8248876,-0.84038097,-0.70051104,-0.057688694,0.15878493,-0.30607334,-0.4474032,-0.24674663,0.85988176,-0.7289763,0.5935626,-0.64729804,-0.33387995,0.23276478,0.9888359,-0.27810362,0.21002403,-0.6654791,0.061803963,-0.59405893,0.39368233,-0.5642675,0.9748003,-0.2985796,0.002711837,0.01121302,-0.15198891,0.34894088,0.5709907,-0.6566814,-0.6654299,-0.48359123,0.075090244,-0.62468576,0.3458535,0.32225773,-0.5461705,-0.08436269,0.115465865,-0.90962607,0.43928155,-0.37847084,-0.068994276,0.6256199,0.67816323,-0.3371326,0.36691353,0.9537401,0.6591866,0.77307737,0.5917292,-0.6416937,-0.7650723,-0.91385233,0.24143864,0.9501586,0.512977,0.8028296,-0.7769528,-0.9408687,-0.40570065,0.09126218,-0.7507443,0.25535327,-0.030751828,-0.83691895,-0.43192643,0.3780641,-0.38908964,0.66075224,0.2222803,-0.45641848,0.4362772,0.12089815,-0.13473159,0.89968324,-0.52378225,-0.2155485,0.22806063,0.7877956,-0.78396714,-0.5629728,-0.74232167,0.05683757,0.0974605,-0.2672497,-0.57468104,-0.3547637,-0.55213547,0.26861498,0.07901854,-0.37968156,0.15393451,0.18783075,-0.40548468,-0.13713689,0.59975797,-0.5715246,0.8427644,-0.6641669,0.13913274,-0.06727495,0.65964735,-1.0568885,-0.45176792,-0.3926779,0.35965204,0.53821343,0.82166135,0.86604494,-0.18638207,-0.35834843,-0.8170893,0.7769828,-0.58653057,-0.1527919,-0.2186209,1.0549895,0.4640283,-0.014403649,-0.41034797,-0.19926088,0.9438809,0.7371884,0.4494294,0.78866184,-0.046085916,-0.12155249,-1.026759,-0.6156751,0.5509269,0.55375504,-0.5098043,0.32741922,0.31404173,-0.45183346,0.8700871,0.15836672,0.038747244,-0.75887793,-0.43932077,0.6187601,0.77175117,-0.5063521,-0.6638693,0.08333863,-0.40809816,0.3767933,0.63736296,-0.008690025,-0.42504913,-0.21335216,0.41836506,-0.90321094,0.2964618,0.6615325,0.4121979,-0.74592674,0.7186919,-0.85020864,0.9120183,-0.46046212,-0.016466687,0.66608477,-0.6365176,0.5487582,-0.55348045,-0.7022613,-0.74772745,-0.2142096,0.8893114,-0.8834275,-0.53059745,0.43740565,0.1916472,-0.9256353,0.713393,-0.14564994,-0.028651094,0.7273156,0.42785162,0.6373268,0.5836612,0.8450654,-0.6743166,0.20479217,-0.70371073,-0.6799159,0.63761646,-0.1339752,0.73585516,-0.11825747,-0.57804483,-0.54466337,0.28834093,-0.23527597,0.64683336,-0.59201765,-0.21921675,0.3714961,0.81645447,-0.55580306,-0.9478322,0.45822743,0.37409225,-0.026662374,-0.3304064,-0.24194416,-0.54653704,-0.6316704,-0.8114781,-0.19391209,0.13492738,0.5727229,0.8652028,-0.74224025,0.4653003,0.8262737,-0.025246354,-0.47492978,-0.75327504,0.71408576,0.65800244,-0.80947614,-0.68780106,-0.1725508,-0.821737,-0.8226934,0.7330591,-0.6989147,-0.55521697,-0.4441953,-0.33720303,-0.35958037,-0.9387846,-0.36071458,0.67150396,0.9694702,0.9931646,-0.08208337,-0.4230739,0.24134286,-0.1634573,0.51755595,-0.22417764,-0.40235218,0.8809874,-0.19861992,-0.54864013,0.2356819,-0.898266,0.79410845,-0.4066742,0.5159213,-0.7071381,-0.41410106,-0.59066725,0.8992718,0.1582185,0.27797657,-0.44159433,0.1378617,0.80682653,-0.5055972,0.63323605,0.7017454,-0.9512243,0.119135216,0.24474324,-0.5289111,-0.009852949,0.54947084,-1.0428315,-0.84109944,-0.29579255,-0.38601598,-0.017989822,0.042327125,0.11795115,-0.9839785,-0.60070765,0.3115807,-0.81157625,0.33357528,-0.14850847,0.89885557,-0.56794757,-0.03783149,-0.21010351
DRUG_ATC_C4,-1.4231102,-1.3141319,-1.6375064,-1.087084,-1.0232444,-1.4136808,-1.262014,-1.4624815,-1.3914073,-1.1672579,-1.3643264,-1.1209127,-1.2335924,-0.91293675,-1.3982787,-1.2290056,-1.3879269,-1.2166674,-0.92934906,-1.1400627,-1.263934,-1.4225113,-1.7385353,-1.1514069,-1.1392952,-1.2526946,-1.0709811,-1.5181694,-1.116104,-1.5691234,-0.99175256,-1.1022158,-1.0181862,-1.020977,-1.393474,-1.3238155,-0.97079057,-1.2440019,-1.0801758,-1.4002007,-1.0166314,-1.4887508,0.9308933,-1.1304893,-0.9782288,-1.3018875,-1.0607158,-1.0096245,-1.3585348,-1.0917643,-1.4034439,-1.1531256,-1.4992622,-1.6554688,-1.1899269,-1.202113,-1.0065545,-1.2209357,-1.3179735,-1.0900087,-1.4333836,-1.1808629,-1.2445503,-1.1034937,-0.24719381,-1.0651784,-1.1176101,-1.1257005,-1.7608798,-0.8811606,-1.4244325,-1.0673525,-1.3577154,-1.4280701,-1.5770204,-1.5099075,-1.2394773,-1.0577104,-1.0772663,-1.1871217,-1.309873,-1.1961694,-1.409447,-1.5318631,-1.3436279,-1.3455697,-1.1036507,-0.8657102,-0.8444659,-1.5959238,-1.1263103,-1.0352045,-1.6940107,-0.8784444,-1.1121776,-1.0977012,-1.6419317,-1.5309345,-1.0231447,1.2673208,-1.2872823,-1.1018012,-1.5998183,-1.6757269,-1.3848257,-1.7182266,-1.3551666,-1.0509853,-1.397618,-1.0395815,-0.62291133,-1.3659656,-1.21756,-1.3788427,-1.2482882,-1.6336406,-1.2956579,-1.1730417,-1.0881362,-0.84729457,-1.0478257,-1.2637084,-1.0009477,-0.9680244,-1.1495252,-1.5464506,-1.4833353,-1.4136689,-1.2804717,-1.0980076,-1.0992906,-1.3775133,-0.9833576,-1.1573795,-1.4262143,-1.2660705,-1.1978234,-1.1322956,-1.249669,-0.9789291,-1.2838932,-0.12920505,-1.0462701,-1.2308772,-1.4706604,-1.4648385,-1.1317338,-1.2280631,-1.2494533,-1.2215754,-1.5657445,-1.4544528,-1.4964075,-0.9669552,-1.1311629,-1.0376595,-1.2668203,-1.4510669,-1.1591913,-1.4390521,-1.2255987,-1.5997434,0.19136551,-1.4264146,-1.0676621,-1.5413146,-1.4596597,-1.0820513,-1.0835817,-1.1732672,-1.0223286,-1.2270305,-1.262498,-1.163723,-1.1373678,-1.5786574,-1.4232646,-1.29008,-1.4350892,-1.2402439,-0.79450446,-1.1854573,-1.1133373,1.1401962,-1.5681914,-0.98768157,-1.0637846,-1.3112632,-1.3977958,-1.3340786,-1.3913438,-0.96020967,-0.9892677,-1.4249893,-1.2179058,-1.1173962,-0.33368245,-1.1237272,-1.3041966,-1.2756492,-1.485854,-1.09598,-1.3953786,0.6932594,-1.1395814,-1.3142182,-1.5501789,-1.142084,-1.4049386,-0.984592,-1.0732259,-1.018793,-1.0992045,-1.0530196,-1.4915377,-1.2523472,-1.4575129,-1.420862,-1.3585179,-1.310688,-1.018629,-1.1803812,-1.4221416,-1.6824286,-1.3994981,-0.97239137,-1.2537831,-1.2741632,-1.1956824,-1.481758,-1.0022544,-1.0466526,-0.9867828,-1.4025561,-0.9518973,-1.4557639,-1.3382367,-1.4905695,-1.3554872,-1.3435489,-1.5108912,-1.4280996,-1.1498089,-1.0657448,-1.3056731,-0.9269163,-1.2070017,-1.1464274,-1.0860012,-1.2185414,-1.151274,-1.1191639,-0.8610325,-1.2327876,-1.4170395,-1.073372,-1.2080009,-0.9856394,-1.4299874,-1.371571,-1.0960883,-1.4581522,-1.1536273,-1.5836325,-1.3730279,-1.3419757,-1.3608623,-1.2467724,-1.2385732,-1.0089978,-1.2733026,-1.0961117,-1.2393899,-1.0650932,-1.063272,-1.5055403,-0.9150475,-1.0649014,-1.1903672,0.78109735,-0.98982733,-1.2621806,-1.4721693,-1.129501,-1.0426672,-1.3379904,-1.11901,-1.0664802,-1.4662668,-1.071176,-1.3511252,-1.4715052,-1.314785,-1.1115384,-1.0993321,-1.4678991,-1.2669833,-1.3796406,-0.97939646,-1.5011389,-0.6491463,0.58159095,-0.18095359,1.2288975,0.87968904,1.2286457,-0.66851705,0.3577349,1.2926897,-0.6433451,-1.1792555,0.13036227,-1.3194937,-0.23606957,-1.0314656,-0.17275657,0.45566884,-0.5994862,-0.77713454,-0.19778676,0.62134635,0.2679279,0.20556243,-0.71724105,-0.17351317,-0.3295001,-0.28192303,0.7131903,0.2799906,0.88245684,0.6517086,0.108108975,1.0804732,1.0057806,-0.9999518,-0.70041466,0.20043626,0.47641808,-1.2612861,-0.7993853,-0.30199194,-1.3727547,1.243224,1.151776,-0.66989315,0.63723755,-0.80293554,-0.9682952,0.3392786,0.43774936,-0.22407888,1.0360522,-0.20952828,-0.024712106,1.0384479,-0.98671067,1.2782303,0.7068463,-0.17147274,1.0642323,-1.2242966,-0.030110514,1.2863053,-0.49803343,-1.195558,-1.1824653,-0.23057802,-0.107733585,0.5277941,0.45570636,-0.8510621,-0.57405424,0.58669686,-0.5762178,-0.19256793,-1.1464453,-0.6464365,0.25666696,-0.21161032,0.018062005,1.1821634,0.9484817,-0.7873569,0.3072228,-0.43960404,0.26503128,0.5612264,1.0700926,-1.4689982,0.5474515,0.10715159,-0.13368836,0.8420595,-0.6324022,0.24344409,-0.60303557,0.8699159,0.57704026,-0.8373157,-0.37781018,0.28354323,0.590984,-0.2080654,0.26652837,0.8587304,-0.14390624,-0.087329544,-0.5511524,-0.8685606,0.22624499,0.27104554,-0.21304223,0.5972767,-0.8260968,1.0997865,0.94216937,0.8287176,0.6516904,-1.2757766,-0.085892186,0.66586083,-1.2607714,1.0824211,1.4372257,0.65707535,0.8207291,-0.62435335,1.2096729,-0.09502284,1.1159556,1.0710474,-0.52766275,0.0015064706,0.30690277,0.16384661,-1.3510674,0.37146324,-0.97044575,-1.1887531,-0.8621497,-1.2683553,1.6681187,0.59601164,1.4007765,-0.21793067,-1.2460699,-0.7264694,-0.04815298,0.29972616,0.40618196,-0.96147674,-0.491729,1.0565137,0.08973138,0.29541707,-0.5839198,-0.5707566,0.4998254,0.9071975,0.43559375,0.5294726,-1.1836289,-1.1970929,0.095902875,-0.8745711,-0.26840138,1.0516529,0.1757359,-0.7251136,0.27790326,-0.34231007,-0.14950429,-0.9434663,-0.40731648,0.18454044,-0.5653441,0.09770028,-1.029778,-0.76804626,0.48935604,-1.4896747,0.37593588,0.13064496,0.7369095,-0.12116751,0.22721308,-0.24592409,0.41283387,-0.16612695,0.28569493,0.42457783,-1.2539616,0.48196062,-1.4689687,0.82546276,1.0500385,-1.0260222,0.98258424,-0.91076005,0.23965749,-0.46608892,0.8199068,0.6855637,0.8508343,-0.56358784,0.1261072,-0.95618844,0.728643,0.986387,-0.6549527,-0.96040165,-0.20962457,-1.326358,-0.6513072,-0.9127891,0.75736386,-0.10921846,-0.31567952,0.34597844,0.35511452,-0.15576333,0.3734562,0.4984051,0.9169443,-1.1207492,-1.1220487,-0.6763662,0.41024995,0.30267325,-0.11342002,-0.8285718,-0.4329204,0.45059875,0.83323985,0.9329907,0.5139325,-1.1541312,-0.50432247,0.1596244,0.42438835,-0.55628586,1.2502525,0.31618884,0.19480203,-0.57224286,-0.45261607,-0.41570705,0.40995505,-0.5540992,0.72625786,-0.5835247,0.8609079,-0.9144752,0.15256709,-0.56108725,0.725096,-0.57685405,0.56104237,-1.3548704,-1.1899239,-0.20207968,-0.04828973,0.29002595,-1.1125264,0.3792043,-0.4285676,0.20730098,-0.9422353,1.0163021,0.5942543,-0.63371974,-0.58854455,-0.3121388,0.41621515,1.3569785,0.38430285,-0.9744637,-0.98785704,-0.42160508,-1.1054387,-0.6284632,-0.74308497,0.7678894,-0.8695911,0.2972788,-1.3362845,-0.5401329,-0.11899569,-0.7239766,0.13241972,-0.6530983,1.0778904,-1.0852952,0.019416215,0.564589,-0.7192657,-0.34180263,0.8112622,-0.24939412,0.4896981
DRUG_TRANSPORTER,0.5786494,-0.62308544,-0.65834004,-1.1642394,-1.0938911,-0.85692686,-1.0891778,-1.2914524,-1.4140371,-1.1070294,-0.46880424,-0.6277351,-0.308599,0.045529462,-1.0822723,-0.69539607,0.32177854,-0.9260258,-0.92095625,-1.0247242,-1.2032164,-0.85077465,-1.215536,-0.92890596,-1.013215,-1.343251,-0.36102077,-0.5143794,-1.1535412,0.53165025,-1.110951,-1.0642054,0.63423795,0.59455574,-1.4099568,-0.6780318,-0.6689738,0.19601773,0.87475926,-0.47437245,-0.79603934,-0.5353718,-1.27894,-0.18497042,-0.78855896,-0.9711447,-0.80665934,-0.95745987,-0.9502941,-1.165012,-0.97236216,-0.95603526,-0.5850722,-1.3063034,0.34701443,0.5915184,-0.50875145,0.19483921,-1.2851418,-0.9432218,-0.8324836,-0.9162198,0.71339023,-1.0249834,1.3949783,-0.2974731,-0.89384407,-1.0748134,-1.2964326,-0.8797102,-0.17964515,-0.85501915,0.047808062,-0.11075208,-1.330018,-0.37042546,-0.87390786,-1.2252817,-0.9317941,-0.9986076,-0.78621536,-0.53713876,0.92751044,0.42787367,-1.100343,-0.65392125,-1.1299258,-0.04873413,-0.65244055,-0.9082612,-1.0869254,-0.9500325,0.74988645,-0.95232546,-0.92565143,-1.107799,-0.65472156,1.430014,0.6993093,-0.61158866,-1.174304,-0.457172,-0.63483,0.97837585,-1.3005029,-0.9979604,-0.46403006,-1.1299572,-0.86017984,-1.0881377,0.30365667,-0.8519186,-1.1883354,0.8001136,-0.31698325,-1.3852404,-1.3514414,-0.8795735,1.0427655,-0.85971576,-1.0022637,-1.0783159,-0.98307,0.41436324,1.2082862,0.53450924,-1.3948991,-0.70790416,-1.2976406,-1.0061476,-0.88085806,-0.57037765,-0.77721757,-0.72054625,-1.0047529,1.3936535,-1.159003,-0.6475492,-0.06588247,-1.0988783,-1.1774795,1.0373461,-0.35138592,1.0840082,-0.43921608,-0.0054972298,-0.64205515,-0.97092813,0.58015215,1.0434442,-0.0776965,0.58408344,-0.1804184,-0.9932501,-0.96524566,-0.7815065,-0.9920958,-0.3539572,-0.66145307,-0.4732366,-1.1367799,-0.5050101,-0.30449763,-0.7148637,-1.1309141,0.19409537,-0.16902235,-0.40046686,-1.1479589,-0.5639342,-0.8909999,-0.84109896,1.0182734,-1.0345709,-0.8574963,0.12573887,0.9192724,-1.2358607,0.6456938,-0.5853724,0.9261294,-1.0706534,-1.0035208,0.3498111,0.18974933,-1.0816889,-0.9271336,-0.8500963,-1.3911529,-1.0147891,-0.4261977,0.47804806,-1.0587764,-0.9259139,-1.0255752,0.044528298,-0.37654227,0.030532874,-0.068806715,-0.6494407,-0.58376145,-1.0951257,-0.29605436,-0.37220293,-1.0789251,-1.1791496,-0.2279603,-1.0563881,0.6831177,-0.8327123,-0.15676372,-1.2913884,-0.9983307,-1.1084855,0.6240035,-1.1329261,-0.7411977,0.1591574,-1.1041406,-1.018568,-0.82851726,-1.3124295,-1.1222738,0.6702798,-0.74306005,-0.8686986,-1.0956198,-1.4509425,-1.0818434,-1.4132434,0.2404517,-1.0953102,-0.9185083,-0.67478734,1.2373481,-1.154857,-0.9949723,-1.1341652,-1.0363405,-0.29152235,-0.98711634,0.51300925,-0.057730086,-0.96611184,-0.88583773,-0.908659,-0.9504206,-1.243107,-1.0777155,-1.1127958,-1.0888127,-1.0406994,-0.5592244,-1.0151926,0.16190618,-0.40186304,-0.9976816,-1.1225773,0.77473414,-0.63021207,-0.99981576,-0.97181284,0.1355329,-0.35934427,-0.34372014,-0.92066103,-0.12847261,-1.0225102,-0.5506097,-1.0068622,-1.0279958,-0.67742753,-1.2084348,-0.9873966,-0.5621675,-0.79092985,-0.90768236,-0.9557675,-1.1560769,-0.5472008,-0.8719893,-1.0468668,-0.76400775,-1.2816367,-1.174712,-0.39338228,-1.2726496,-0.9044623,-0.60323167,-0.87789196,-0.8946903,0.55537707,-0.96443915,-1.4551259,-0.7957139,-0.001580618,-1.389458,0.314248,-1.1661224,-1.0869187,-0.5068393,0.033764165,-0.51822186,-1.0554166,0.29708993,0.8307588,0.7767906,-0.48867583,-0.2095881,-0.21644856,0.31325197,-0.4224544,0.61390346,-0.4665955,-0.7704157,-0.4706971,0.110654674,-0.36837408,-0.18145831,0.07731546,0.5988441,-0.7371894,0.8128493,-0.69012105,-0.00734238,-1.1369231,-1.0619736,-0.36431825,0.46346062,0.6561868,-0.9984252,-0.7939643,-0.58601934,-0.8047171,-0.29716575,-0.74896544,0.30664164,-0.7688775,-0.47890106,-0.7786319,0.69074905,-0.9647181,-0.6568755,0.57522255,0.32448354,-0.6204384,-0.039197307,1.2717334,0.05192061,0.45778045,0.057480182,0.51704496,-0.07477797,-0.5454023,0.33380157,-0.8077939,0.84961486,0.6065548,0.6562852,-1.0342678,-0.66031826,-0.3347249,0.6525616,0.59394974,1.25499,-0.48794904,-0.30597708,0.2199304,-1.0716804,0.62168,0.7256668,0.28223425,0.9713776,0.66485673,0.55023855,0.05006276,0.51074487,-0.22606081,-0.1912585,-0.22701602,0.645784,-0.516673,0.61182183,-0.73963296,-0.27215284,-0.87162006,-0.53586656,-0.49460304,0.6854996,0.3942728,-0.70552146,0.6893132,-0.88761604,-0.14160019,0.3439587,0.88774335,0.19410181,-1.2749137,-0.2595992,-0.1335806,-0.5524399,-0.56432354,0.7359013,-0.08946236,0.57173425,0.62243587,-0.3966846,0.084613875,0.035880204,-0.033856966,0.096384354,-0.22647734,0.31376532,0.25429478,0.7524659,0.9035357,0.09995897,0.7880383,0.01823311,0.6558238,0.3907148,-0.1552439,-0.5229063,-0.96180224,-0.8478607,0.561436,0.20697685,0.37100813,-0.8364126,-0.12923522,-0.32478163,0.32841164,-0.9067724,-0.20312712,-0.033948194,-1.1722574,-0.32985407,-1.0039157,0.8011119,-0.200977,0.23319739,-1.3625505,-0.6855138,-0.81534064,0.70650166,0.1168129,-0.8484586,-0.87968135,0.32134563,1.2847509,0.44590297,0.95280755,-0.4335271,-0.7312891,-0.1984786,0.6466419,0.19003817,-0.15971595,0.107006036,-0.6198924,-0.6784492,0.44755256,1.0097001,-0.6870851,0.15857142,-0.77774435,0.025830042,-0.082969464,-0.35151896,-0.30028915,0.62825763,-0.21533388,0.6755507,-0.442078,-0.37424606,-0.43207338,0.40502623,-0.27665704,-1.0164499,0.4116952,0.27393112,0.015193176,0.36096704,-1.0762855,0.5635711,-0.013999139,0.58026314,-0.05367882,-0.33219546,1.0540107,-0.14153214,-0.4790302,-0.76000905,1.0971863,-0.4136573,0.443102,-0.36485988,0.16253209,-0.7734191,-0.42834666,-0.052647155,0.73465765,-0.8523371,-0.73323274,-0.010225683,0.8813681,-0.25838047,0.26830894,0.47792527,-0.6751933,-0.24520035,0.227059,-0.07113723,0.3701514,1.007248,0.23650807,0.37743485,-0.5960391,1.0352658,1.0411053,0.28775623,1.2405757,-0.08806212,-0.20592037,0.51349956,0.2649696,0.20257153,0.13943107,-0.63361424,-0.73927146,-0.54734206,0.80536264,0.16294162,-0.23239145,-1.1628847,0.85848594,-0.13331069,0.1780598,-0.887581,0.41486388,-0.4223346,0.51622313,-0.7012952,-0.1376214,0.96030074,-0.7739205,-0.65943956,0.04521918,-0.68199587,0.17523378,-0.54537904,0.075516425,0.53827554,0.7487361,-0.86854863,0.35680315,-0.2764131,0.030469188,-0.9004678,0.59856236,0.33651778,0.36847416,0.031707056,-0.3830113,0.09078255,-0.027761906,0.7217484,-0.63316613,-0.14138216,-0.08439424,1.1367304,-0.05961164,-0.14044282,-0.5368348,1.0389298,0.31883684,0.43400738,-0.091536455,0.84692407,-0.8229137,-0.30210155,-0.45352766,0.8807829,-0.4821058,0.3338097,0.60264945,0.36987162,0.3613853,-0.7450345,0.24238828,1.1851791,1.0214777,-0.8970036,-0.33888826,-0.759198,0.17904204,0.7140706,-0.0754921,0.36976492,-0.6335611
DRUG_ENZYME,0.8249412,-0.99727124,-1.0420358,-1.199493,-0.9195443,0.10407814,-0.7622766,-1.259875,-1.2290983,-0.9250996,0.16935627,-0.93015486,-0.14036277,-0.6657735,0.06275169,-0.8888495,0.73914343,-1.1494294,-0.7755833,-1.0154138,0.17145555,-0.86416584,1.1524192,-0.849103,-0.46844268,-1.1035804,1.2354043,-0.2743796,-1.2571218,-1.4493712,-0.46031627,-0.9213434,0.7907926,-0.98668504,-1.3077898,0.8457108,-0.699728,-0.8302188,0.04358967,-1.2583681,-0.9153905,0.8156164,-0.75046545,0.9925817,-1.0268607,0.120267846,-0.80742717,-1.0786349,-0.9446878,-0.9780591,-1.1924198,-0.9019887,-1.014371,-0.04348891,-0.13980351,0.604261,0.061289568,-0.47392264,-0.8511464,-0.9425431,-1.2275074,-0.59811544,0.39730003,-1.0744416,0.29338983,-0.046383634,-0.9888913,-1.0546407,-1.1513007,-0.87274605,-0.53736645,-0.79470396,-0.11741094,0.72490996,-0.67518836,0.21494904,-1.0332209,-1.1273668,-0.8857729,-0.8880329,-1.0269544,0.92220896,0.511699,0.47983986,-1.0744164,-0.17053296,-1.0007141,-0.088122316,-0.55482346,-1.1737014,-0.9878042,-0.88279325,-0.5165611,-0.8724873,-1.137434,-1.048337,-0.86062557,0.53919506,1.2477313,-0.57901525,-0.960903,-0.5445259,-1.0695963,0.023142477,-1.2186556,0.87253344,-0.51875806,-0.8936124,1.0502657,-1.0115408,0.6101742,-0.95472544,-0.9636349,0.8378718,-0.49660206,-0.49538746,-1.0205718,-0.84747744,0.6666862,-1.0867552,-0.9003026,-0.9866312,-1.6835127,0.021164993,-0.58448255,-0.048104208,0.033337984,-0.27250925,-1.2674186,-1.0300231,-0.9182889,-1.0858718,-0.8606838,-1.1509873,-0.9254272,0.83615404,-0.8747364,1.2687467,0.29723135,-0.63897085,-1.3277586,0.6551642,-1.2251444,1.1259513,-0.16422401,0.5579364,0.5456001,-0.92183864,-0.7394855,-0.5515678,-0.6162064,-0.5993639,-1.10688,-0.85154295,-0.86749035,-0.86630833,-0.8956899,-0.7146935,-0.6855221,-1.0332055,-0.7989868,0.9691738,-0.009710425,-0.48129067,-0.91991353,1.0538626,-0.20551105,-0.8115722,-0.8260405,-0.7719738,-0.896685,-0.55441105,-1.1114858,-1.083845,-0.92248875,0.12522107,1.3735561,-0.9356863,0.9330471,-1.1048205,0.8074676,-0.97395676,-0.63080394,-0.028604737,-0.62707627,-0.8111013,-0.8106981,-1.0324439,-1.2998253,0.5898854,-0.20897143,-0.59889114,-0.90737414,-0.623556,-1.1576891,1.0115076,0.23121092,-0.63363045,-0.15651563,-1.0313393,-0.4936009,-0.8927927,1.1587212,0.30501297,-1.1294687,-0.72308224,0.8337757,-1.0577643,-0.477873,-0.86140895,0.6693705,-0.39268085,-1.1620654,-0.94767064,-0.058743555,-0.975864,-0.8614206,-1.1640702,-0.7330105,-0.5444202,-0.7980261,-0.6882118,1.0728416,0.2773981,-0.924752,-0.47853333,-1.1796006,-1.1975497,-0.7108829,-0.42964107,0.19552897,-0.8563313,-0.8214584,-0.71579385,0.9971731,-1.0829571,0.4419382,-1.0618048,-0.61768657,-0.0023584822,-0.61652327,-0.79023427,0.015834186,-0.87001544,-0.9126426,-0.9280579,-0.9987829,-1.1256832,-0.9696448,-1.2173904,-1.2086471,-0.98696536,1.1552689,-1.0652534,-1.2313184,-0.15180434,-1.0702901,-0.99451494,-0.5698855,1.0350858,-0.9138944,-1.3421994,-0.38146514,-1.0272595,-0.45708573,-0.6712903,-0.69151306,-1.0678859,-0.28250667,-0.8758201,-1.180751,-0.8886118,-1.2633892,-0.9300996,0.035314154,-0.410877,0.8121162,-0.9865544,-0.90778524,-1.2495236,-0.7509493,-1.0595438,-0.28803542,-1.3458061,-0.79121405,0.19206765,-0.88106024,-0.80945617,-0.74142057,-0.8877149,-0.9178464,-0.4696102,-0.889225,-1.241492,-0.5173234,-0.6775998,-1.1851496,-0.7450852,-0.971256,-0.20626424,-0.8520984,-0.652826,-0.8728805,-0.18229099,1.0538325,0.7446986,0.4760475,0.48982695,0.7689053,0.80138177,-0.8933603,-0.3760273,-0.2612632,-0.31378052,-0.7972054,-0.57746166,-0.36055556,0.8362896,-0.6356545,-0.6614964,0.9642199,-0.54968107,-0.023539806,-0.5145691,0.930885,-0.6373731,-1.0926815,-0.11327532,0.7415324,1.2493927,0.22132453,-0.5269582,0.86033785,-0.8044606,-0.3029821,0.60206264,0.52240926,-1.0363444,1.10773,-0.45774183,0.41952452,-1.3045098,-0.13102865,0.4315874,0.6478671,-1.1388546,-0.74796844,1.2479302,0.4165067,0.68073225,0.8533764,0.56948787,-0.7218119,0.37279347,1.6097181,1.0591241,1.1658579,1.1083272,-0.9279057,0.6809466,-0.6315583,-0.5706678,-0.25699705,0.4131393,-1.1953789,-0.9062845,-0.029025007,-0.5979808,-0.11302358,0.823305,-0.941907,0.79980975,-0.45481753,0.84039056,0.38138053,1.1056237,0.8969819,-0.63566935,-0.84238136,0.23803465,1.1044198,1.0048168,1.0233933,-0.31910723,-0.26030916,-0.14050566,-0.75892985,0.33559203,0.7781747,1.1608953,0.58418393,0.3481722,0.045115042,0.5177076,0.6989357,1.2933551,0.6250752,-1.2252091,0.8330734,-1.0093337,-0.48765224,-0.6331963,0.7271875,-0.18593922,-0.1585009,0.8026874,0.27927807,0.044232186,0.5762688,-0.36234498,0.9726238,0.20873325,-0.53164417,0.96669644,-1.0397211,0.35072106,-0.2923381,0.96899337,-0.29746443,-0.10156561,0.07511242,-0.3979533,-1.3249172,-0.9033059,0.63572663,0.83958966,-0.5545663,-0.49150836,-0.6790353,0.22313131,0.57057935,0.8806428,-0.37631562,-0.34833524,0.34578606,1.0576415,-0.7588698,-0.9007108,1.1891977,-1.2107751,0.22664912,-1.1041054,-1.203142,1.2253351,0.008209152,-0.7003187,-0.3510768,-0.56236154,0.7515111,0.589131,-0.1792352,-0.1341921,0.4984612,-0.26206914,-0.827326,0.27029842,0.41713503,-0.6589303,0.300964,-0.8731694,-0.49703893,1.1366674,-0.39877033,-0.9579266,-0.489533,-0.6076454,-0.62927365,0.5295271,0.24883212,0.62980795,0.6133911,-1.1269898,0.99147725,-0.42796627,-0.7909278,-1.0991452,1.3732007,0.6300163,0.21588884,0.04288876,-0.03090573,-0.48915967,0.6710903,-0.7751328,-0.56292075,-0.3004785,-0.2562838,0.71620715,0.574188,-0.19036397,-0.70148444,-0.08935592,0.15224011,0.95892507,-0.57544994,-0.03215524,-0.14371611,0.26075047,-0.92980224,-0.83276755,-1.2697723,0.8273606,-0.80529875,0.75924087,0.44251972,-0.59014267,1.3965327,0.8022055,-0.834529,-0.8075674,-0.49474517,-0.07022054,1.2074405,0.67885816,0.8677639,-0.17655456,0.7072063,-0.9135468,-1.2437891,0.30877313,0.5438547,-0.5559299,0.6868804,-0.375155,0.93151057,0.77968943,-0.41227707,-0.8056944,-0.8033562,-0.65857697,0.17005941,0.5562554,0.4119998,0.47168654,1.1082472,-1.217688,0.692978,-0.40898824,-0.91300714,-0.38000825,-0.015377279,-0.10218185,-0.6936058,0.56346846,0.536926,-0.16868448,0.21839471,-1.1018395,-0.7883494,-0.9880909,0.24541181,-0.12885256,-0.9436085,0.9148091,0.10280853,0.44965535,-0.1885266,-0.4044095,-0.2793348,0.14314604,0.57469034,0.8735665,0.07723145,-0.32549116,-0.7934776,1.1166861,0.44098282,-0.10916704,-0.4845315,0.15941054,1.1653115,-0.5111852,-1.5369872,-0.46841782,1.1589832,0.3354708,0.64451975,-0.3976208,0.6291307,0.0067334054,-0.3941869,0.59921724,0.6338906,0.75083137,0.94843614,0.3926883,0.32649896,0.48558924,-0.74414086,0.3126214,1.404029,0.13869445,-0.19720125,-0.2647165,-0.70422107,-0.23164752,-0.766438,1.1190821,0.14479777,0.4884859
DRUG_ATC_C1,-0.9146163,-0.36153263,-0.8515322,0.46420228,-0.9224011,-0.08154266,-0.9341235,-0.07461726,-0.7555374,-1.0929097,0.86423916,-0.6972835,-0.057770833,-0.0057165804,-0.41979322,0.1415634,1.1563704,-1.3269001,-0.78427565,-1.087166,0.4102742,-0.81758875,-0.07226498,-1.0552036,-0.59201914,-0.5694319,0.3383645,-0.604832,-1.1597356,-0.8072378,0.8103747,-1.0076427,0.34496248,0.96814746,-1.1168934,-0.43923947,-0.82298964,-0.1729631,-0.37013432,0.59120977,-0.90460616,0.65381515,-0.8517153,0.8695489,-0.84943926,1.0101552,-0.7295278,-1.06175,-1.0399996,-1.0481156,-0.7236214,-0.8918398,0.38038948,-0.3163429,-0.36035827,0.1840785,-0.42185867,-0.73885536,-0.71276206,-0.7099185,0.78204894,-0.40403774,0.60968333,-0.91826916,-0.81937146,-0.4501711,-1.0603378,-1.0696731,0.2545919,-0.83473337,-0.10716355,-0.9859377,0.90464723,0.9806703,0.11182866,-0.8083751,-0.6309132,-0.6580135,-0.9124659,-0.95190996,0.4280627,0.88520825,1.1821979,0.2725857,-0.47848737,0.9719885,-0.9066032,0.34299982,0.8378408,-1.1623204,-0.9410053,-0.6940127,0.6254442,-0.8907078,-1.1931396,-0.3984279,-1.2250628,0.77781117,0.59189856,-0.9328165,-1.01956,0.75584036,0.8574219,-0.8709427,-0.863886,0.7881219,-0.60740227,-1.1107252,-0.5132934,-0.93154454,0.8128535,-0.7920413,-1.0466655,0.7834446,0.9909314,1.1366855,-1.0384711,-0.92419475,1.2118728,0.6219976,-0.9273144,-1.3122604,0.19977087,0.4148644,0.042762917,0.8891886,0.3039203,-0.5372744,-1.1009685,-0.9087876,-0.7598554,0.011281997,-0.7546861,-1.3379434,0.4642032,-1.1713952,-1.2232296,-0.93686426,0.27354756,-0.17137346,-0.78155184,1.2397099,0.09748385,0.062398333,1.0311211,-1.0312699,0.02379262,-1.1885146,-0.52263653,-0.054704137,-0.965785,-0.36899698,-0.3853535,-0.7401015,-0.8904632,-0.73978364,-0.9164072,0.047944106,-1.0797998,-0.66802084,-0.97797936,0.49847335,-0.32786107,0.39520976,-1.1966428,-0.45710054,-0.725107,-0.36398274,-1.0009977,0.063056074,-0.81845015,0.23724793,-0.4827732,-1.0933751,-1.0642177,-1.739414,0.861883,-0.92238164,0.7360822,-0.4779223,1.1319038,-0.94175494,-1.1093796,0.22456244,-0.19822633,-0.9250358,-1.0265541,-0.8563149,-0.695882,0.06391443,0.28608057,0.41106787,-0.70238906,0.95716393,-0.8285052,-0.21755515,0.021795584,0.5741183,-0.008364895,-0.5435655,-0.5549052,-0.91718423,1.1002141,-0.6398345,-0.9513798,-1.0668478,-1.2133611,-0.98688114,0.7347498,-0.7177606,1.0106325,0.41193327,0.65476257,-0.9148969,0.6963515,-0.7309141,-0.8586756,-0.9145673,-0.963778,0.51289153,-0.89514256,0.7230489,1.2245162,0.4562652,-0.66274816,0.6486568,-0.8894537,-1.2841729,-0.79785985,-1.1969616,-0.9455351,-0.96112823,-0.83132577,-1.0249262,0.96440995,0.78033847,1.021029,-1.2436231,-0.031734392,0.8791003,-0.2907492,0.0073582865,0.46520007,-0.735876,-1.0793108,-0.8131052,-0.905684,-0.8448492,-1.0773742,-0.87096936,-1.2080908,-0.6332088,-0.7511859,-1.0090835,0.0062616654,-0.10850754,-1.0808645,-1.1172079,-0.3759052,0.35504,-0.86455184,-0.9834399,-0.8691441,-0.8153909,-0.82662165,-0.7279784,0.67032236,-0.94470996,0.20503373,-1.0472611,-0.7652712,-0.6984535,-1.0803607,-0.9552408,0.66973037,-0.59440464,-0.06566613,-0.927831,-1.0415066,0.26211888,-0.8101564,-1.1031164,-0.84148335,-1.2462474,-0.71881133,-0.7159031,-0.7429697,-0.7985234,0.3892746,-0.90907377,0.61600775,-0.6023182,-0.94688445,-0.96452737,-0.6401201,-1.1384132,-1.2201003,0.50605214,-0.970823,1.196652,-0.14719093,-0.9309344,-0.78308386,-0.8795605,0.79197633,-0.34350026,0.9727353,0.91484636,-0.29507288,0.6997232,0.87572443,-0.11128327,0.46057257,-0.02080955,0.079464994,0.73235595,-0.81096923,0.37885895,-0.6969629,-0.6109022,-0.07402333,-0.55743086,0.6893121,-0.25748473,0.7333718,-0.7133638,-0.7119549,-0.057915114,0.2625226,-0.27540353,-0.5862357,-0.57526773,0.22385299,-0.9215586,-0.4003804,0.88411653,0.5667129,0.08174801,0.13246346,-0.6503255,0.9158522,-1.0335153,0.31684607,-0.23734036,0.78258425,-0.972347,-0.8336096,0.24446061,-0.4875598,0.34761757,0.739965,0.61556554,-0.54535997,-0.30423018,-0.06609695,-0.78117913,1.0075699,-0.4621817,-0.53849417,-0.13264394,-0.5302452,-0.627485,0.669776,0.75096303,0.67545485,-0.31159258,0.8643774,-0.74021816,-0.45831582,0.7447565,0.7789064,0.49038586,0.9442257,0.725656,0.83359104,0.5301951,0.50554305,-0.32929456,-0.21891953,0.5589403,-0.38222146,-0.36343402,-0.95565367,0.66824406,0.77271134,-0.5678783,-0.4673178,-0.72555584,0.12357344,0.62004125,-0.35158494,0.55967945,-1.17501,0.77306074,0.2688402,0.04753332,-0.68921304,-0.67149615,-0.76219016,0.58147264,-0.8100533,0.48822567,-0.24365109,0.58140975,0.8124851,-0.4375264,0.060064457,0.6429496,0.20049167,-0.013679567,0.3986996,0.82969475,-0.09849712,1.1655477,-0.44017717,0.7203089,-0.6077707,0.23281488,0.80685633,0.65036637,0.9142542,0.007770446,-0.029189209,0.878711,0.6192189,0.850498,1.0175759,0.7407404,-0.12656963,0.7393191,0.12210544,1.2701248,-0.54978377,-0.9253483,0.07527895,-0.4690669,-0.27345887,0.119009905,1.0976863,0.1358187,-0.14289206,-0.55973715,-0.31791002,-0.4264424,1.2263678,-0.7558346,-0.8656133,-0.30621317,-0.7674535,0.64695835,0.98647654,-0.4667125,1.5493623,-0.6308398,-0.7349611,0.91880924,0.35932553,-1.2863522,0.7621778,-1.27589,-0.54820985,1.2231687,0.4227874,-0.757249,-0.6525921,-0.08499519,0.2111339,-0.23024434,0.17357789,0.55728894,0.68778545,-0.9971584,0.8948598,-0.627814,-0.60389477,0.8069359,-0.145726,0.6912596,-0.82634956,0.3536591,-0.06760564,0.52525264,0.754658,0.5179233,-0.45955163,-0.47105882,0.32764024,-0.36183408,1.0015203,0.84231484,0.36573407,0.9971367,-0.4422604,1.0666275,0.5903563,0.2677563,0.53586435,-0.71508634,0.8761064,-0.5910541,-0.30555162,0.77198356,-0.97305876,-0.8984713,1.0334367,0.6630161,-0.8220966,0.6212798,1.2295077,-0.7740451,-0.5941675,-0.65477514,-0.29148343,0.701271,0.8778608,-0.38853988,1.1042031,-0.40409178,0.5875495,-0.71179163,0.6800823,-0.70613444,-0.41549802,-0.8456833,0.8473563,1.0152966,0.71179754,-0.17627697,-0.6477987,0.407732,0.06734101,0.42157274,-0.17498451,-0.48422113,-1.044976,0.39876723,-0.3718302,0.872783,-0.85942495,-0.83739454,-0.94109225,0.51542497,-1.0179842,0.50132245,0.9725484,-0.78400713,-0.05697301,-0.6507233,-0.7853201,-0.13887776,0.17669562,-0.5052622,0.09207013,0.77838254,-0.59203607,0.94802666,0.52060956,-0.6539953,0.735321,0.585673,0.9086411,0.6716915,-0.36071008,0.71338934,-0.55374545,0.20572503,-0.453284,-0.616154,0.6695054,0.21088149,0.718385,-0.6357075,0.36221793,-0.59431654,0.8904968,0.34870782,0.042407136,-0.5912672,0.6425025,0.25414735,-0.64683026,0.32262895,1.1262422,-0.5856063,0.6796778,0.15663262,0.5889221,0.4406959,-0.62579525,0.7506656,0.81241316,-0.054688405,0.2633628,0.32466367,-0.48076493,-0.51296926,-0.12607607,1.0720662,0.15703724,-0.69606704
DRUG_CARRIER,-0.21952349,-0.62519586,-1.2004054,-0.3373717,-0.8080468,0.42962614,-0.48354468,0.28384385,-0.9587013,-1.1294063,-0.31489497,-0.7615848,-0.40426812,0.04166611,-0.6402669,0.21458203,-0.24470378,-1.1024569,-0.9204728,-0.9862452,-0.2248345,-0.98277295,-0.62469333,-0.8234672,0.5100292,-0.84600884,0.3379155,-0.44639197,-1.1599219,-0.2239452,0.060490042,-0.66272795,-0.38627207,0.75487584,-0.8127319,0.5291464,-0.84242964,-0.696563,-0.41832656,0.058361195,-0.80547094,0.05186488,-0.60907227,0.16378132,-0.82692164,-0.5724371,-0.84503657,-0.50762224,-1.0233195,-1.2109376,-0.6593082,-0.82191586,-0.3441945,-0.23023866,-0.14646785,-0.36690226,-0.28439456,-0.43549952,0.05150048,0.2265849,-0.56947714,-0.7098741,-0.28564277,-0.9214214,0.45563668,1.1338369,-0.8013888,-1.0592043,0.42590994,-0.67717046,0.18011206,-0.9722508,-0.5704672,-0.10115426,0.22808674,-0.13025086,-0.42658395,-0.77293056,-1.0914435,-0.6580044,-1.1520325,0.100741684,0.2170795,-0.7984188,-0.76058716,0.14544322,-1.0572836,0.24382548,-0.65911263,-1.046077,-1.0309718,-0.9273673,0.20234497,-1.2790684,-1.0573578,0.82856095,-1.0526994,-0.7858649,0.08471846,-0.29658675,-0.81022716,0.45637822,0.15781762,0.014177131,-1.002548,0.28588885,-0.47050497,-0.79428226,-0.87582463,-0.93054867,-0.8064735,-1.2283502,-0.8268977,-0.16823298,0.51362205,0.26489595,-0.93153876,-0.9070279,0.30575213,0.0017021933,-0.9429206,-0.5674097,0.42595056,-0.5375142,0.039078932,-0.39791217,0.04594428,0.68595517,-1.0661196,-1.0568496,-0.9059318,0.56483656,-0.5458448,-0.8363783,-0.7304921,-0.726722,-1.0938387,0.4047267,-0.7834994,-1.2632537,-0.94615155,0.7587749,-0.51059604,-0.6050253,0.1383585,0.29252422,-0.08819801,-0.8653477,-0.4172616,-0.51507014,-0.34269488,-0.4623834,-0.37020695,-0.86333907,-0.751176,-0.61686814,-0.8916091,-0.9171069,0.24113503,-0.6983714,-1.0857573,-0.92652065,-0.0649015,-0.8187895,-0.71902406,0.37222832,-0.2817952,-0.2571031,-1.0190935,0.23182286,-0.81248105,-0.08430554,0.85293937,-0.8150921,-0.56394696,-0.07599282,-0.38888347,-1.1423985,-0.83957684,-0.35969973,0.19758314,-0.9729692,-0.72941446,0.013561267,0.47050864,-0.9518232,-0.91700727,-0.94304854,-0.88381386,0.44181943,0.6478138,-0.7750031,-0.70778877,0.4161603,-1.0112494,0.41469455,0.76295793,0.46542972,-0.43059748,-0.41627645,-0.73614335,-0.7725566,-0.31324306,-0.5497725,-1.0559402,0.1376204,-0.5914179,-0.7803315,-0.54119396,-0.83775204,0.20596373,-0.7746109,-0.5616571,-0.97273797,0.24184018,-0.9204525,-0.7896309,-0.120574616,-0.7383343,-0.97321194,-0.82222503,-0.43570793,0.23004034,0.778667,0.007178064,0.31943345,-0.9031276,-1.0208137,-0.98822397,0.31050292,-0.31269327,-0.93282354,-0.7128622,-0.92150265,-0.87268907,-0.60333204,0.5525903,-0.85886884,0.047106985,0.030817237,-0.043577064,0.8417226,0.1256841,-1.0187534,-0.027631521,-0.9761045,-1.1288524,-1.208169,-0.8263487,-1.1309664,-0.9540754,-0.87470245,-0.2264182,-0.9831558,-1.0054415,-0.21195109,-0.9101308,-1.0848672,0.03932056,-0.026218943,-0.957319,-0.22660394,0.7724013,0.47684842,0.40882257,-0.93372256,-0.09734903,-1.0356497,-0.110475175,-0.9484912,-1.0386912,-0.80018955,-0.6001778,-0.79549915,0.81553817,-0.014027448,-0.8658079,-1.1198522,-1.0069109,0.1889733,-0.8194476,-1.1452677,0.40004322,-1.1382992,-1.0226657,0.0038548266,-1.1531875,-0.9171607,0.5105238,-0.89666563,-0.48902658,0.59752715,0.095402,-0.7737017,-0.39678222,-0.76020473,-1.1224872,-0.34844506,-1.0390193,0.082059756,0.011719051,-0.35380825,0.00955515,-0.7033085,0.45485792,0.12422381,0.6414195,0.4820506,-0.1505145,0.32949343,0.41916445,-0.4688489,0.48857486,-0.36857736,0.19396523,-0.40001518,-0.6052962,0.31657952,-0.38588077,-0.5309802,-0.21396357,-0.38409355,0.39127082,-0.740105,-0.10868148,-0.7737297,0.63773525,0.047630068,0.10764824,0.31133112,0.5831726,-0.38756675,0.3754484,-1.0158043,0.57561314,-0.8510571,0.21121506,0.41480115,0.15257008,0.60424155,0.49157304,-0.85933983,-0.41507396,-0.01141009,0.08220226,0.41396472,-0.3086378,1.2323517,-0.45443845,0.7516511,0.78950375,0.4848685,0.3867473,0.0388309,0.9781458,-0.07313153,-0.64925635,-0.3919814,-0.5620502,-0.6483069,0.16538388,-0.71824646,-0.22375013,0.45474327,1.0980701,-0.63958055,-0.37841094,-0.45900315,-0.453958,0.5056651,0.8520906,0.49879998,0.5434805,0.71573037,-0.4495869,0.61853886,0.685304,-0.27581453,0.54705364,0.23471943,0.9253968,0.52019775,-0.4800893,-0.13391033,-0.0044395276,-0.5001927,-0.6375356,-0.3406404,-0.19488928,0.34527844,-0.07460095,0.45486665,0.46464452,-0.5161809,0.23368828,-0.18742329,0.31514296,-0.14128545,-0.5692297,-0.49159122,-0.2670987,-0.5239014,-0.37249598,0.16482867,0.21448097,0.116089575,0.8445658,-0.36825883,0.57123816,-0.19638944,0.080548175,0.16046055,-0.43955767,-0.39597002,-0.026356937,0.61328447,0.35508645,0.92276394,-0.6371137,0.61491424,-0.047054164,0.7053383,-0.23919487,0.42506066,0.61758476,0.45747837,0.6163554,0.49541864,-0.7325987,-0.64462405,-0.6160658,0.38102672,-0.34113464,-0.65313643,-0.4841058,-0.7245601,-0.31671828,0.57349044,0.88722605,-0.5540762,0.4771437,1.0068201,0.5406493,0.22739986,0.6511739,0.20385306,0.4956559,-0.40462315,0.7017711,0.40313637,0.21002662,-0.13093743,-0.5137165,-0.4123169,0.22850652,0.66930616,0.3528609,0.3169986,0.09750149,-0.7058939,-0.7474067,0.1881555,0.63179344,0.6090333,-0.37821016,0.10061354,-0.60006106,-0.16362281,0.03161533,-0.2987853,0.41608447,-0.2862089,0.5649751,-0.38015035,-0.90576416,1.0244724,-0.07832012,-0.06792914,-0.67875904,-0.010254357,-1.3847651,0.031298906,0.3928316,-0.53205705,-0.5812544,-0.31754386,0.2795746,0.40179268,0.46944645,0.5043368,-0.0737584,-0.65181774,-0.7848426,-0.6145127,-0.5681636,-0.594237,-0.22221337,0.61568606,0.17659084,-0.50378394,-0.54395634,0.9169583,-0.23713483,0.06427329,0.24929015,-0.50011116,0.004343361,0.15362905,-0.41689867,-0.3516375,0.27124235,0.49611086,0.9505415,0.76078963,0.36264968,-0.6262879,0.16172753,-0.9062882,-0.16542971,-0.068851925,0.3473224,0.41391122,-0.27877316,-0.5291826,-0.26872703,-0.37659162,0.14681795,-0.06519447,-0.7507891,-0.46223402,-0.27780837,0.42628953,-0.21313031,0.15713456,1.0702784,-0.29157153,0.54181385,0.7186159,-0.98106456,-0.5607317,-0.30912134,-0.25596154,0.6000175,0.07086485,0.695276,0.018176574,-0.6935976,0.10767339,-0.5143618,-0.7492487,0.33819452,-0.74739355,0.6878448,0.21860246,-0.929138,0.5371986,0.06719757,-0.2801089,0.2579925,0.3408476,0.38204175,0.59502244,0.44702622,-0.3393006,-0.10193428,-0.029636772,0.447282,0.5275677,-0.058734246,-0.11044286,0.717143,-0.12776364,-0.024290001,-0.43117982,0.9537097,0.5268569,-0.46094912,0.03633213,0.5245149,0.5891049,-0.4506799,0.04180785,-0.36669338,-0.27073058,0.39432773,0.7603568,0.6470739,0.9136211,0.47445646,0.43220425,-0.80194217,-0.5091638,-0.58466774,0.036584996,-0.68419665,-0.4840506,0.3493567,0.122128986,0.2073159,0.615576
